<?xml version="1.0"?>
<opencv_storage>
<!-- Created using Computer Vision System Toolbox(tm) for MATLAB(R) -->
<!-- Version 8.6.0.267246 (R2015b) -->
<!-- Compatible with OpenCV 2.4 -->
<cascade>
  <stageType>BOOST</stageType>
  <featureType>LBP</featureType>
  <height>44</height>
  <width>32</width>
  <stageParams>
    <boostType>GAB</boostType>
    <minHitRate>9.9500000476837158e-01</minHitRate>
    <maxFalseAlarm>5.0000000745058060e-02</maxFalseAlarm>
    <weightTrimRate>9.4999999999999996e-01</weightTrimRate>
    <maxDepth>1</maxDepth>
    <maxWeakCount>100</maxWeakCount></stageParams>
  <featureParams>
    <maxCatCount>256</maxCatCount>
    <featSize>1</featSize></featureParams>
  <stageNum>10</stageNum>
  <stages>
    <!-- stage 0 -->
    <_>
      <maxWeakCount>12</maxWeakCount>
      <stageThreshold>-7.1685856580734253e-01</stageThreshold>
      <weakClassifiers>
        <_>
          <internalNodes>
            0 -1 27 -137363457 -153626418 -780104954 -75062394
            -628638802 -491880312 -74454898 -723715890</internalNodes>
          <leafValues>
            -8.2029342651367188e-01 3.8309353590011597e-01</leafValues></_>
        <_>
          <internalNodes>
            0 -1 22 -70256641 -237639729 -569278327 -993992092
            -502596821 -1874556792 -892343317 1086843599</internalNodes>
          <leafValues>
            -6.9742220640182495e-01 4.6240893006324768e-01</leafValues></_>
        <_>
          <internalNodes>
            0 -1 132 -14682302 -683420150 -1056079860 -137674488
            -747908335 -83128057 -670506998 -749748222</internalNodes>
          <leafValues>
            -5.5232822895050049e-01 5.7614701986312866e-01</leafValues></_>
        <_>
          <internalNodes>
            0 -1 1 1725422974 2043671454 -578694689 -505181430
            -108790785 -122518894 756522699 79989612</internalNodes>
          <leafValues>
            -6.5172523260116577e-01 4.3529328703880310e-01</leafValues></_>
        <_>
          <internalNodes>
            0 -1 49 -712183890 -1051290786 1107333214 -997408568
            -803363670 1661173794 545489098 1089439887</internalNodes>
          <leafValues>
            -7.0603609085083008e-01 3.8497623801231384e-01</leafValues></_>
        <_>
          <internalNodes>
            0 -1 48 -985533072 822858113 268437632 -1757298686
            -800726627 -771714936 -1028013393 1078001670</internalNodes>
          <leafValues>
            -5.9156793355941772e-01 4.6510586142539978e-01</leafValues></_>
        <_>
          <internalNodes>
            0 -1 80 -1056508456 -777481912 -2063396598 -45966336 125104
            1046577312 1083222408 2138044911</internalNodes>
          <leafValues>
            -5.4810780286788940e-01 5.2849459648132324e-01</leafValues></_>
        <_>
          <internalNodes>
            0 -1 43 -259792344 1167311234 1073741825 8732672 50561618
            268509185 1073893384 1162725507</internalNodes>
          <leafValues>
            -5.4877525568008423e-01 4.8468977212905884e-01</leafValues></_>
        <_>
          <internalNodes>
            0 -1 140 -249584982 -1718898622 -2013265664 457506818
            -804969976 -1887403725 733704 1233479683</internalNodes>
          <leafValues>
            -5.8218139410018921e-01 4.3826305866241455e-01</leafValues></_>
        <_>
          <internalNodes>
            0 -1 73 -178272681 1351094496 17142024 1103470986 -536624680
            1074307081 -2146201511 -790248822</internalNodes>
          <leafValues>
            -5.0547450780868530e-01 5.4168862104415894e-01</leafValues></_>
        <_>
          <internalNodes>
            0 -1 56 -135528566 -1582764444 -268501156 1240796908
            2012544549 367427380 -545413889 -1054355749</internalNodes>
          <leafValues>
            -4.4944831728935242e-01 6.0412216186523438e-01</leafValues></_>
        <_>
          <internalNodes>
            0 -1 67 -1689272312 1900581131 83972480 1036092418
            1099079936 41982465 -1878845048 93046786</internalNodes>
          <leafValues>
            -5.7332879304885864e-01 5.0489538908004761e-01</leafValues></_></weakClassifiers></_>
    <!-- stage 1 -->
    <_>
      <maxWeakCount>14</maxWeakCount>
      <stageThreshold>-3.1391113996505737e-01</stageThreshold>
      <weakClassifiers>
        <_>
          <internalNodes>
            0 -1 124 -150789692 -1319771248 16794488 -30254 -670957664
            -2097112885 -1517079576 -137371153</internalNodes>
          <leafValues>
            -7.3221290111541748e-01 4.0602284669876099e-01</leafValues></_>
        <_>
          <internalNodes>
            0 -1 55 -1972448578 -368148300 1561511128 -828637136
            -232586260 -231571353 -2094480758 -1291999736</internalNodes>
          <leafValues>
            -8.2546508312225342e-01 2.8532364964485168e-01</leafValues></_>
        <_>
          <internalNodes>
            0 -1 122 -1432350552 -351121280 4392960 -218201728
            -2129929597 2101378 25329824 -1478819684</internalNodes>
          <leafValues>
            -5.7015955448150635e-01 4.0933007001876831e-01</leafValues></_>
        <_>
          <internalNodes>
            0 -1 88 -1727605844 1372225990 84414889 -1013986231
            1367573401 -754449903 -1828578859 -26045</internalNodes>
          <leafValues>
            -4.2875120043754578e-01 5.4148423671722412e-01</leafValues></_>
        <_>
          <internalNodes>
            0 -1 126 -1983335520 -1793850989 -788475904 890441728
            -1065250572 -620298111 -1843190900 -1976358366</internalNodes>
          <leafValues>
            -4.5749109983444214e-01 4.6639904379844666e-01</leafValues></_>
        <_>
          <internalNodes>
            0 -1 92 -256594848 -923914398 -1259424020 -227541136
            -284312177 1954520934 -285386753 -206883269</internalNodes>
          <leafValues>
            -4.1463732719421387e-01 5.2723562717437744e-01</leafValues></_>
        <_>
          <internalNodes>
            0 -1 17 -796744252 -1826578023 17171712 -1660136532
            1528662440 595788171 1096876592 1660260002</internalNodes>
          <leafValues>
            -4.8863819241523743e-01 4.6088308095932007e-01</leafValues></_>
        <_>
          <internalNodes>
            0 -1 144 730980992 -82591603 1090535597 -612264950
            -2122082304 445874336 -1181546481 -93624821</internalNodes>
          <leafValues>
            -4.9446126818656921e-01 4.7336432337760925e-01</leafValues></_>
        <_>
          <internalNodes>
            0 -1 75 -490913138 268619388 2129657718 2103668967
            1039560670 -184680451 2029999355 -1079007745</internalNodes>
          <leafValues>
            -4.0800410509109497e-01 6.1487036943435669e-01</leafValues></_>
        <_>
          <internalNodes>
            0 -1 76 -1460098032 -1415387590 -1073812108 -33849604
            536729364 1148055412 -2030060314 -1279329030</internalNodes>
          <leafValues>
            -4.0976989269256592e-01 5.4665356874465942e-01</leafValues></_>
        <_>
          <internalNodes>
            0 -1 19 -1861300154 865289504 1082478611 -177208987
            -1593140805 -652635768 -1592874721 -1072958584</internalNodes>
          <leafValues>
            -5.7643127441406250e-01 4.2483919858932495e-01</leafValues></_>
        <_>
          <internalNodes>
            0 -1 131 -1112937304 -1347059728 -289413140 1073197053
            1702334274 -129 2012690414 -270580547</internalNodes>
          <leafValues>
            -4.0505617856979370e-01 5.7933539152145386e-01</leafValues></_>
        <_>
          <internalNodes>
            0 -1 85 -608517632 1676266752 -1090523404 1449459396
            -1233846316 105185246 518905848 -1301344258</internalNodes>
          <leafValues>
            -4.4949078559875488e-01 5.1645404100418091e-01</leafValues></_>
        <_>
          <internalNodes>
            0 -1 113 1682485932 1396818055 83906833 -448663159
            -1069993741 -2002518015 -888835366 1367596010</internalNodes>
          <leafValues>
            -4.3654713034629822e-01 5.4468005895614624e-01</leafValues></_></weakClassifiers></_>
    <!-- stage 2 -->
    <_>
      <maxWeakCount>17</maxWeakCount>
      <stageThreshold>-7.3085623979568481e-01</stageThreshold>
      <weakClassifiers>
        <_>
          <internalNodes>
            0 -1 149 -2098465 -82984277 8486914 -779893362 -744230417
            -2113896317 -1026711330 -339217853</internalNodes>
          <leafValues>
            -5.4823958873748779e-01 5.0445634126663208e-01</leafValues></_>
        <_>
          <internalNodes>
            0 -1 21 -237701640 867929450 1200132415 -2182383 -746862433
            -1163676743 -268842023 1103165221</internalNodes>
          <leafValues>
            -6.1879628896713257e-01 2.8784903883934021e-01</leafValues></_>
        <_>
          <internalNodes>
            0 -1 4 -256575233 -60894409 1946797254 -136458610
            -1147076609 -83717957 -575804706 -35344692</internalNodes>
          <leafValues>
            -5.0468254089355469e-01 3.5040494799613953e-01</leafValues></_>
        <_>
          <internalNodes>
            0 -1 142 -1752847875 -1621798575 -2052871212 1066781652
            593031673 2044395961 179912144 1072946420</internalNodes>
          <leafValues>
            -5.3482711315155029e-01 3.3526077866554260e-01</leafValues></_>
        <_>
          <internalNodes>
            0 -1 106 -476910714 -826828297 161056939 -1911554048
            -1060150858 2056438032 1236709291 -1418640830</internalNodes>
          <leafValues>
            -4.7115516662597656e-01 3.5149073600769043e-01</leafValues></_>
        <_>
          <internalNodes>
            0 -1 34 -552555744 -1399791536 1245584 -1085584726
            -873364580 -931036535 -929703903 1212394596</internalNodes>
          <leafValues>
            -6.3348829746246338e-01 2.4643038213253021e-01</leafValues></_>
        <_>
          <internalNodes>
            0 -1 120 -1051285073 -717687615 454525391 1616341767
            -1417112284 -242040783 -1073035770 -117576690</internalNodes>
          <leafValues>
            -4.5869165658950806e-01 3.7869119644165039e-01</leafValues></_>
        <_>
          <internalNodes>
            0 -1 59 -1111366286 -2055055096 1091567954 322968214
            -1467374676 1494188201 -343351122 117637860</internalNodes>
          <leafValues>
            -5.3016722202301025e-01 3.3393526077270508e-01</leafValues></_>
        <_>
          <internalNodes>
            0 -1 109 1657938594 1816170953 -1878476583 -278277983
            314163388 1217053389 738372115 1650801563</internalNodes>
          <leafValues>
            -5.8084636926651001e-01 2.7888751029968262e-01</leafValues></_>
        <_>
          <internalNodes>
            0 -1 12 -1819121714 418546133 -2129125238 1086968289
            -1014396048 -1423931342 -922088998 -866916938</internalNodes>
          <leafValues>
            -4.5980545878410339e-01 3.7061220407485962e-01</leafValues></_>
        <_>
          <internalNodes>
            0 -1 148 2142428410 -1073955724 -268435794 -440664232
            1845338043 905560063 2138562524 -1612720646</internalNodes>
          <leafValues>
            -3.7458488345146179e-01 4.8355677723884583e-01</leafValues></_>
        <_>
          <internalNodes>
            0 -1 156 -463072 -71827472 -67145863 -537395535 1585250284
            -839385089 347135978 -642091049</internalNodes>
          <leafValues>
            -2.7302953600883484e-01 6.1750233173370361e-01</leafValues></_>
        <_>
          <internalNodes>
            0 -1 86 -917442098 1079202139 -710363886 -347156281
            -779038820 -1731657518 -1080035035 722415755</internalNodes>
          <leafValues>
            -5.2903050184249878e-01 3.4823569655418396e-01</leafValues></_>
        <_>
          <internalNodes>
            0 -1 47 -1026641819 -27839859 -1291282161 -552258821
            -770864215 -96763374 -913974390 1679025921</internalNodes>
          <leafValues>
            -4.8276937007904053e-01 3.9122912287712097e-01</leafValues></_>
        <_>
          <internalNodes>
            0 -1 96 -976071260 -788085434 286490971 -2083236304
            -268260800 -741662509 -628078080 1583524458</internalNodes>
          <leafValues>
            -6.1432814598083496e-01 2.9243752360343933e-01</leafValues></_>
        <_>
          <internalNodes>
            0 -1 13 -1443772702 25330578 -1055850152 -1287595116
            1381026329 2063646848 -106376292 1147638669</internalNodes>
          <leafValues>
            -5.7309067249298096e-01 3.0101045966148376e-01</leafValues></_>
        <_>
          <internalNodes>
            0 -1 40 1201391776 -1312804014 177220583 970608914
            1117885124 204898312 -527869524 1101292324</internalNodes>
          <leafValues>
            -5.7696115970611572e-01 3.2802754640579224e-01</leafValues></_></weakClassifiers></_>
    <!-- stage 3 -->
    <_>
      <maxWeakCount>20</maxWeakCount>
      <stageThreshold>-4.4199413061141968e-01</stageThreshold>
      <weakClassifiers>
        <_>
          <internalNodes>
            0 -1 64 -1082656771 -163849921 1177765947 -118350882
            -1710636106 -1566986088 -1366708594 -352334658</internalNodes>
          <leafValues>
            -6.6798943281173706e-01 7.6051779091358185e-02</leafValues></_>
        <_>
          <internalNodes>
            0 -1 45 -774897745 -1178637137 -2028776784 235147846
            1923064177 1082167808 -325353782 -500972917</internalNodes>
          <leafValues>
            -4.2958739399909973e-01 3.4768143296241760e-01</leafValues></_>
        <_>
          <internalNodes>
            0 -1 23 -178307586 525861727 -367607094 -136371765
            -2109697602 -1154223461 -1077097041 1423933931</internalNodes>
          <leafValues>
            -4.2803519964218140e-01 3.3269828557968140e-01</leafValues></_>
        <_>
          <internalNodes>
            0 -1 0 185231310 1058730476 -2130509517 -11220628 -952165989
            2076975265 -32796421 73844000</internalNodes>
          <leafValues>
            -5.7754218578338623e-01 2.5549992918968201e-01</leafValues></_>
        <_>
          <internalNodes>
            0 -1 161 -2130694744 -719828864 1493260560 -745237952
            281460960 -930479992 -746400806 -1247804936</internalNodes>
          <leafValues>
            -3.7854060530662537e-01 3.9186054468154907e-01</leafValues></_>
        <_>
          <internalNodes>
            0 -1 98 1108749372 -1571627007 -2121777113 -424148914
            823104040 -392985589 557099272 -1092835270</internalNodes>
          <leafValues>
            -6.2716263532638550e-01 2.7120679616928101e-01</leafValues></_>
        <_>
          <internalNodes>
            0 -1 77 -368147770 -770782942 147458 -406372217 -1610447943
            848404490 16947384 -972357585</internalNodes>
          <leafValues>
            -4.0205174684524536e-01 3.9065930247306824e-01</leafValues></_>
        <_>
          <internalNodes>
            0 -1 145 1000603640 758053759 1052769981 -202922545
            939489265 -8945667 2105427961 924825587</internalNodes>
          <leafValues>
            -3.9143320918083191e-01 4.1079187393188477e-01</leafValues></_>
        <_>
          <internalNodes>
            0 -1 8 -1075593489 2122182630 721387446 870710451
            -1073765288 -866232451 1306440908 -590355972</internalNodes>
          <leafValues>
            -3.3559045195579529e-01 4.8161342740058899e-01</leafValues></_>
        <_>
          <internalNodes>
            0 -1 93 -1068195136 -342466221 -1031765608 -230161983
            -1312798672 -1073706878 -527756631 -144488306</internalNodes>
          <leafValues>
            -4.0682464838027954e-01 4.0033367276191711e-01</leafValues></_>
        <_>
          <internalNodes>
            0 -1 42 -164121256 1862537282 -1861680877 1936719937
            -1056908677 850436505 1376749624 2029132575</internalNodes>
          <leafValues>
            -4.6906188130378723e-01 3.5553526878356934e-01</leafValues></_>
        <_>
          <internalNodes>
            0 -1 81 -985623944 1901191632 1090524051 -1290755885
            33671900 -249851752 50997977 -2141697536</internalNodes>
          <leafValues>
            -4.4007077813148499e-01 3.7953284382820129e-01</leafValues></_>
        <_>
          <internalNodes>
            0 -1 6 -145299578 -1819807135 -1862194994 -1298610335
            1225122508 -1181876215 -22355796 1317139410</internalNodes>
          <leafValues>
            -5.0291681289672852e-01 3.4848916530609131e-01</leafValues></_>
        <_>
          <internalNodes>
            0 -1 152 -749223910 1910050883 311001101 -1714716067
            -1878846936 -2013102054 -1332815588 -637068710</internalNodes>
          <leafValues>
            -4.5834901928901672e-01 3.7542068958282471e-01</leafValues></_>
        <_>
          <internalNodes>
            0 -1 11 -1064847484 -1860169216 402658510 -1260838127
            1229693692 -745078683 2057027788 3525415</internalNodes>
          <leafValues>
            -5.5750089883804321e-01 2.9192453622817993e-01</leafValues></_>
        <_>
          <internalNodes>
            0 -1 87 269656580 1346515016 1610748217 -254570496
            -494860116 1401061537 -1652554086 -1544355449</internalNodes>
          <leafValues>
            -4.4559314846992493e-01 4.0937107801437378e-01</leafValues></_>
        <_>
          <internalNodes>
            0 -1 18 2135419685 -1463459501 -520052486 221909322
            -1040010469 163285666 1401275331 683994118</internalNodes>
          <leafValues>
            -5.1964306831359863e-01 3.4139132499694824e-01</leafValues></_>
        <_>
          <internalNodes>
            0 -1 89 -2142846804 1301185120 538186035 -1312652851 80541
            840970248 1234248499 128914057</internalNodes>
          <leafValues>
            -5.0222700834274292e-01 3.3475220203399658e-01</leafValues></_>
        <_>
          <internalNodes>
            0 -1 68 -285819468 -72418075 268386282 -1145099033
            1055360703 1836719540 888590586 -610023237</internalNodes>
          <leafValues>
            -3.2708895206451416e-01 5.9659421443939209e-01</leafValues></_>
        <_>
          <internalNodes>
            0 -1 159 318946176 -2133651254 1090523266 474742913 42564345
            -1153285886 92868888 1707352464</internalNodes>
          <leafValues>
            -6.6927129030227661e-01 2.9305681586265564e-01</leafValues></_></weakClassifiers></_>
    <!-- stage 4 -->
    <_>
      <maxWeakCount>16</maxWeakCount>
      <stageThreshold>-3.3322778344154358e-01</stageThreshold>
      <weakClassifiers>
        <_>
          <internalNodes>
            0 -1 84 -1585471681 -1026245641 -1385794253 -553861188
            -1141017601 -520182852 -1074829331 -1360765376</internalNodes>
          <leafValues>
            -7.8114247322082520e-01 1.6911196708679199e-01</leafValues></_>
        <_>
          <internalNodes>
            0 -1 155 796131263 -1075922053 1839689727 -1914395050
            1069366645 -1142302277 -1077470924 -2013942128</internalNodes>
          <leafValues>
            -6.0440254211425781e-01 3.7727659940719604e-01</leafValues></_>
        <_>
          <internalNodes>
            0 -1 2 789063393 262201279 -1929556137 -302186644
            -1946829323 -677187079 -168514855 -1594821280</internalNodes>
          <leafValues>
            -5.7988065481185913e-01 3.3496344089508057e-01</leafValues></_>
        <_>
          <internalNodes>
            0 -1 119 1449305863 1490956071 -1889030433 -1363631515
            997609248 -71909569 -1343874240 -290247154</internalNodes>
          <leafValues>
            -5.1878559589385986e-01 3.7254872918128967e-01</leafValues></_>
        <_>
          <internalNodes>
            0 -1 52 1717023615 33995687 -1374316740 -1466125810
            1456684005 -239846735 -64029130 -1057685765</internalNodes>
          <leafValues>
            -4.4788932800292969e-01 3.9856287837028503e-01</leafValues></_>
        <_>
          <internalNodes>
            0 -1 60 1216267862 166798681 1822690429 1240330788
            -2109229571 1341825332 -37172753 69484678</internalNodes>
          <leafValues>
            -6.0782068967819214e-01 3.0338710546493530e-01</leafValues></_>
        <_>
          <internalNodes>
            0 -1 51 1434907397 1419315071 453034835 312258092 1598542205
            -1520180813 2009501667 552608275</internalNodes>
          <leafValues>
            -6.3692688941955566e-01 2.8414961695671082e-01</leafValues></_>
        <_>
          <internalNodes>
            0 -1 16 579535019 1155081117 1547175712 -1512795188
            -423806693 -1699495745 -388154040 -454759356</internalNodes>
          <leafValues>
            -4.5299214124679565e-01 4.0776005387306213e-01</leafValues></_>
        <_>
          <internalNodes>
            0 -1 141 -712777945 177963550 -2076969061 -1397713365
            1670788375 -1179090245 -207541635 -305141949</internalNodes>
          <leafValues>
            -4.2612540721893311e-01 4.2734324932098389e-01</leafValues></_>
        <_>
          <internalNodes>
            0 -1 50 -2082212949 -389938919 -1073732152 -53304830
            -2147322954 562274403 -408168383 -2118139888</internalNodes>
          <leafValues>
            -4.3777507543563843e-01 4.3414553999900818e-01</leafValues></_>
        <_>
          <internalNodes>
            0 -1 137 -1284077051 -1826823259 -1398328567 -1515918741
            982284700 -1163025473 -1379499477 -372975588</internalNodes>
          <leafValues>
            -4.4998341798782349e-01 4.4986265897750854e-01</leafValues></_>
        <_>
          <internalNodes>
            0 -1 15 268792433 1075463167 1111670862 -828021945
            -1852636774 1505632705 1801677288 -847741236</internalNodes>
          <leafValues>
            -4.7290793061256409e-01 3.9259359240531921e-01</leafValues></_>
        <_>
          <internalNodes>
            0 -1 25 678307350 -1089158761 135334229 -1365331231
            -1338191172 -71433741 -939623927 -521600092</internalNodes>
          <leafValues>
            -5.7025450468063354e-01 3.3550366759300232e-01</leafValues></_>
        <_>
          <internalNodes>
            0 -1 111 857580385 -339235393 -1944713387 -1127776133
            -359562115 -1936719693 173283746 -722090751</internalNodes>
          <leafValues>
            -4.5584499835968018e-01 4.4178366661071777e-01</leafValues></_>
        <_>
          <internalNodes>
            0 -1 10 -1082150929 484966327 -1358958610 -589839
            -1258308236 -1377345610 -25199220 -51129039</internalNodes>
          <leafValues>
            -3.7449875473976135e-01 5.3516405820846558e-01</leafValues></_>
        <_>
          <internalNodes>
            0 -1 53 84730220 1455578583 789363648 904135531 1527022588
            955847556 -1128457553 65575906</internalNodes>
          <leafValues>
            -5.7473230361938477e-01 3.4811425209045410e-01</leafValues></_></weakClassifiers></_>
    <!-- stage 5 -->
    <_>
      <maxWeakCount>20</maxWeakCount>
      <stageThreshold>-4.2360892891883850e-01</stageThreshold>
      <weakClassifiers>
        <_>
          <internalNodes>
            0 -1 134 -406850625 -195309121 -443760241 -203976133
            -460065881 -1472257639 -473237042 -76030137</internalNodes>
          <leafValues>
            -5.4071182012557983e-01 2.8219971060752869e-01</leafValues></_>
        <_>
          <internalNodes>
            0 -1 44 2013249515 2033903599 -4325569 790871676 2130173269
            1114931047 -520794537 -345527473</internalNodes>
          <leafValues>
            -3.3958581089973450e-01 4.0115043520927429e-01</leafValues></_>
        <_>
          <internalNodes>
            0 -1 70 -724069429 -1740138595 1795217749 1616880174
            -337165845 -1196968862 -378877733 -1543813566</internalNodes>
          <leafValues>
            -3.6799746751785278e-01 3.6663156747817993e-01</leafValues></_>
        <_>
          <internalNodes>
            0 -1 20 1926791777 252925703 1309513113 1010750028
            -250959154 -1648745767 -369230293 1959971038</internalNodes>
          <leafValues>
            -4.7897961735725403e-01 2.8519004583358765e-01</leafValues></_>
        <_>
          <internalNodes>
            0 -1 31 -1871704008 -2144729704 272814710 -2131459756
            -1999914740 -1023209236 -804659216 -1804564304</internalNodes>
          <leafValues>
            -5.5319702625274658e-01 2.7679863572120667e-01</leafValues></_>
        <_>
          <internalNodes>
            0 -1 95 -1295381948 -1497169156 1207960080 -188475724
            -1843779448 -216818558 -746015851 -1274150596</internalNodes>
          <leafValues>
            -5.3683960437774658e-01 2.5680994987487793e-01</leafValues></_>
        <_>
          <internalNodes>
            0 -1 158 1532180371 -1864773645 -736556577 -2050770717
            -2141264955 -238705738 -1379459374 -635432111</internalNodes>
          <leafValues>
            -4.4361403584480286e-01 3.2407367229461670e-01</leafValues></_>
        <_>
          <internalNodes>
            0 -1 108 -1537816996 1711440526 1478593682 -360461409
            -920628805 -1283222831 475915321 558347779</internalNodes>
          <leafValues>
            -5.1724869012832642e-01 2.7515414357185364e-01</leafValues></_>
        <_>
          <internalNodes>
            0 -1 33 680972384 727920834 -1660853932 1239657962
            -536829526 1143838737 -1450100500 164689142</internalNodes>
          <leafValues>
            -6.1155235767364502e-01 2.0598508417606354e-01</leafValues></_>
        <_>
          <internalNodes>
            0 -1 146 -634351952 -605192324 -4812804 -84591390 1073728936
            -2055229444 -1259169828 -109378548</internalNodes>
          <leafValues>
            -3.2658335566520691e-01 4.4937446713447571e-01</leafValues></_>
        <_>
          <internalNodes>
            0 -1 94 1959751171 -913767725 -1509584243 -1675631306
            1243497378 -1097653991 1623882667 912925451</internalNodes>
          <leafValues>
            -4.4411605596542358e-01 3.4340673685073853e-01</leafValues></_>
        <_>
          <internalNodes>
            0 -1 3 1605226383 1321709292 -147464 -840572958 2137290750
            -54689796 -302514471 -1025032333</internalNodes>
          <leafValues>
            -3.2528987526893616e-01 4.8183789849281311e-01</leafValues></_>
        <_>
          <internalNodes>
            0 -1 38 -1935620881 1966723601 -1778380782 445500527
            -1187432984 1358979767 -601410801 -465634761</internalNodes>
          <leafValues>
            -4.4326496124267578e-01 3.6761611700057983e-01</leafValues></_>
        <_>
          <internalNodes>
            0 -1 128 453013668 -460828470 1343586780 416514274
            -1602090239 1401094178 379316409 -1161115179</internalNodes>
          <leafValues>
            -4.6137419342994690e-01 3.5595044493675232e-01</leafValues></_>
        <_>
          <internalNodes>
            0 -1 129 -1092661274 1567518639 -8455041 -4194691 -2025960
            2147446783 -319902181 -1407717765</internalNodes>
          <leafValues>
            -3.6952066421508789e-01 4.4487181305885315e-01</leafValues></_>
        <_>
          <internalNodes>
            0 -1 37 -1454942337 982728743 -916389529 577077768
            -796802971 429883919 -1313793492 -989778950</internalNodes>
          <leafValues>
            -4.4330766797065735e-01 3.6595132946968079e-01</leafValues></_>
        <_>
          <internalNodes>
            0 -1 125 -1978134512 -343404526 -1869557576 -189602743
            -1367174652 1535115272 -1056885807 -1847703300</internalNodes>
          <leafValues>
            -5.3297066688537598e-01 2.9792556166648865e-01</leafValues></_>
        <_>
          <internalNodes>
            0 -1 65 1611048028 789790786 1569067294 -1194294513
            1230979186 621099216 2146681709 410500582</internalNodes>
          <leafValues>
            -5.5208444595336914e-01 2.8124853968620300e-01</leafValues></_>
        <_>
          <internalNodes>
            0 -1 162 1061780952 -1420852264 1094731175 1506181636
            843102624 -243137376 990114044 -1413195120</internalNodes>
          <leafValues>
            -4.3189197778701782e-01 3.7716227769851685e-01</leafValues></_>
        <_>
          <internalNodes>
            0 -1 150 54548720 390662676 -1887268523 1025048985 499270385
            -1711144510 2064161499 453117124</internalNodes>
          <leafValues>
            -3.7602987885475159e-01 4.2802026867866516e-01</leafValues></_></weakClassifiers></_>
    <!-- stage 6 -->
    <_>
      <maxWeakCount>22</maxWeakCount>
      <stageThreshold>-6.8775129318237305e-01</stageThreshold>
      <weakClassifiers>
        <_>
          <internalNodes>
            0 -1 105 -610405409 1493390187 327155839 -1009143442
            -267869185 -1330109781 -1682087809 -17580</internalNodes>
          <leafValues>
            -5.9425288438796997e-01 1.2525252997875214e-01</leafValues></_>
        <_>
          <internalNodes>
            0 -1 5 -1795049985 -1844948909 1310789262 -1017569260
            462985386 496273544 1626712586 -795483425</internalNodes>
          <leafValues>
            -4.7843670845031738e-01 2.4925957620143890e-01</leafValues></_>
        <_>
          <internalNodes>
            0 -1 147 1470332172 1479663827 -746370145 -1458903288
            -255069912 -2120810327 -444241793 -1238669303</internalNodes>
          <leafValues>
            -4.2742192745208740e-01 2.8888180851936340e-01</leafValues></_>
        <_>
          <internalNodes>
            0 -1 63 -1001013237 345612043 860884088 1248550511
            -703422026 -8668998 47226480 553397990</internalNodes>
          <leafValues>
            -5.2592897415161133e-01 2.5161680579185486e-01</leafValues></_>
        <_>
          <internalNodes>
            0 -1 54 -413916376 -480165602 84414866 -1885858346
            -1878995620 -1400139607 747139250 132442710</internalNodes>
          <leafValues>
            -4.9152892827987671e-01 2.9089450836181641e-01</leafValues></_>
        <_>
          <internalNodes>
            0 -1 46 1466037154 352908171 -442654562 144375911 -627135696
            1100415208 -493112669 -731645617</internalNodes>
          <leafValues>
            -4.3042218685150146e-01 3.0178523063659668e-01</leafValues></_>
        <_>
          <internalNodes>
            0 -1 133 -789693693 701452481 -1793967693 1720951126
            999927802 -1154774888 2036063192 870022079</internalNodes>
          <leafValues>
            -3.8183045387268066e-01 3.8821378350257874e-01</leafValues></_>
        <_>
          <internalNodes>
            0 -1 102 743983624 -414713284 1409806546 -498874017
            151107724 -1928081917 -301321316 -1442498022</internalNodes>
          <leafValues>
            -4.9641135334968567e-01 3.0682414770126343e-01</leafValues></_>
        <_>
          <internalNodes>
            0 -1 100 -891339201 1926233709 -1074921475 -875741193
            -17846795 -227542402 1852389141 -217347372</internalNodes>
          <leafValues>
            -2.6743888854980469e-01 5.6508189439773560e-01</leafValues></_>
        <_>
          <internalNodes>
            0 -1 61 1660068160 2097000484 -1852587685 20612097
            -896409476 -89519446 -72299987 -257722834</internalNodes>
          <leafValues>
            -4.2677131295204163e-01 3.4224605560302734e-01</leafValues></_>
        <_>
          <internalNodes>
            0 -1 136 -2141357236 -70740274 1721724 726323352 -804166335
            -475495634 -265287484 -1206822793</internalNodes>
          <leafValues>
            -5.0373327732086182e-01 2.9178729653358459e-01</leafValues></_>
        <_>
          <internalNodes>
            0 -1 36 1133005570 1124092672 -685427453 -1894796798
            -1698660187 749801659 1161824765 1106602022</internalNodes>
          <leafValues>
            -4.8801153898239136e-01 3.0584278702735901e-01</leafValues></_>
        <_>
          <internalNodes>
            0 -1 58 406908219 1552581400 -1862103842 1070280893
            1946216580 201736237 -1853107724 178734475</internalNodes>
          <leafValues>
            -4.2134377360343933e-01 3.5514488816261292e-01</leafValues></_>
        <_>
          <internalNodes>
            0 -1 115 1414296196 -293514494 -788151997 -384499060
            -1869893480 -485775150 -1324291762 1647378531</internalNodes>
          <leafValues>
            -4.8413360118865967e-01 3.0932596325874329e-01</leafValues></_>
        <_>
          <internalNodes>
            0 -1 151 -2117320345 354258963 1828784551 689508734
            -1711021599 -1165319528 -2092942374 455614496</internalNodes>
          <leafValues>
            -3.7525817751884460e-01 4.1024655103683472e-01</leafValues></_>
        <_>
          <internalNodes>
            0 -1 30 -1599547031 -591048238 -1308245861 -665136234
            -1339669915 1512947715 -1868977930 -46384636</internalNodes>
          <leafValues>
            -4.7090461850166321e-01 3.3593186736106873e-01</leafValues></_>
        <_>
          <internalNodes>
            0 -1 35 1077395702 -2096590437 545374685 -878137579
            -1240224207 -1467985889 -838368758 1146999639</internalNodes>
          <leafValues>
            -5.7563513517379761e-01 2.8940516710281372e-01</leafValues></_>
        <_>
          <internalNodes>
            0 -1 127 172993418 1374341980 154703264 -1955946473
            -1462392612 -72628117 -1936142200 -132076981</internalNodes>
          <leafValues>
            -4.2980626225471497e-01 3.8446786999702454e-01</leafValues></_>
        <_>
          <internalNodes>
            0 -1 26 1393671908 944333826 301990986 1846691223 -586840801
            -1424325877 -1591664507 1102887660</internalNodes>
          <leafValues>
            -6.0434561967849731e-01 2.5262740254402161e-01</leafValues></_>
        <_>
          <internalNodes>
            0 -1 57 -764595760 370382181 269602576 -1500429667
            1394745952 957337903 -1425288952 -531840945</internalNodes>
          <leafValues>
            -4.9868553876876831e-01 3.0706167221069336e-01</leafValues></_>
        <_>
          <internalNodes>
            0 -1 154 -125191344 991609243 19752134 907403312 151245556
            1501581705 -1182215724 1673755207</internalNodes>
          <leafValues>
            -5.2683138847351074e-01 3.0531486868858337e-01</leafValues></_>
        <_>
          <internalNodes>
            0 -1 14 -1074082097 -1120466966 -16846904 -306589825
            -553654324 1055768437 1943713178 -764154649</internalNodes>
          <leafValues>
            -3.4547933936119080e-01 4.6908697485923767e-01</leafValues></_></weakClassifiers></_>
    <!-- stage 7 -->
    <_>
      <maxWeakCount>16</maxWeakCount>
      <stageThreshold>-7.1340478956699371e-02</stageThreshold>
      <weakClassifiers>
        <_>
          <internalNodes>
            0 -1 28 -454103107 -271966209 -102482 -167841809 268517527
            -538441728 -16793622 -167785750</internalNodes>
          <leafValues>
            -3.4595161676406860e-01 4.7095179557800293e-01</leafValues></_>
        <_>
          <internalNodes>
            0 -1 104 -2018193609 -268857517 -33690231 -1969029150
            -1107438446 2095759357 -554845219 -21758684</internalNodes>
          <leafValues>
            -3.6081904172897339e-01 4.1080653667449951e-01</leafValues></_>
        <_>
          <internalNodes>
            0 -1 160 -1323281991 -462012399 289657294 -27754436
            -1023365993 -1421844457 713138928 1933584308</internalNodes>
          <leafValues>
            -5.1632720232009888e-01 3.2073608040809631e-01</leafValues></_>
        <_>
          <internalNodes>
            0 -1 72 -1063501262 -1341110512 -1006628545 551850265
            92277952 864813186 -2012734596 -1597209794</internalNodes>
          <leafValues>
            -5.0152033567428589e-01 3.3304616808891296e-01</leafValues></_>
        <_>
          <internalNodes>
            0 -1 91 -1017655226 -695164524 -1056956390 -1714120380
            -1958538568 -620658559 -71171847 -271113912</internalNodes>
          <leafValues>
            -4.2466863989830017e-01 3.7694159150123596e-01</leafValues></_>
        <_>
          <internalNodes>
            0 -1 138 1288010052 -1879015345 1094779100 -1727709100
            273291558 -667451365 1420801801 719424546</internalNodes>
          <leafValues>
            -5.2172440290451050e-01 3.3755895495414734e-01</leafValues></_>
        <_>
          <internalNodes>
            0 -1 66 -562572268 2141712364 -1073807820 -68213394
            1474788949 293369644 327051388 -1610897938</internalNodes>
          <leafValues>
            -3.7276214361190796e-01 4.8403728008270264e-01</leafValues></_>
        <_>
          <internalNodes>
            0 -1 9 767282793 725221307 -131399 -52826123 -134355459
            -1405353996 -855674893 -844137697</internalNodes>
          <leafValues>
            -3.1288376450538635e-01 5.5256056785583496e-01</leafValues></_>
        <_>
          <internalNodes>
            0 -1 112 -404517309 -753795423 -285380853 -1573441741
            -9666611 -134250531 1878327101 -508180927</internalNodes>
          <leafValues>
            -3.1363996863365173e-01 5.4058140516281128e-01</leafValues></_>
        <_>
          <internalNodes>
            0 -1 29 -269557957 -880970641 -65602 795147881 1987575765
            1148124772 -50464649 -1383877912</internalNodes>
          <leafValues>
            -3.8610658049583435e-01 4.4403287768363953e-01</leafValues></_>
        <_>
          <internalNodes>
            0 -1 103 -1810697316 -888975355 285379357 -1312644781
            -670832224 -934049147 -2096004791 1996326445</internalNodes>
          <leafValues>
            -4.3958473205566406e-01 3.9224007725715637e-01</leafValues></_>
        <_>
          <internalNodes>
            0 -1 121 -1052532596 -1304313664 -786807521 1432032027
            -519200746 -1465711742 -1911779540 -2004004444</internalNodes>
          <leafValues>
            -4.6456047892570496e-01 3.9999687671661377e-01</leafValues></_>
        <_>
          <internalNodes>
            0 -1 118 1616938830 -1694256892 1158064211 538838475
            16818542 -124911565 -1060630398 5659154</internalNodes>
          <leafValues>
            -5.6962478160858154e-01 3.5406225919723511e-01</leafValues></_>
        <_>
          <internalNodes>
            0 -1 114 2074906776 -2021786463 -269418501 -1389109381
            -545481201 -50569522 1593491191 -884793761</internalNodes>
          <leafValues>
            -3.5527670383453369e-01 5.3107893466949463e-01</leafValues></_>
        <_>
          <internalNodes>
            0 -1 101 1931965088 -258878322 -914319853 1283584300
            537954326 931365505 1671383977 -642555118</internalNodes>
          <leafValues>
            -4.6064180135726929e-01 4.1226968169212341e-01</leafValues></_>
        <_>
          <internalNodes>
            0 -1 39 1109382649 -1447661853 1878992623 502988795
            -1216805124 -50855940 -713697939 -587405598</internalNodes>
          <leafValues>
            -3.6345416307449341e-01 5.3015851974487305e-01</leafValues></_></weakClassifiers></_>
    <!-- stage 8 -->
    <_>
      <maxWeakCount>15</maxWeakCount>
      <stageThreshold>4.3718534708023071e-01</stageThreshold>
      <weakClassifiers>
        <_>
          <internalNodes>
            0 -1 41 1945874427 1674247914 -17235976 1943326461
            -285942529 225509205 1828458232 1349541051</internalNodes>
          <leafValues>
            -2.6111111044883728e-01 6.0208332538604736e-01</leafValues></_>
        <_>
          <internalNodes>
            0 -1 116 1349398200 -1773408817 772762417 457424883
            1324154536 -487702569 -1486455648 -1035850125</internalNodes>
          <leafValues>
            -3.8545897603034973e-01 4.6610116958618164e-01</leafValues></_>
        <_>
          <internalNodes>
            0 -1 7 408096817 268763393 16779264 286527793 285737135
            170590336 -1861666661 -1589725158</internalNodes>
          <leafValues>
            -4.1374805569648743e-01 4.6292227506637573e-01</leafValues></_>
        <_>
          <internalNodes>
            0 -1 143 1166033024 -1837006527 1132531764 -1274904243
            1610612765 -939524062 268607899 -887985406</internalNodes>
          <leafValues>
            -4.2948946356773376e-01 4.5029151439666748e-01</leafValues></_>
        <_>
          <internalNodes>
            0 -1 71 -420856684 -345096195 -16842807 61501183 503111565
            1055322101 -1377960195 -1270143394</internalNodes>
          <leafValues>
            -4.4329085946083069e-01 4.9176722764968872e-01</leafValues></_>
        <_>
          <internalNodes>
            0 -1 74 -1795112650 1116999959 114955 1091141891 -1593827060
            -2145297920 -2004623158 1677808123</internalNodes>
          <leafValues>
            -4.5837020874023438e-01 4.6625438332557678e-01</leafValues></_>
        <_>
          <internalNodes>
            0 -1 32 -1727889112 1111818916 1409286209 -2143231224
            -1987543032 -989855740 -1978849079 -154656356</internalNodes>
          <leafValues>
            -5.0302982330322266e-01 4.4183093309402466e-01</leafValues></_>
        <_>
          <internalNodes>
            0 -1 117 -788446974 1078825109 285212695 -452947711 196753
            -1291059060 -1039589323 1132708099</internalNodes>
          <leafValues>
            -5.0878298282623291e-01 4.5539003610610962e-01</leafValues></_>
        <_>
          <internalNodes>
            0 -1 110 2081538934 25366662 37378 -1858747894 -2113060863
            -1727918078 1080189314 541739403</internalNodes>
          <leafValues>
            -4.7788026928901672e-01 4.8894423246383667e-01</leafValues></_>
        <_>
          <internalNodes>
            0 -1 78 -2145349312 -66779899 20988035 1447047456
            -1207958951 944769152 -1610278813 2084018978</internalNodes>
          <leafValues>
            -5.3955948352813721e-01 4.6163630485534668e-01</leafValues></_>
        <_>
          <internalNodes>
            0 -1 107 -1048381158 -1508835052 276 135303169 -1609523152
            -511606656 33673392 -239471810</internalNodes>
          <leafValues>
            -5.8120912313461304e-01 4.2152997851371765e-01</leafValues></_>
        <_>
          <internalNodes>
            0 -1 99 -808853870 -34019650 -1930694929 -324091985
            -1076019201 -136052740 -1073766850 -686562231</internalNodes>
          <leafValues>
            -4.5841869711875916e-01 5.4736131429672241e-01</leafValues></_>
        <_>
          <internalNodes>
            0 -1 69 1340813111 -697534731 -1132462723 -1319637723
            -588914188 1576329074 1610020010 1428236093</internalNodes>
          <leafValues>
            -4.3545874953269958e-01 5.3212791681289673e-01</leafValues></_>
        <_>
          <internalNodes>
            0 -1 83 268491042 -779485180 16793681 1244758016 554000819
            -233308157 -1610506110 2109737472</internalNodes>
          <leafValues>
            -5.1807570457458496e-01 4.7331473231315613e-01</leafValues></_>
        <_>
          <internalNodes>
            0 -1 135 1360295146 1493209233 1073758210 1900217481
            -1610376775 42058115 -2139028741 1817591881</internalNodes>
          <leafValues>
            -5.1885908842086792e-01 5.0255113840103149e-01</leafValues></_></weakClassifiers></_>
    <!-- stage 9 -->
    <_>
      <maxWeakCount>11</maxWeakCount>
      <stageThreshold>3.0621859431266785e-01</stageThreshold>
      <weakClassifiers>
        <_>
          <internalNodes>
            0 -1 123 1001322400 1946025772 -286458252 716619260
            1996258800 2104851957 -830505467 86252612</internalNodes>
          <leafValues>
            -2.5791856646537781e-01 7.2881358861923218e-01</leafValues></_>
        <_>
          <internalNodes>
            0 -1 139 -1372709666 1849322685 -1107361935 -839091207
            -1926298492 -1082556433 1819812112 -2076204457</internalNodes>
          <leafValues>
            -3.9148581027984619e-01 5.6091278791427612e-01</leafValues></_>
        <_>
          <internalNodes>
            0 -1 82 -1108005067 1123659217 -1090519052 1497852667
            -557843212 1165491708 520011606 -62585728</internalNodes>
          <leafValues>
            -3.3364462852478027e-01 6.7190098762512207e-01</leafValues></_>
        <_>
          <internalNodes>
            0 -1 97 1347747472 -1689000405 1879015391 -2029421855
            2085669768 1381629821 1576316008 258568031</internalNodes>
          <leafValues>
            -3.9898082613945007e-01 6.0789924860000610e-01</leafValues></_>
        <_>
          <internalNodes>
            0 -1 153 1359860342 -653262847 1157628039 521166983
            1216383232 -1140842360 -1056236991 -1995347965</internalNodes>
          <leafValues>
            -5.6862497329711914e-01 4.8397099971771240e-01</leafValues></_>
        <_>
          <internalNodes>
            0 -1 24 1056758763 -1583092050 796897212 -1225150482
            -8391434 -1623199921 -170428480 -296260166</internalNodes>
          <leafValues>
            -3.9645680785179138e-01 7.0124799013137817e-01</leafValues></_>
        <_>
          <internalNodes>
            0 -1 157 724172721 1878916604 -16777226 2138554356
            1073063421 905838589 -1275183979 -1520382119</internalNodes>
          <leafValues>
            -4.7806414961814880e-01 5.8254057168960571e-01</leafValues></_>
        <_>
          <internalNodes>
            0 -1 62 964347467 142364143 -16842791 487914985 1862096501
            -6389772 1576934900 1243831799</internalNodes>
          <leafValues>
            -4.5738348364830017e-01 6.0700005292892456e-01</leafValues></_>
        <_>
          <internalNodes>
            0 -1 130 745363110 452386412 1878126123 -76241173 2146782351
            2011168639 258279211 1131534144</internalNodes>
          <leafValues>
            -5.0046253204345703e-01 5.4728591442108154e-01</leafValues></_>
        <_>
          <internalNodes>
            0 -1 79 -2013132544 1157709857 1342275601 204619777
            537465352 -507181024 -2146954477 -595091389</internalNodes>
          <leafValues>
            -5.6310451030731201e-01 5.2991539239883423e-01</leafValues></_>
        <_>
          <internalNodes>
            0 -1 90 2129448898 867188476 -1090621449 -1317143112
            2147057574 117407558 -470131397 -1410777267</internalNodes>
          <leafValues>
            -3.9267581701278687e-01 7.6229405403137207e-01</leafValues></_></weakClassifiers></_></stages>
  <features>
    <_>
      <rect>
        0 0 5 6</rect></_>
    <_>
      <rect>
        0 1 9 8</rect></_>
    <_>
      <rect>
        0 2 5 4</rect></_>
    <_>
      <rect>
        0 3 3 4</rect></_>
    <_>
      <rect>
        0 4 10 12</rect></_>
    <_>
      <rect>
        0 10 9 6</rect></_>
    <_>
      <rect>
        0 11 4 9</rect></_>
    <_>
      <rect>
        0 16 9 4</rect></_>
    <_>
      <rect>
        0 17 2 2</rect></_>
    <_>
      <rect>
        0 18 5 6</rect></_>
    <_>
      <rect>
        0 19 3 3</rect></_>
    <_>
      <rect>
        0 20 5 8</rect></_>
    <_>
      <rect>
        0 21 4 4</rect></_>
    <_>
      <rect>
        0 23 3 4</rect></_>
    <_>
      <rect>
        0 24 4 4</rect></_>
    <_>
      <rect>
        0 29 2 5</rect></_>
    <_>
      <rect>
        0 29 4 3</rect></_>
    <_>
      <rect>
        0 29 5 5</rect></_>
    <_>
      <rect>
        0 32 4 4</rect></_>
    <_>
      <rect>
        1 0 8 6</rect></_>
    <_>
      <rect>
        1 0 9 4</rect></_>
    <_>
      <rect>
        1 1 6 9</rect></_>
    <_>
      <rect>
        1 10 7 10</rect></_>
    <_>
      <rect>
        1 18 10 6</rect></_>
    <_>
      <rect>
        1 26 5 3</rect></_>
    <_>
      <rect>
        2 1 5 5</rect></_>
    <_>
      <rect>
        2 1 9 12</rect></_>
    <_>
      <rect>
        2 5 10 11</rect></_>
    <_>
      <rect>
        2 9 10 11</rect></_>
    <_>
      <rect>
        2 15 4 4</rect></_>
    <_>
      <rect>
        2 19 1 1</rect></_>
    <_>
      <rect>
        2 25 1 1</rect></_>
    <_>
      <rect>
        2 32 2 2</rect></_>
    <_>
      <rect>
        2 35 10 3</rect></_>
    <_>
      <rect>
        3 6 3 5</rect></_>
    <_>
      <rect>
        3 6 5 4</rect></_>
    <_>
      <rect>
        3 7 2 2</rect></_>
    <_>
      <rect>
        3 16 3 4</rect></_>
    <_>
      <rect>
        3 24 5 6</rect></_>
    <_>
      <rect>
        3 31 3 4</rect></_>
    <_>
      <rect>
        3 32 5 4</rect></_>
    <_>
      <rect>
        4 8 5 7</rect></_>
    <_>
      <rect>
        4 10 5 6</rect></_>
    <_>
      <rect>
        4 13 2 5</rect></_>
    <_>
      <rect>
        4 14 3 4</rect></_>
    <_>
      <rect>
        4 14 3 5</rect></_>
    <_>
      <rect>
        4 23 4 4</rect></_>
    <_>
      <rect>
        5 1 5 6</rect></_>
    <_>
      <rect>
        5 3 3 6</rect></_>
    <_>
      <rect>
        5 12 8 10</rect></_>
    <_>
      <rect>
        5 17 1 1</rect></_>
    <_>
      <rect>
        5 22 5 7</rect></_>
    <_>
      <rect>
        5 25 2 2</rect></_>
    <_>
      <rect>
        5 25 9 6</rect></_>
    <_>
      <rect>
        5 35 5 3</rect></_>
    <_>
      <rect>
        6 7 7 8</rect></_>
    <_>
      <rect>
        6 18 2 4</rect></_>
    <_>
      <rect>
        6 19 3 5</rect></_>
    <_>
      <rect>
        6 20 2 2</rect></_>
    <_>
      <rect>
        6 38 6 2</rect></_>
    <_>
      <rect>
        7 1 6 6</rect></_>
    <_>
      <rect>
        7 1 7 4</rect></_>
    <_>
      <rect>
        7 4 3 2</rect></_>
    <_>
      <rect>
        7 7 4 3</rect></_>
    <_>
      <rect>
        7 11 6 7</rect></_>
    <_>
      <rect>
        7 13 2 2</rect></_>
    <_>
      <rect>
        7 15 2 2</rect></_>
    <_>
      <rect>
        7 17 2 2</rect></_>
    <_>
      <rect>
        7 18 1 2</rect></_>
    <_>
      <rect>
        7 19 2 3</rect></_>
    <_>
      <rect>
        7 19 4 5</rect></_>
    <_>
      <rect>
        8 0 5 3</rect></_>
    <_>
      <rect>
        8 7 4 2</rect></_>
    <_>
      <rect>
        8 15 3 6</rect></_>
    <_>
      <rect>
        8 22 2 2</rect></_>
    <_>
      <rect>
        9 13 2 2</rect></_>
    <_>
      <rect>
        9 19 1 1</rect></_>
    <_>
      <rect>
        9 21 1 2</rect></_>
    <_>
      <rect>
        9 25 6 5</rect></_>
    <_>
      <rect>
        9 27 4 4</rect></_>
    <_>
      <rect>
        9 29 7 5</rect></_>
    <_>
      <rect>
        10 0 4 2</rect></_>
    <_>
      <rect>
        10 17 2 4</rect></_>
    <_>
      <rect>
        10 24 3 3</rect></_>
    <_>
      <rect>
        11 15 3 5</rect></_>
    <_>
      <rect>
        11 18 1 1</rect></_>
    <_>
      <rect>
        11 19 7 7</rect></_>
    <_>
      <rect>
        11 24 1 1</rect></_>
    <_>
      <rect>
        11 31 6 4</rect></_>
    <_>
      <rect>
        11 34 5 3</rect></_>
    <_>
      <rect>
        12 12 2 2</rect></_>
    <_>
      <rect>
        12 14 1 2</rect></_>
    <_>
      <rect>
        12 25 1 1</rect></_>
    <_>
      <rect>
        12 30 1 1</rect></_>
    <_>
      <rect>
        12 30 3 3</rect></_>
    <_>
      <rect>
        12 34 1 1</rect></_>
    <_>
      <rect>
        13 10 5 10</rect></_>
    <_>
      <rect>
        13 11 3 3</rect></_>
    <_>
      <rect>
        13 14 5 6</rect></_>
    <_>
      <rect>
        13 21 4 6</rect></_>
    <_>
      <rect>
        13 22 4 7</rect></_>
    <_>
      <rect>
        13 24 2 2</rect></_>
    <_>
      <rect>
        13 29 2 2</rect></_>
    <_>
      <rect>
        13 32 3 4</rect></_>
    <_>
      <rect>
        14 0 6 5</rect></_>
    <_>
      <rect>
        14 0 6 14</rect></_>
    <_>
      <rect>
        14 5 6 4</rect></_>
    <_>
      <rect>
        14 11 3 5</rect></_>
    <_>
      <rect>
        14 21 5 5</rect></_>
    <_>
      <rect>
        14 28 4 4</rect></_>
    <_>
      <rect>
        14 29 2 4</rect></_>
    <_>
      <rect>
        14 35 2 2</rect></_>
    <_>
      <rect>
        15 9 4 3</rect></_>
    <_>
      <rect>
        15 26 4 4</rect></_>
    <_>
      <rect>
        15 28 2 2</rect></_>
    <_>
      <rect>
        15 28 2 5</rect></_>
    <_>
      <rect>
        15 29 4 4</rect></_>
    <_>
      <rect>
        15 35 5 2</rect></_>
    <_>
      <rect>
        16 5 2 2</rect></_>
    <_>
      <rect>
        16 13 4 7</rect></_>
    <_>
      <rect>
        16 16 5 5</rect></_>
    <_>
      <rect>
        16 21 3 2</rect></_>
    <_>
      <rect>
        16 22 1 1</rect></_>
    <_>
      <rect>
        16 38 3 2</rect></_>
    <_>
      <rect>
        17 23 5 7</rect></_>
    <_>
      <rect>
        17 38 1 1</rect></_>
    <_>
      <rect>
        18 7 4 4</rect></_>
    <_>
      <rect>
        18 8 3 4</rect></_>
    <_>
      <rect>
        18 16 1 1</rect></_>
    <_>
      <rect>
        18 16 3 7</rect></_>
    <_>
      <rect>
        18 27 3 4</rect></_>
    <_>
      <rect>
        18 38 1 1</rect></_>
    <_>
      <rect>
        19 13 4 8</rect></_>
    <_>
      <rect>
        19 35 4 3</rect></_>
    <_>
      <rect>
        20 0 4 12</rect></_>
    <_>
      <rect>
        20 6 3 5</rect></_>
    <_>
      <rect>
        20 9 4 6</rect></_>
    <_>
      <rect>
        20 12 4 7</rect></_>
    <_>
      <rect>
        20 17 4 8</rect></_>
    <_>
      <rect>
        20 19 2 6</rect></_>
    <_>
      <rect>
        20 24 3 3</rect></_>
    <_>
      <rect>
        20 28 4 2</rect></_>
    <_>
      <rect>
        20 32 4 4</rect></_>
    <_>
      <rect>
        20 35 2 2</rect></_>
    <_>
      <rect>
        21 26 3 3</rect></_>
    <_>
      <rect>
        22 24 3 6</rect></_>
    <_>
      <rect>
        22 25 1 1</rect></_>
    <_>
      <rect>
        22 25 3 3</rect></_>
    <_>
      <rect>
        22 31 3 4</rect></_>
    <_>
      <rect>
        23 2 3 13</rect></_>
    <_>
      <rect>
        23 5 3 1</rect></_>
    <_>
      <rect>
        23 6 3 1</rect></_>
    <_>
      <rect>
        23 23 2 4</rect></_>
    <_>
      <rect>
        23 23 3 5</rect></_>
    <_>
      <rect>
        23 30 3 3</rect></_>
    <_>
      <rect>
        23 33 3 3</rect></_>
    <_>
      <rect>
        25 25 2 1</rect></_>
    <_>
      <rect>
        25 38 2 2</rect></_>
    <_>
      <rect>
        26 20 2 5</rect></_>
    <_>
      <rect>
        26 34 2 3</rect></_>
    <_>
      <rect>
        29 28 1 1</rect></_>
    <_>
      <rect>
        29 29 1 1</rect></_>
    <_>
      <rect>
        29 34 1 1</rect></_></features></cascade>
</opencv_storage>
