<?xml version="1.0"?>
<opencv_storage>
<!-- Created using Computer Vision System Toolbox(tm) for MATLAB(R) -->
<!-- Version 8.6.0.267246 (R2015b) -->
<!-- Compatible with OpenCV 2.4 -->
<cascade>
  <stageType>BOOST</stageType>
  <featureType>HOG</featureType>
  <height>38</height>
  <width>32</width>
  <stageParams>
    <boostType>GAB</boostType>
    <minHitRate>9.9500000476837158e-01</minHitRate>
    <maxFalseAlarm>5.0000000745058060e-02</maxFalseAlarm>
    <weightTrimRate>9.4999999999999996e-01</weightTrimRate>
    <maxDepth>1</maxDepth>
    <maxWeakCount>100</maxWeakCount></stageParams>
  <featureParams>
    <maxCatCount>0</maxCatCount>
    <featSize>36</featSize></featureParams>
  <stageNum>5</stageNum>
  <stages>
    <!-- stage 0 -->
    <_>
      <maxWeakCount>10</maxWeakCount>
      <stageThreshold>-2.4293802678585052e-01</stageThreshold>
      <weakClassifiers>
        <_>
          <internalNodes>
            0 -1 46 3.7654720246791840e-02</internalNodes>
          <leafValues>
            -8.3598822355270386e-01 4.3010753393173218e-01</leafValues></_>
        <_>
          <internalNodes>
            0 -1 11 1.7858834937214851e-02</internalNodes>
          <leafValues>
            -8.6760210990905762e-01 3.3796110749244690e-01</leafValues></_>
        <_>
          <internalNodes>
            0 -1 147 2.1449713036417961e-02</internalNodes>
          <leafValues>
            -8.1045544147491455e-01 3.6757981777191162e-01</leafValues></_>
        <_>
          <internalNodes>
            0 -1 6 2.6064973790198565e-03</internalNodes>
          <leafValues>
            4.6827352046966553e-01 -7.6806855201721191e-01</leafValues></_>
        <_>
          <internalNodes>
            0 -1 86 1.8460627645254135e-02</internalNodes>
          <leafValues>
            -7.2694319486618042e-01 3.8051223754882813e-01</leafValues></_>
        <_>
          <internalNodes>
            0 -1 40 1.0154319927096367e-02</internalNodes>
          <leafValues>
            -7.1731835603713989e-01 3.9328250288963318e-01</leafValues></_>
        <_>
          <internalNodes>
            0 -1 71 1.6876405104994774e-02</internalNodes>
          <leafValues>
            -7.2605663537979126e-01 3.1729164719581604e-01</leafValues></_>
        <_>
          <internalNodes>
            0 -1 123 9.0545341372489929e-03</internalNodes>
          <leafValues>
            -8.4269571304321289e-01 2.8719002008438110e-01</leafValues></_>
        <_>
          <internalNodes>
            0 -1 15 5.6276787072420120e-03</internalNodes>
          <leafValues>
            2.4268047511577606e-01 -7.5134223699569702e-01</leafValues></_>
        <_>
          <internalNodes>
            0 -1 148 1.1147959157824516e-02</internalNodes>
          <leafValues>
            -8.9302837848663330e-01 2.1265618503093719e-01</leafValues></_></weakClassifiers></_>
    <!-- stage 1 -->
    <_>
      <maxWeakCount>29</maxWeakCount>
      <stageThreshold>-8.3213609457015991e-01</stageThreshold>
      <weakClassifiers>
        <_>
          <internalNodes>
            0 -1 104 3.0373870395123959e-03</internalNodes>
          <leafValues>
            1.2472647428512573e-01 -7.6944446563720703e-01</leafValues></_>
        <_>
          <internalNodes>
            0 -1 98 5.7446919381618500e-03</internalNodes>
          <leafValues>
            2.9159128665924072e-01 -5.9190410375595093e-01</leafValues></_>
        <_>
          <internalNodes>
            0 -1 122 1.0796885937452316e-02</internalNodes>
          <leafValues>
            -7.0965421199798584e-01 2.1814239025115967e-01</leafValues></_>
        <_>
          <internalNodes>
            0 -1 49 3.7407577037811279e-02</internalNodes>
          <leafValues>
            -4.8528587818145752e-01 3.8542994856834412e-01</leafValues></_>
        <_>
          <internalNodes>
            0 -1 105 2.3075489327311516e-02</internalNodes>
          <leafValues>
            -6.7470657825469971e-01 2.4960523843765259e-01</leafValues></_>
        <_>
          <internalNodes>
            0 -1 96 4.7542834654450417e-03</internalNodes>
          <leafValues>
            4.1816362738609314e-01 -4.0961152315139771e-01</leafValues></_>
        <_>
          <internalNodes>
            0 -1 14 2.0908243022859097e-03</internalNodes>
          <leafValues>
            2.8107947111129761e-01 -5.3930032253265381e-01</leafValues></_>
        <_>
          <internalNodes>
            0 -1 57 3.5964354872703552e-02</internalNodes>
          <leafValues>
            -4.6939289569854736e-01 3.4300786256790161e-01</leafValues></_>
        <_>
          <internalNodes>
            0 -1 142 2.0222026854753494e-02</internalNodes>
          <leafValues>
            -7.1014082431793213e-01 2.0584027469158173e-01</leafValues></_>
        <_>
          <internalNodes>
            0 -1 130 1.4794087037444115e-02</internalNodes>
          <leafValues>
            -4.6249553561210632e-01 3.4097266197204590e-01</leafValues></_>
        <_>
          <internalNodes>
            0 -1 95 2.2799022495746613e-02</internalNodes>
          <leafValues>
            -4.3093621730804443e-01 3.6256706714630127e-01</leafValues></_>
        <_>
          <internalNodes>
            0 -1 23 5.7272333651781082e-03</internalNodes>
          <leafValues>
            -8.2370460033416748e-01 1.5602482855319977e-01</leafValues></_>
        <_>
          <internalNodes>
            0 -1 54 3.7889801897108555e-03</internalNodes>
          <leafValues>
            2.8389057517051697e-01 -4.0922391414642334e-01</leafValues></_>
        <_>
          <internalNodes>
            0 -1 120 2.2482939064502716e-02</internalNodes>
          <leafValues>
            -5.8586162328720093e-01 2.0621736347675323e-01</leafValues></_>
        <_>
          <internalNodes>
            0 -1 121 1.8042260780930519e-02</internalNodes>
          <leafValues>
            -4.6578299999237061e-01 2.6806357502937317e-01</leafValues></_>
        <_>
          <internalNodes>
            0 -1 89 1.0065954178571701e-02</internalNodes>
          <leafValues>
            2.1136556565761566e-01 -5.0960683822631836e-01</leafValues></_>
        <_>
          <internalNodes>
            0 -1 143 4.3739456683397293e-02</internalNodes>
          <leafValues>
            1.2832972407341003e-01 -7.9761111736297607e-01</leafValues></_>
        <_>
          <internalNodes>
            0 -1 36 4.3060868978500366e-02</internalNodes>
          <leafValues>
            9.8317570984363556e-02 -8.1037312746047974e-01</leafValues></_>
        <_>
          <internalNodes>
            0 -1 69 1.4072252437472343e-02</internalNodes>
          <leafValues>
            -6.0792505741119385e-01 1.5645028650760651e-01</leafValues></_>
        <_>
          <internalNodes>
            0 -1 154 1.3733319006860256e-02</internalNodes>
          <leafValues>
            -6.4351922273635864e-01 1.5591426193714142e-01</leafValues></_>
        <_>
          <internalNodes>
            0 -1 100 1.2488447129726410e-02</internalNodes>
          <leafValues>
            1.3501980900764465e-01 -8.6258685588836670e-01</leafValues></_>
        <_>
          <internalNodes>
            0 -1 74 2.1128341555595398e-02</internalNodes>
          <leafValues>
            1.0164500027894974e-01 -8.5204422473907471e-01</leafValues></_>
        <_>
          <internalNodes>
            0 -1 58 8.1674665212631226e-02</internalNodes>
          <leafValues>
            -2.6590406894683838e-01 3.9466100931167603e-01</leafValues></_>
        <_>
          <internalNodes>
            0 -1 149 7.4119061231613159e-02</internalNodes>
          <leafValues>
            1.4152157306671143e-01 -8.8884431123733521e-01</leafValues></_>
        <_>
          <internalNodes>
            0 -1 9 2.1611317992210388e-02</internalNodes>
          <leafValues>
            3.4618195891380310e-01 -3.2145908474922180e-01</leafValues></_>
        <_>
          <internalNodes>
            0 -1 101 1.0323124006390572e-02</internalNodes>
          <leafValues>
            -6.9663447141647339e-01 1.5972627699375153e-01</leafValues></_>
        <_>
          <internalNodes>
            0 -1 4 6.6377236507833004e-03</internalNodes>
          <leafValues>
            1.9677509367465973e-01 -4.8399621248245239e-01</leafValues></_>
        <_>
          <internalNodes>
            0 -1 41 1.1608744971454144e-02</internalNodes>
          <leafValues>
            -7.3333436250686646e-01 1.5356634557247162e-01</leafValues></_>
        <_>
          <internalNodes>
            0 -1 158 3.4010715782642365e-02</internalNodes>
          <leafValues>
            1.0160380601882935e-01 -7.3948150873184204e-01</leafValues></_></weakClassifiers></_>
    <!-- stage 2 -->
    <_>
      <maxWeakCount>46</maxWeakCount>
      <stageThreshold>-7.5459372997283936e-01</stageThreshold>
      <weakClassifiers>
        <_>
          <internalNodes>
            0 -1 102 3.7221515085548162e-03</internalNodes>
          <leafValues>
            -1.1294117569923401e-01 -6.7056703567504883e-01</leafValues></_>
        <_>
          <internalNodes>
            0 -1 78 2.0039789378643036e-02</internalNodes>
          <leafValues>
            -5.8916145563125610e-01 1.4054659008979797e-01</leafValues></_>
        <_>
          <internalNodes>
            0 -1 165 2.6847258210182190e-02</internalNodes>
          <leafValues>
            -5.0611549615859985e-01 2.2744122147560120e-01</leafValues></_>
        <_>
          <internalNodes>
            0 -1 61 1.2226026505231857e-02</internalNodes>
          <leafValues>
            -3.6498713493347168e-01 2.6958292722702026e-01</leafValues></_>
        <_>
          <internalNodes>
            0 -1 37 4.9917488358914852e-03</internalNodes>
          <leafValues>
            -5.1488196849822998e-01 2.0411960780620575e-01</leafValues></_>
        <_>
          <internalNodes>
            0 -1 129 4.1575893759727478e-02</internalNodes>
          <leafValues>
            -4.4537404179573059e-01 2.3923258483409882e-01</leafValues></_>
        <_>
          <internalNodes>
            0 -1 118 4.1343048214912415e-02</internalNodes>
          <leafValues>
            1.3929259777069092e-01 -6.4714616537094116e-01</leafValues></_>
        <_>
          <internalNodes>
            0 -1 31 4.1267238557338715e-03</internalNodes>
          <leafValues>
            2.8993538022041321e-01 -3.4051984548568726e-01</leafValues></_>
        <_>
          <internalNodes>
            0 -1 76 4.6827629208564758e-02</internalNodes>
          <leafValues>
            1.0912790894508362e-01 -7.3288249969482422e-01</leafValues></_>
        <_>
          <internalNodes>
            0 -1 0 2.4690505117177963e-02</internalNodes>
          <leafValues>
            -3.8085317611694336e-01 2.2851735353469849e-01</leafValues></_>
        <_>
          <internalNodes>
            0 -1 92 5.2748285233974457e-02</internalNodes>
          <leafValues>
            -1.6692867875099182e-01 5.9465891122817993e-01</leafValues></_>
        <_>
          <internalNodes>
            0 -1 135 2.9094144701957703e-02</internalNodes>
          <leafValues>
            -5.0911092758178711e-01 2.1366128325462341e-01</leafValues></_>
        <_>
          <internalNodes>
            0 -1 68 1.6457539051771164e-02</internalNodes>
          <leafValues>
            -5.4160040616989136e-01 1.1049845069646835e-01</leafValues></_>
        <_>
          <internalNodes>
            0 -1 26 1.6905449330806732e-02</internalNodes>
          <leafValues>
            -4.8646867275238037e-01 1.6055472195148468e-01</leafValues></_>
        <_>
          <internalNodes>
            0 -1 7 2.1445394959300756e-03</internalNodes>
          <leafValues>
            1.5419630706310272e-01 -5.4079186916351318e-01</leafValues></_>
        <_>
          <internalNodes>
            0 -1 140 5.8406680822372437e-02</internalNodes>
          <leafValues>
            9.4605550169944763e-02 -7.7816241979598999e-01</leafValues></_>
        <_>
          <internalNodes>
            0 -1 18 6.1647966504096985e-02</internalNodes>
          <leafValues>
            -1.3863761723041534e-01 7.2540342807769775e-01</leafValues></_>
        <_>
          <internalNodes>
            0 -1 35 3.1763169914484024e-02</internalNodes>
          <leafValues>
            -4.2871189117431641e-01 2.1763981878757477e-01</leafValues></_>
        <_>
          <internalNodes>
            0 -1 33 1.1362512595951557e-02</internalNodes>
          <leafValues>
            -3.7512397766113281e-01 2.1285296976566315e-01</leafValues></_>
        <_>
          <internalNodes>
            0 -1 125 2.7743862941861153e-02</internalNodes>
          <leafValues>
            1.5266907215118408e-01 -5.1599514484405518e-01</leafValues></_>
        <_>
          <internalNodes>
            0 -1 157 9.3695838004350662e-03</internalNodes>
          <leafValues>
            -5.4100286960601807e-01 1.0937596112489700e-01</leafValues></_>
        <_>
          <internalNodes>
            0 -1 90 3.2031154260039330e-03</internalNodes>
          <leafValues>
            2.9370450973510742e-01 -2.7357199788093567e-01</leafValues></_>
        <_>
          <internalNodes>
            0 -1 113 1.0414153337478638e-02</internalNodes>
          <leafValues>
            1.0374147444963455e-01 -7.0637631416320801e-01</leafValues></_>
        <_>
          <internalNodes>
            0 -1 124 8.4981406107544899e-03</internalNodes>
          <leafValues>
            -4.5279443264007568e-01 1.7050217092037201e-01</leafValues></_>
        <_>
          <internalNodes>
            0 -1 51 1.1780971661210060e-02</internalNodes>
          <leafValues>
            -6.0370349884033203e-01 1.3104091584682465e-01</leafValues></_>
        <_>
          <internalNodes>
            0 -1 114 1.8697630614042282e-02</internalNodes>
          <leafValues>
            -4.5427513122558594e-01 1.3679355382919312e-01</leafValues></_>
        <_>
          <internalNodes>
            0 -1 57 3.2867521047592163e-02</internalNodes>
          <leafValues>
            -3.8073635101318359e-01 1.9595448672771454e-01</leafValues></_>
        <_>
          <internalNodes>
            0 -1 92 1.7838988453149796e-02</internalNodes>
          <leafValues>
            -3.5912767052650452e-01 2.2239087522029877e-01</leafValues></_>
        <_>
          <internalNodes>
            0 -1 9 3.0450031161308289e-02</internalNodes>
          <leafValues>
            2.2915567457675934e-01 -3.6000531911849976e-01</leafValues></_>
        <_>
          <internalNodes>
            0 -1 4 7.6464358717203140e-03</internalNodes>
          <leafValues>
            1.6699653863906860e-01 -5.1540917158126831e-01</leafValues></_>
        <_>
          <internalNodes>
            0 -1 34 1.8167363479733467e-02</internalNodes>
          <leafValues>
            -7.0042365789413452e-01 8.9517734944820404e-02</leafValues></_>
        <_>
          <internalNodes>
            0 -1 1 4.9399267882108688e-02</internalNodes>
          <leafValues>
            1.2268179655075073e-01 -5.0794118642807007e-01</leafValues></_>
        <_>
          <internalNodes>
            0 -1 97 4.0867254137992859e-03</internalNodes>
          <leafValues>
            3.6279574036598206e-01 -1.7571748793125153e-01</leafValues></_>
        <_>
          <internalNodes>
            0 -1 127 1.2498163618147373e-02</internalNodes>
          <leafValues>
            -7.3365306854248047e-01 9.0868830680847168e-02</leafValues></_>
        <_>
          <internalNodes>
            0 -1 63 3.3199511468410492e-02</internalNodes>
          <leafValues>
            1.4615377783775330e-01 -4.6464285254478455e-01</leafValues></_>
        <_>
          <internalNodes>
            0 -1 141 2.4079404771327972e-02</internalNodes>
          <leafValues>
            -3.0512037873268127e-01 2.0399221777915955e-01</leafValues></_>
        <_>
          <internalNodes>
            0 -1 22 2.3695169016718864e-02</internalNodes>
          <leafValues>
            -2.5729176402091980e-01 2.7641126513481140e-01</leafValues></_>
        <_>
          <internalNodes>
            0 -1 60 1.2048413045704365e-02</internalNodes>
          <leafValues>
            -2.4059598147869110e-01 2.3649755120277405e-01</leafValues></_>
        <_>
          <internalNodes>
            0 -1 132 2.1963924169540405e-02</internalNodes>
          <leafValues>
            1.5446960926055908e-01 -4.4644051790237427e-01</leafValues></_>
        <_>
          <internalNodes>
            0 -1 159 8.8236201554536819e-03</internalNodes>
          <leafValues>
            -7.2201246023178101e-01 8.1100635230541229e-02</leafValues></_>
        <_>
          <internalNodes>
            0 -1 155 3.6029174923896790e-02</internalNodes>
          <leafValues>
            1.2593016028404236e-01 -4.6354582905769348e-01</leafValues></_>
        <_>
          <internalNodes>
            0 -1 13 1.9793162122368813e-02</internalNodes>
          <leafValues>
            1.2464264780282974e-01 -5.0348079204559326e-01</leafValues></_>
        <_>
          <internalNodes>
            0 -1 2 6.9370488636195660e-03</internalNodes>
          <leafValues>
            1.1102686822414398e-01 -5.1470154523849487e-01</leafValues></_>
        <_>
          <internalNodes>
            0 -1 39 8.4196403622627258e-03</internalNodes>
          <leafValues>
            -4.5057752728462219e-01 1.2829217314720154e-01</leafValues></_>
        <_>
          <internalNodes>
            0 -1 131 1.4506969600915909e-02</internalNodes>
          <leafValues>
            -4.7780767083168030e-01 1.1783522367477417e-01</leafValues></_>
        <_>
          <internalNodes>
            0 -1 55 2.1760061383247375e-02</internalNodes>
          <leafValues>
            2.8816506266593933e-01 -2.3109765350818634e-01</leafValues></_></weakClassifiers></_>
    <!-- stage 3 -->
    <_>
      <maxWeakCount>61</maxWeakCount>
      <stageThreshold>-6.5653914213180542e-01</stageThreshold>
      <weakClassifiers>
        <_>
          <internalNodes>
            0 -1 165 4.4308394193649292e-02</internalNodes>
          <leafValues>
            -5.4518604278564453e-01 -1.2522361241281033e-02</leafValues></_>
        <_>
          <internalNodes>
            0 -1 50 3.8862474262714386e-02</internalNodes>
          <leafValues>
            1.0656058788299561e-01 -5.9005850553512573e-01</leafValues></_>
        <_>
          <internalNodes>
            0 -1 89 7.5383577495813370e-03</internalNodes>
          <leafValues>
            1.6809464991092682e-01 -4.3157026171684265e-01</leafValues></_>
        <_>
          <internalNodes>
            0 -1 128 1.5954941511154175e-02</internalNodes>
          <leafValues>
            -6.0983735322952271e-01 1.3048249483108521e-01</leafValues></_>
        <_>
          <internalNodes>
            0 -1 103 1.8264867831021547e-03</internalNodes>
          <leafValues>
            2.1696905791759491e-01 -3.9952880144119263e-01</leafValues></_>
        <_>
          <internalNodes>
            0 -1 30 3.4244172275066376e-04</internalNodes>
          <leafValues>
            -7.1879976987838745e-01 8.6926236748695374e-02</leafValues></_>
        <_>
          <internalNodes>
            0 -1 61 1.8597561866044998e-02</internalNodes>
          <leafValues>
            -2.3890432715415955e-01 2.9239693284034729e-01</leafValues></_>
        <_>
          <internalNodes>
            0 -1 42 2.5287352502346039e-02</internalNodes>
          <leafValues>
            -3.8168162107467651e-01 1.6438414156436920e-01</leafValues></_>
        <_>
          <internalNodes>
            0 -1 12 3.1489036977291107e-02</internalNodes>
          <leafValues>
            -1.8323913216590881e-01 3.4608104825019836e-01</leafValues></_>
        <_>
          <internalNodes>
            0 -1 110 1.4963488280773163e-01</internalNodes>
          <leafValues>
            -1.1514051258563995e-01 6.6108292341232300e-01</leafValues></_>
        <_>
          <internalNodes>
            0 -1 161 2.4474637582898140e-02</internalNodes>
          <leafValues>
            -5.8944833278656006e-01 1.6769999265670776e-01</leafValues></_>
        <_>
          <internalNodes>
            0 -1 76 3.0077345669269562e-02</internalNodes>
          <leafValues>
            9.5229499042034149e-02 -4.9549734592437744e-01</leafValues></_>
        <_>
          <internalNodes>
            0 -1 81 1.6154423356056213e-02</internalNodes>
          <leafValues>
            -2.5459858775138855e-01 2.2585155069828033e-01</leafValues></_>
        <_>
          <internalNodes>
            0 -1 134 4.7402031719684601e-02</internalNodes>
          <leafValues>
            -3.1494572758674622e-01 1.9995613396167755e-01</leafValues></_>
        <_>
          <internalNodes>
            0 -1 85 9.8032839596271515e-03</internalNodes>
          <leafValues>
            -5.2152228355407715e-01 1.2689130008220673e-01</leafValues></_>
        <_>
          <internalNodes>
            0 -1 91 8.7494313716888428e-02</internalNodes>
          <leafValues>
            -9.9013119935989380e-02 7.0740628242492676e-01</leafValues></_>
        <_>
          <internalNodes>
            0 -1 111 7.4297497048974037e-03</internalNodes>
          <leafValues>
            1.5596017241477966e-01 -4.1563704609870911e-01</leafValues></_>
        <_>
          <internalNodes>
            0 -1 151 5.7436805218458176e-03</internalNodes>
          <leafValues>
            -8.6339557170867920e-01 5.6645072996616364e-02</leafValues></_>
        <_>
          <internalNodes>
            0 -1 45 2.2321767173707485e-03</internalNodes>
          <leafValues>
            2.6940652728080750e-01 -2.3117978870868683e-01</leafValues></_>
        <_>
          <internalNodes>
            0 -1 146 3.7652291357517242e-02</internalNodes>
          <leafValues>
            1.0680911689996719e-01 -6.1604225635528564e-01</leafValues></_>
        <_>
          <internalNodes>
            0 -1 97 2.5202978402376175e-02</internalNodes>
          <leafValues>
            1.1319691687822342e-01 -4.6418604254722595e-01</leafValues></_>
        <_>
          <internalNodes>
            0 -1 133 1.9356712698936462e-02</internalNodes>
          <leafValues>
            -5.3196126222610474e-01 1.1179922521114349e-01</leafValues></_>
        <_>
          <internalNodes>
            0 -1 164 6.2474444508552551e-02</internalNodes>
          <leafValues>
            8.6963608860969543e-02 -6.6414546966552734e-01</leafValues></_>
        <_>
          <internalNodes>
            0 -1 75 2.0030260086059570e-02</internalNodes>
          <leafValues>
            1.0343891382217407e-01 -5.1313865184783936e-01</leafValues></_>
        <_>
          <internalNodes>
            0 -1 152 2.5105066597461700e-02</internalNodes>
          <leafValues>
            -3.9160802960395813e-01 1.4237797260284424e-01</leafValues></_>
        <_>
          <internalNodes>
            0 -1 140 4.3156176805496216e-02</internalNodes>
          <leafValues>
            1.1934455484151840e-01 -4.3834978342056274e-01</leafValues></_>
        <_>
          <internalNodes>
            0 -1 109 2.9637493193149567e-02</internalNodes>
          <leafValues>
            -2.0567874610424042e-01 2.7780595421791077e-01</leafValues></_>
        <_>
          <internalNodes>
            0 -1 59 3.9876986294984818e-02</internalNodes>
          <leafValues>
            1.5314994752407074e-01 -4.0245479345321655e-01</leafValues></_>
        <_>
          <internalNodes>
            0 -1 20 2.6155520230531693e-02</internalNodes>
          <leafValues>
            -4.2718294262886047e-01 1.1080234497785568e-01</leafValues></_>
        <_>
          <internalNodes>
            0 -1 98 1.4260293915867805e-02</internalNodes>
          <leafValues>
            8.5114501416683197e-02 -5.8287537097930908e-01</leafValues></_>
        <_>
          <internalNodes>
            0 -1 156 2.0367266610264778e-02</internalNodes>
          <leafValues>
            -3.8717797398567200e-01 1.3009232282638550e-01</leafValues></_>
        <_>
          <internalNodes>
            0 -1 77 4.8695318400859833e-02</internalNodes>
          <leafValues>
            -1.6384166479110718e-01 3.0666270852088928e-01</leafValues></_>
        <_>
          <internalNodes>
            0 -1 32 5.1462162286043167e-02</internalNodes>
          <leafValues>
            -1.2955410778522491e-01 3.9198586344718933e-01</leafValues></_>
        <_>
          <internalNodes>
            0 -1 8 7.2925046086311340e-02</internalNodes>
          <leafValues>
            1.1401991546154022e-01 -4.8398452997207642e-01</leafValues></_>
        <_>
          <internalNodes>
            0 -1 107 1.9644975662231445e-02</internalNodes>
          <leafValues>
            -4.0578922629356384e-01 1.1302598565816879e-01</leafValues></_>
        <_>
          <internalNodes>
            0 -1 138 1.6832025721669197e-02</internalNodes>
          <leafValues>
            2.3914287984371185e-01 -2.2761970758438110e-01</leafValues></_>
        <_>
          <internalNodes>
            0 -1 145 7.9063087701797485e-02</internalNodes>
          <leafValues>
            5.2640322595834732e-02 -9.5387798547744751e-01</leafValues></_>
        <_>
          <internalNodes>
            0 -1 43 2.9348745010793209e-03</internalNodes>
          <leafValues>
            1.4825324714183807e-01 -3.0451995134353638e-01</leafValues></_>
        <_>
          <internalNodes>
            0 -1 47 8.1584021449089050e-02</internalNodes>
          <leafValues>
            6.2303494662046432e-02 -8.0307739973068237e-01</leafValues></_>
        <_>
          <internalNodes>
            0 -1 21 3.5953331738710403e-02</internalNodes>
          <leafValues>
            8.0645136535167694e-02 -5.2315503358840942e-01</leafValues></_>
        <_>
          <internalNodes>
            0 -1 160 3.9252232760190964e-02</internalNodes>
          <leafValues>
            4.5934148132801056e-02 -8.1360626220703125e-01</leafValues></_>
        <_>
          <internalNodes>
            0 -1 99 1.1465045390650630e-03</internalNodes>
          <leafValues>
            2.5466966629028320e-01 -1.8125961720943451e-01</leafValues></_>
        <_>
          <internalNodes>
            0 -1 162 1.1654508300125599e-02</internalNodes>
          <leafValues>
            -6.1299002170562744e-01 8.5819594562053680e-02</leafValues></_>
        <_>
          <internalNodes>
            0 -1 80 3.9364494383335114e-02</internalNodes>
          <leafValues>
            6.5916068851947784e-02 -6.6655069589614868e-01</leafValues></_>
        <_>
          <internalNodes>
            0 -1 116 1.0930035263299942e-02</internalNodes>
          <leafValues>
            -5.4461109638214111e-01 7.4702374637126923e-02</leafValues></_>
        <_>
          <internalNodes>
            0 -1 53 3.2417297363281250e-02</internalNodes>
          <leafValues>
            7.2593070566654205e-02 -5.3707528114318848e-01</leafValues></_>
        <_>
          <internalNodes>
            0 -1 65 8.9973602443933487e-03</internalNodes>
          <leafValues>
            -7.3186784982681274e-01 5.1034703850746155e-02</leafValues></_>
        <_>
          <internalNodes>
            0 -1 70 3.2054223120212555e-02</internalNodes>
          <leafValues>
            -1.6599489748477936e-01 2.6474609971046448e-01</leafValues></_>
        <_>
          <internalNodes>
            0 -1 108 2.8646815568208694e-02</internalNodes>
          <leafValues>
            -1.9685816764831543e-01 2.4232380092144012e-01</leafValues></_>
        <_>
          <internalNodes>
            0 -1 27 2.6513822376728058e-04</internalNodes>
          <leafValues>
            -5.3250020742416382e-01 9.6323587000370026e-02</leafValues></_>
        <_>
          <internalNodes>
            0 -1 19 3.2970053143799305e-03</internalNodes>
          <leafValues>
            2.3745213449001312e-01 -2.0152662694454193e-01</leafValues></_>
        <_>
          <internalNodes>
            0 -1 44 2.6653509587049484e-02</internalNodes>
          <leafValues>
            7.6415643095970154e-02 -6.2896245718002319e-01</leafValues></_>
        <_>
          <internalNodes>
            0 -1 5 3.1042469665408134e-02</internalNodes>
          <leafValues>
            1.2500797212123871e-01 -3.8370510935783386e-01</leafValues></_>
        <_>
          <internalNodes>
            0 -1 101 1.2998700141906738e-01</internalNodes>
          <leafValues>
            -1.0549260675907135e-01 5.3276014328002930e-01</leafValues></_>
        <_>
          <internalNodes>
            0 -1 60 1.7137534916400909e-02</internalNodes>
          <leafValues>
            -1.7227719724178314e-01 2.7891469001770020e-01</leafValues></_>
        <_>
          <internalNodes>
            0 -1 132 2.8882484883069992e-02</internalNodes>
          <leafValues>
            9.6423022449016571e-02 -5.0794434547424316e-01</leafValues></_>
        <_>
          <internalNodes>
            0 -1 119 1.3276204466819763e-02</internalNodes>
          <leafValues>
            -4.5735222101211548e-01 1.0007731616497040e-01</leafValues></_>
        <_>
          <internalNodes>
            0 -1 87 4.6496417373418808e-02</internalNodes>
          <leafValues>
            6.6155068576335907e-02 -6.6388833522796631e-01</leafValues></_>
        <_>
          <internalNodes>
            0 -1 153 2.9779182747006416e-02</internalNodes>
          <leafValues>
            3.9668820798397064e-02 -8.2839262485504150e-01</leafValues></_>
        <_>
          <internalNodes>
            0 -1 139 2.4878840893507004e-02</internalNodes>
          <leafValues>
            -4.9544355273246765e-01 6.9149270653724670e-02</leafValues></_>
        <_>
          <internalNodes>
            0 -1 64 1.0712276399135590e-01</internalNodes>
          <leafValues>
            5.2227165549993515e-02 -7.6617890596389771e-01</leafValues></_></weakClassifiers></_>
    <!-- stage 4 -->
    <_>
      <maxWeakCount>46</maxWeakCount>
      <stageThreshold>1.3849605619907379e-01</stageThreshold>
      <weakClassifiers>
        <_>
          <internalNodes>
            0 -1 25 1.8683243542909622e-02</internalNodes>
          <leafValues>
            4.6141216158866882e-01 8.5310733318328857e-01</leafValues></_>
        <_>
          <internalNodes>
            0 -1 62 2.5609778240323067e-02</internalNodes>
          <leafValues>
            3.0414053797721863e-01 -3.9850577712059021e-01</leafValues></_>
        <_>
          <internalNodes>
            0 -1 61 2.6908159255981445e-02</internalNodes>
          <leafValues>
            -1.7646144330501556e-01 4.6944704651832581e-01</leafValues></_>
        <_>
          <internalNodes>
            0 -1 136 1.4354102313518524e-02</internalNodes>
          <leafValues>
            3.1379091739654541e-01 -2.5619786977767944e-01</leafValues></_>
        <_>
          <internalNodes>
            0 -1 24 2.2543467581272125e-02</internalNodes>
          <leafValues>
            1.7201370000839233e-01 -3.7965488433837891e-01</leafValues></_>
        <_>
          <internalNodes>
            0 -1 94 1.1918406002223492e-02</internalNodes>
          <leafValues>
            -4.1763076186180115e-01 1.8265186250209808e-01</leafValues></_>
        <_>
          <internalNodes>
            0 -1 3 1.5320980455726385e-03</internalNodes>
          <leafValues>
            2.7587866783142090e-01 -2.4509561061859131e-01</leafValues></_>
        <_>
          <internalNodes>
            0 -1 25 3.1659808009862900e-02</internalNodes>
          <leafValues>
            -1.3233488798141479e-01 5.5267083644866943e-01</leafValues></_>
        <_>
          <internalNodes>
            0 -1 163 2.4622190743684769e-02</internalNodes>
          <leafValues>
            -3.8642859458923340e-01 1.9360719621181488e-01</leafValues></_>
        <_>
          <internalNodes>
            0 -1 83 1.1581899598240852e-03</internalNodes>
          <leafValues>
            5.7492434978485107e-01 -1.1234945058822632e-01</leafValues></_>
        <_>
          <internalNodes>
            0 -1 26 2.1250704303383827e-02</internalNodes>
          <leafValues>
            -3.9736944437026978e-01 1.6870962083339691e-01</leafValues></_>
        <_>
          <internalNodes>
            0 -1 148 2.8226019814610481e-02</internalNodes>
          <leafValues>
            -2.9407560825347900e-01 2.0660927891731262e-01</leafValues></_>
        <_>
          <internalNodes>
            0 -1 54 2.0140493288636208e-03</internalNodes>
          <leafValues>
            2.6617509126663208e-01 -2.7239894866943359e-01</leafValues></_>
        <_>
          <internalNodes>
            0 -1 106 3.3092394471168518e-02</internalNodes>
          <leafValues>
            -2.7711871266365051e-01 2.2058662772178650e-01</leafValues></_>
        <_>
          <internalNodes>
            0 -1 16 1.0657506063580513e-02</internalNodes>
          <leafValues>
            5.3999590873718262e-01 -1.3306771218776703e-01</leafValues></_>
        <_>
          <internalNodes>
            0 -1 134 9.1408915817737579e-02</internalNodes>
          <leafValues>
            -1.5057666599750519e-01 5.4990535974502563e-01</leafValues></_>
        <_>
          <internalNodes>
            0 -1 67 1.0893136262893677e-02</internalNodes>
          <leafValues>
            -5.5968326330184937e-01 1.4301984012126923e-01</leafValues></_>
        <_>
          <internalNodes>
            0 -1 93 6.5970793366432190e-03</internalNodes>
          <leafValues>
            -6.0523271560668945e-01 1.1066379398107529e-01</leafValues></_>
        <_>
          <internalNodes>
            0 -1 115 1.3873385265469551e-02</internalNodes>
          <leafValues>
            -1.9461973011493683e-01 3.6138257384300232e-01</leafValues></_>
        <_>
          <internalNodes>
            0 -1 28 5.3521981462836266e-03</internalNodes>
          <leafValues>
            2.1238087117671967e-01 -3.7371456623077393e-01</leafValues></_>
        <_>
          <internalNodes>
            0 -1 52 5.1720160990953445e-02</internalNodes>
          <leafValues>
            -1.0432665795087814e-01 6.3010013103485107e-01</leafValues></_>
        <_>
          <internalNodes>
            0 -1 82 1.5414249151945114e-02</internalNodes>
          <leafValues>
            -3.5729604959487915e-01 2.0143261551856995e-01</leafValues></_>
        <_>
          <internalNodes>
            0 -1 79 4.7451093792915344e-02</internalNodes>
          <leafValues>
            8.2969509065151215e-02 -6.8053221702575684e-01</leafValues></_>
        <_>
          <internalNodes>
            0 -1 126 5.6532579474151134e-03</internalNodes>
          <leafValues>
            -4.2623326182365417e-01 1.3766679167747498e-01</leafValues></_>
        <_>
          <internalNodes>
            0 -1 80 3.5591967403888702e-02</internalNodes>
          <leafValues>
            9.7195498645305634e-02 -7.2169977426528931e-01</leafValues></_>
        <_>
          <internalNodes>
            0 -1 29 7.0298373699188232e-02</internalNodes>
          <leafValues>
            -8.0955877900123596e-02 9.2565363645553589e-01</leafValues></_>
        <_>
          <internalNodes>
            0 -1 84 7.4201598763465881e-02</internalNodes>
          <leafValues>
            1.0319153219461441e-01 -7.6625239849090576e-01</leafValues></_>
        <_>
          <internalNodes>
            0 -1 4 2.5697559118270874e-02</internalNodes>
          <leafValues>
            6.5750874578952789e-02 -7.8355789184570313e-01</leafValues></_>
        <_>
          <internalNodes>
            0 -1 66 6.1765778809785843e-03</internalNodes>
          <leafValues>
            -4.5519268512725830e-01 1.2495614588260651e-01</leafValues></_>
        <_>
          <internalNodes>
            0 -1 72 7.3560103774070740e-02</internalNodes>
          <leafValues>
            6.8224914371967316e-02 -8.1299942731857300e-01</leafValues></_>
        <_>
          <internalNodes>
            0 -1 73 7.1141878142952919e-03</internalNodes>
          <leafValues>
            1.6373884677886963e-01 -3.7175297737121582e-01</leafValues></_>
        <_>
          <internalNodes>
            0 -1 17 3.4663356840610504e-02</internalNodes>
          <leafValues>
            8.0916292965412140e-02 -6.7819911241531372e-01</leafValues></_>
        <_>
          <internalNodes>
            0 -1 38 2.7743760496377945e-02</internalNodes>
          <leafValues>
            1.4630441367626190e-01 -4.0608575940132141e-01</leafValues></_>
        <_>
          <internalNodes>
            0 -1 56 9.7046308219432831e-02</internalNodes>
          <leafValues>
            8.7271638214588165e-02 -6.9870221614837646e-01</leafValues></_>
        <_>
          <internalNodes>
            0 -1 10 7.6796017587184906e-02</internalNodes>
          <leafValues>
            -2.1822956204414368e-01 3.8274306058883667e-01</leafValues></_>
        <_>
          <internalNodes>
            0 -1 112 2.1065166220068932e-03</internalNodes>
          <leafValues>
            1.9602029025554657e-01 -3.1997781991958618e-01</leafValues></_>
        <_>
          <internalNodes>
            0 -1 137 4.1468106210231781e-02</internalNodes>
          <leafValues>
            1.3346472382545471e-01 -4.5831409096717834e-01</leafValues></_>
        <_>
          <internalNodes>
            0 -1 144 7.4532970786094666e-02</internalNodes>
          <leafValues>
            7.5525365769863129e-02 -8.8997143507003784e-01</leafValues></_>
        <_>
          <internalNodes>
            0 -1 146 4.6725966036319733e-02</internalNodes>
          <leafValues>
            6.8668417632579803e-02 -6.9189167022705078e-01</leafValues></_>
        <_>
          <internalNodes>
            0 -1 156 3.0997164547443390e-02</internalNodes>
          <leafValues>
            -2.8367435932159424e-01 2.1431960165500641e-01</leafValues></_>
        <_>
          <internalNodes>
            0 -1 88 1.1672349646687508e-02</internalNodes>
          <leafValues>
            3.0670121312141418e-01 -2.7031150460243225e-01</leafValues></_>
        <_>
          <internalNodes>
            0 -1 48 3.6741755902767181e-02</internalNodes>
          <leafValues>
            1.4149364829063416e-01 -4.6678429841995239e-01</leafValues></_>
        <_>
          <internalNodes>
            0 -1 117 9.3738473951816559e-03</internalNodes>
          <leafValues>
            -6.7579609155654907e-01 1.0277336835861206e-01</leafValues></_>
        <_>
          <internalNodes>
            0 -1 76 1.7456114292144775e-03</internalNodes>
          <leafValues>
            4.7347050905227661e-01 -1.6018666326999664e-01</leafValues></_>
        <_>
          <internalNodes>
            0 -1 124 1.2667413800954819e-02</internalNodes>
          <leafValues>
            -2.9733547568321228e-01 2.5588589906692505e-01</leafValues></_>
        <_>
          <internalNodes>
            0 -1 150 7.8229531645774841e-03</internalNodes>
          <leafValues>
            -4.0972694754600525e-01 1.8223325908184052e-01</leafValues></_></weakClassifiers></_></stages>
  <features>
    <_>
      <rect>
        0 0 8 8 3</rect></_>
    <_>
      <rect>
        0 0 8 8 4</rect></_>
    <_>
      <rect>
        0 0 8 8 6</rect></_>
    <_>
      <rect>
        0 0 8 8 18</rect></_>
    <_>
      <rect>
        0 4 8 8 1</rect></_>
    <_>
      <rect>
        0 4 8 8 4</rect></_>
    <_>
      <rect>
        0 4 8 8 6</rect></_>
    <_>
      <rect>
        0 4 8 8 7</rect></_>
    <_>
      <rect>
        0 4 8 8 20</rect></_>
    <_>
      <rect>
        0 4 8 8 22</rect></_>
    <_>
      <rect>
        0 4 8 8 29</rect></_>
    <_>
      <rect>
        0 4 8 8 30</rect></_>
    <_>
      <rect>
        0 4 8 8 32</rect></_>
    <_>
      <rect>
        0 8 8 8 1</rect></_>
    <_>
      <rect>
        0 8 8 8 6</rect></_>
    <_>
      <rect>
        0 8 8 8 8</rect></_>
    <_>
      <rect>
        0 8 8 8 20</rect></_>
    <_>
      <rect>
        0 8 8 8 26</rect></_>
    <_>
      <rect>
        0 8 8 8 32</rect></_>
    <_>
      <rect>
        0 16 8 8 6</rect></_>
    <_>
      <rect>
        0 16 8 8 11</rect></_>
    <_>
      <rect>
        0 16 8 8 22</rect></_>
    <_>
      <rect>
        0 16 8 8 27</rect></_>
    <_>
      <rect>
        0 16 8 8 35</rect></_>
    <_>
      <rect>
        0 20 8 8 22</rect></_>
    <_>
      <rect>
        0 20 8 8 24</rect></_>
    <_>
      <rect>
        0 20 8 8 30</rect></_>
    <_>
      <rect>
        4 0 8 8 2</rect></_>
    <_>
      <rect>
        4 0 8 8 26</rect></_>
    <_>
      <rect>
        4 0 8 8 32</rect></_>
    <_>
      <rect>
        4 4 8 8 3</rect></_>
    <_>
      <rect>
        4 4 8 8 17</rect></_>
    <_>
      <rect>
        4 12 8 8 1</rect></_>
    <_>
      <rect>
        4 16 8 8 0</rect></_>
    <_>
      <rect>
        4 16 8 8 10</rect></_>
    <_>
      <rect>
        4 16 8 8 11</rect></_>
    <_>
      <rect>
        4 16 8 8 21</rect></_>
    <_>
      <rect>
        4 16 8 8 25</rect></_>
    <_>
      <rect>
        4 20 8 8 4</rect></_>
    <_>
      <rect>
        4 20 8 8 8</rect></_>
    <_>
      <rect>
        4 20 8 8 16</rect></_>
    <_>
      <rect>
        4 20 8 8 29</rect></_>
    <_>
      <rect>
        4 20 8 8 30</rect></_>
    <_>
      <rect>
        8 0 8 8 8</rect></_>
    <_>
      <rect>
        8 0 8 8 14</rect></_>
    <_>
      <rect>
        8 0 8 8 26</rect></_>
    <_>
      <rect>
        8 4 8 8 28</rect></_>
    <_>
      <rect>
        8 8 8 8 11</rect></_>
    <_>
      <rect>
        8 8 8 8 18</rect></_>
    <_>
      <rect>
        8 16 8 8 10</rect></_>
    <_>
      <rect>
        8 16 8 8 20</rect></_>
    <_>
      <rect>
        8 16 8 8 28</rect></_>
    <_>
      <rect>
        8 20 8 8 14</rect></_>
    <_>
      <rect>
        8 20 8 8 35</rect></_>
    <_>
      <rect>
        12 0 8 8 8</rect></_>
    <_>
      <rect>
        12 0 8 8 19</rect></_>
    <_>
      <rect>
        12 0 8 8 20</rect></_>
    <_>
      <rect>
        12 0 8 8 27</rect></_>
    <_>
      <rect>
        12 0 8 8 28</rect></_>
    <_>
      <rect>
        12 0 8 8 31</rect></_>
    <_>
      <rect>
        12 4 8 8 14</rect></_>
    <_>
      <rect>
        12 4 8 8 15</rect></_>
    <_>
      <rect>
        12 8 8 8 0</rect></_>
    <_>
      <rect>
        12 8 8 8 12</rect></_>
    <_>
      <rect>
        12 12 8 8 1</rect></_>
    <_>
      <rect>
        12 12 8 8 9</rect></_>
    <_>
      <rect>
        12 16 8 8 16</rect></_>
    <_>
      <rect>
        12 16 8 8 30</rect></_>
    <_>
      <rect>
        12 20 8 8 0</rect></_>
    <_>
      <rect>
        12 20 8 8 12</rect></_>
    <_>
      <rect>
        12 20 8 8 13</rect></_>
    <_>
      <rect>
        12 20 8 8 21</rect></_>
    <_>
      <rect>
        12 20 8 8 28</rect></_>
    <_>
      <rect>
        12 20 8 8 32</rect></_>
    <_>
      <rect>
        12 20 8 8 34</rect></_>
    <_>
      <rect>
        12 20 8 8 35</rect></_>
    <_>
      <rect>
        16 0 8 8 10</rect></_>
    <_>
      <rect>
        16 0 8 8 27</rect></_>
    <_>
      <rect>
        16 4 8 8 18</rect></_>
    <_>
      <rect>
        16 8 8 8 13</rect></_>
    <_>
      <rect>
        16 12 8 8 16</rect></_>
    <_>
      <rect>
        16 12 8 8 24</rect></_>
    <_>
      <rect>
        16 12 8 8 26</rect></_>
    <_>
      <rect>
        16 12 8 8 32</rect></_>
    <_>
      <rect>
        16 16 8 8 8</rect></_>
    <_>
      <rect>
        16 16 8 8 12</rect></_>
    <_>
      <rect>
        16 16 8 8 20</rect></_>
    <_>
      <rect>
        16 16 8 8 28</rect></_>
    <_>
      <rect>
        16 16 8 8 31</rect></_>
    <_>
      <rect>
        16 16 8 8 32</rect></_>
    <_>
      <rect>
        16 16 8 8 33</rect></_>
    <_>
      <rect>
        16 20 8 8 4</rect></_>
    <_>
      <rect>
        16 20 8 8 5</rect></_>
    <_>
      <rect>
        16 20 8 8 6</rect></_>
    <_>
      <rect>
        16 20 8 8 7</rect></_>
    <_>
      <rect>
        16 20 8 8 8</rect></_>
    <_>
      <rect>
        16 20 8 8 27</rect></_>
    <_>
      <rect>
        16 20 8 8 28</rect></_>
    <_>
      <rect>
        16 20 8 8 32</rect></_>
    <_>
      <rect>
        16 20 8 8 34</rect></_>
    <_>
      <rect>
        0 0 8 16 0</rect></_>
    <_>
      <rect>
        0 0 8 16 3</rect></_>
    <_>
      <rect>
        0 0 8 16 5</rect></_>
    <_>
      <rect>
        0 0 8 16 6</rect></_>
    <_>
      <rect>
        0 0 8 16 8</rect></_>
    <_>
      <rect>
        0 0 8 16 12</rect></_>
    <_>
      <rect>
        0 0 8 16 19</rect></_>
    <_>
      <rect>
        0 0 8 16 21</rect></_>
    <_>
      <rect>
        0 0 8 16 32</rect></_>
    <_>
      <rect>
        0 0 8 16 33</rect></_>
    <_>
      <rect>
        0 4 8 16 3</rect></_>
    <_>
      <rect>
        0 4 8 16 5</rect></_>
    <_>
      <rect>
        0 4 8 16 6</rect></_>
    <_>
      <rect>
        0 4 8 16 8</rect></_>
    <_>
      <rect>
        0 4 8 16 13</rect></_>
    <_>
      <rect>
        0 4 8 16 15</rect></_>
    <_>
      <rect>
        0 4 8 16 19</rect></_>
    <_>
      <rect>
        0 4 8 16 21</rect></_>
    <_>
      <rect>
        0 4 8 16 22</rect></_>
    <_>
      <rect>
        0 4 8 16 35</rect></_>
    <_>
      <rect>
        4 0 8 16 19</rect></_>
    <_>
      <rect>
        4 0 8 16 32</rect></_>
    <_>
      <rect>
        4 0 8 16 33</rect></_>
    <_>
      <rect>
        4 4 8 16 18</rect></_>
    <_>
      <rect>
        4 4 8 16 24</rect></_>
    <_>
      <rect>
        8 4 8 16 26</rect></_>
    <_>
      <rect>
        12 0 8 16 15</rect></_>
    <_>
      <rect>
        12 4 8 16 3</rect></_>
    <_>
      <rect>
        12 4 8 16 9</rect></_>
    <_>
      <rect>
        12 4 8 16 10</rect></_>
    <_>
      <rect>
        12 4 8 16 15</rect></_>
    <_>
      <rect>
        16 0 8 16 1</rect></_>
    <_>
      <rect>
        16 0 8 16 14</rect></_>
    <_>
      <rect>
        16 0 8 16 18</rect></_>
    <_>
      <rect>
        16 0 8 16 19</rect></_>
    <_>
      <rect>
        16 0 8 16 20</rect></_>
    <_>
      <rect>
        16 0 8 16 27</rect></_>
    <_>
      <rect>
        16 0 8 16 28</rect></_>
    <_>
      <rect>
        16 0 8 16 31</rect></_>
    <_>
      <rect>
        16 4 8 16 1</rect></_>
    <_>
      <rect>
        16 4 8 16 11</rect></_>
    <_>
      <rect>
        16 4 8 16 12</rect></_>
    <_>
      <rect>
        16 4 8 16 21</rect></_>
    <_>
      <rect>
        16 4 8 16 28</rect></_>
    <_>
      <rect>
        0 0 16 8 4</rect></_>
    <_>
      <rect>
        0 0 16 8 10</rect></_>
    <_>
      <rect>
        0 0 16 8 17</rect></_>
    <_>
      <rect>
        0 0 16 8 27</rect></_>
    <_>
      <rect>
        0 0 16 8 35</rect></_>
    <_>
      <rect>
        0 4 16 8 11</rect></_>
    <_>
      <rect>
        0 4 16 8 17</rect></_>
    <_>
      <rect>
        0 8 16 8 17</rect></_>
    <_>
      <rect>
        0 12 16 8 3</rect></_>
    <_>
      <rect>
        0 12 16 8 8</rect></_>
    <_>
      <rect>
        0 12 16 8 17</rect></_>
    <_>
      <rect>
        0 16 16 8 21</rect></_>
    <_>
      <rect>
        0 16 16 8 30</rect></_>
    <_>
      <rect>
        0 20 16 8 16</rect></_>
    <_>
      <rect>
        0 20 16 8 18</rect></_>
    <_>
      <rect>
        0 20 16 8 20</rect></_>
    <_>
      <rect>
        0 20 16 8 26</rect></_>
    <_>
      <rect>
        0 0 16 16 19</rect></_>
    <_>
      <rect>
        0 0 16 16 35</rect></_>
    <_>
      <rect>
        0 4 16 16 9</rect></_>
    <_>
      <rect>
        0 4 16 16 19</rect></_>
    <_>
      <rect>
        0 4 16 16 30</rect></_></features></cascade>
</opencv_storage>
