<?xml version="1.0"?>
<opencv_storage>
<!-- Created using Computer Vision System Toolbox(tm) for MATLAB(R) -->
<!-- Version 8.6.0.267246 (R2015b) -->
<!-- Compatible with OpenCV 2.4 -->
<cascade>
  <stageType>BOOST</stageType>
  <featureType>HOG</featureType>
  <height>40</height>
  <width>32</width>
  <stageParams>
    <boostType>GAB</boostType>
    <minHitRate>9.9500000476837158e-01</minHitRate>
    <maxFalseAlarm>2.0000000298023224e-01</maxFalseAlarm>
    <weightTrimRate>9.4999999999999996e-01</weightTrimRate>
    <maxDepth>1</maxDepth>
    <maxWeakCount>100</maxWeakCount></stageParams>
  <featureParams>
    <maxCatCount>0</maxCatCount>
    <featSize>36</featSize></featureParams>
  <stageNum>8</stageNum>
  <stages>
    <!-- stage 0 -->
    <_>
      <maxWeakCount>6</maxWeakCount>
      <stageThreshold>-1.3987256288528442e+00</stageThreshold>
      <weakClassifiers>
        <_>
          <internalNodes>
            0 -1 208 5.4111376404762268e-02</internalNodes>
          <leafValues>
            -9.1168165206909180e-01 6.1515790224075317e-01</leafValues></_>
        <_>
          <internalNodes>
            0 -1 186 3.5087417811155319e-02</internalNodes>
          <leafValues>
            -8.8009774684906006e-01 2.8891354799270630e-01</leafValues></_>
        <_>
          <internalNodes>
            0 -1 27 2.3558449000120163e-02</internalNodes>
          <leafValues>
            -6.9906902313232422e-01 4.2675223946571350e-01</leafValues></_>
        <_>
          <internalNodes>
            0 -1 167 1.6226628795266151e-02</internalNodes>
          <leafValues>
            -8.6456304788589478e-01 3.3609914779663086e-01</leafValues></_>
        <_>
          <internalNodes>
            0 -1 227 2.8250617906451225e-02</internalNodes>
          <leafValues>
            -6.4597797393798828e-01 4.0986484289169312e-01</leafValues></_>
        <_>
          <internalNodes>
            0 -1 279 2.1297626197338104e-02</internalNodes>
          <leafValues>
            -7.6710045337677002e-01 3.4615880250930786e-01</leafValues></_></weakClassifiers></_>
    <!-- stage 1 -->
    <_>
      <maxWeakCount>14</maxWeakCount>
      <stageThreshold>-1.5040380954742432e+00</stageThreshold>
      <weakClassifiers>
        <_>
          <internalNodes>
            0 -1 190 5.7351864874362946e-02</internalNodes>
          <leafValues>
            -8.4030663967132568e-01 1.7234788835048676e-01</leafValues></_>
        <_>
          <internalNodes>
            0 -1 116 3.7099249660968781e-02</internalNodes>
          <leafValues>
            -6.5314161777496338e-01 2.8930234909057617e-01</leafValues></_>
        <_>
          <internalNodes>
            0 -1 63 3.6527276039123535e-02</internalNodes>
          <leafValues>
            -4.3808314204216003e-01 4.4774335622787476e-01</leafValues></_>
        <_>
          <internalNodes>
            0 -1 219 2.1441981196403503e-02</internalNodes>
          <leafValues>
            -7.0392853021621704e-01 2.9277166724205017e-01</leafValues></_>
        <_>
          <internalNodes>
            0 -1 179 2.3784512653946877e-02</internalNodes>
          <leafValues>
            -6.9433790445327759e-01 3.1601151823997498e-01</leafValues></_>
        <_>
          <internalNodes>
            0 -1 169 2.1943159401416779e-02</internalNodes>
          <leafValues>
            -6.0212451219558716e-01 3.4460303187370300e-01</leafValues></_>
        <_>
          <internalNodes>
            0 -1 196 4.4269397854804993e-02</internalNodes>
          <leafValues>
            -6.1856514215469360e-01 2.8975281119346619e-01</leafValues></_>
        <_>
          <internalNodes>
            0 -1 171 1.9640892744064331e-02</internalNodes>
          <leafValues>
            -6.1083436012268066e-01 2.7399727702140808e-01</leafValues></_>
        <_>
          <internalNodes>
            0 -1 58 1.1295315809547901e-02</internalNodes>
          <leafValues>
            -5.2709561586380005e-01 2.7267411351203918e-01</leafValues></_>
        <_>
          <internalNodes>
            0 -1 86 2.8624288737773895e-02</internalNodes>
          <leafValues>
            -6.3404452800750732e-01 2.5211277604103088e-01</leafValues></_>
        <_>
          <internalNodes>
            0 -1 45 4.3339140713214874e-02</internalNodes>
          <leafValues>
            -3.9601394534111023e-01 3.6632165312767029e-01</leafValues></_>
        <_>
          <internalNodes>
            0 -1 149 1.7205871641635895e-02</internalNodes>
          <leafValues>
            2.7753424644470215e-01 -5.1181095838546753e-01</leafValues></_>
        <_>
          <internalNodes>
            0 -1 251 2.8386548161506653e-02</internalNodes>
          <leafValues>
            2.1686458587646484e-01 -6.4510768651962280e-01</leafValues></_>
        <_>
          <internalNodes>
            0 -1 260 1.4593319967389107e-02</internalNodes>
          <leafValues>
            -6.2155359983444214e-01 1.3743981719017029e-01</leafValues></_></weakClassifiers></_>
    <!-- stage 2 -->
    <_>
      <maxWeakCount>18</maxWeakCount>
      <stageThreshold>-1.2334932088851929e+00</stageThreshold>
      <weakClassifiers>
        <_>
          <internalNodes>
            0 -1 200 6.8772792816162109e-02</internalNodes>
          <leafValues>
            -7.0797544717788696e-01 7.2425246238708496e-02</leafValues></_>
        <_>
          <internalNodes>
            0 -1 48 4.6200968325138092e-02</internalNodes>
          <leafValues>
            -4.9768531322479248e-01 2.4355013668537140e-01</leafValues></_>
        <_>
          <internalNodes>
            0 -1 227 3.5601362586021423e-02</internalNodes>
          <leafValues>
            -4.8114022612571716e-01 3.1497731804847717e-01</leafValues></_>
        <_>
          <internalNodes>
            0 -1 160 2.3785997182130814e-02</internalNodes>
          <leafValues>
            -4.6637922525405884e-01 3.2462015748023987e-01</leafValues></_>
        <_>
          <internalNodes>
            0 -1 264 1.8026562407612801e-02</internalNodes>
          <leafValues>
            -6.8764221668243408e-01 2.3778747022151947e-01</leafValues></_>
        <_>
          <internalNodes>
            0 -1 271 4.1448902338743210e-02</internalNodes>
          <leafValues>
            -6.4252710342407227e-01 1.9519022107124329e-01</leafValues></_>
        <_>
          <internalNodes>
            0 -1 85 5.5672312155365944e-03</internalNodes>
          <leafValues>
            -6.5839630365371704e-01 1.8128226697444916e-01</leafValues></_>
        <_>
          <internalNodes>
            0 -1 118 1.1725924909114838e-02</internalNodes>
          <leafValues>
            2.6205116510391235e-01 -4.9422243237495422e-01</leafValues></_>
        <_>
          <internalNodes>
            0 -1 228 1.1039646342396736e-02</internalNodes>
          <leafValues>
            -8.9731496572494507e-01 1.1452577263116837e-01</leafValues></_>
        <_>
          <internalNodes>
            0 -1 251 3.4602664411067963e-02</internalNodes>
          <leafValues>
            1.3604156672954559e-01 -7.8197580575942993e-01</leafValues></_>
        <_>
          <internalNodes>
            0 -1 207 3.3423837274312973e-02</internalNodes>
          <leafValues>
            -5.7067734003067017e-01 1.4201352000236511e-01</leafValues></_>
        <_>
          <internalNodes>
            0 -1 49 1.3681653887033463e-02</internalNodes>
          <leafValues>
            -7.0235019922256470e-01 1.7180830240249634e-01</leafValues></_>
        <_>
          <internalNodes>
            0 -1 45 4.0219400078058243e-02</internalNodes>
          <leafValues>
            -4.0072727203369141e-01 2.5107473134994507e-01</leafValues></_>
        <_>
          <internalNodes>
            0 -1 232 1.0793254710733891e-02</internalNodes>
          <leafValues>
            2.7362692356109619e-01 -3.9038535952568054e-01</leafValues></_>
        <_>
          <internalNodes>
            0 -1 51 2.2176701575517654e-02</internalNodes>
          <leafValues>
            1.6046269237995148e-01 -5.7162296772003174e-01</leafValues></_>
        <_>
          <internalNodes>
            0 -1 269 6.4098802395164967e-03</internalNodes>
          <leafValues>
            -6.3065719604492188e-01 1.4587588608264923e-01</leafValues></_>
        <_>
          <internalNodes>
            0 -1 25 1.5986256301403046e-02</internalNodes>
          <leafValues>
            1.2998604774475098e-01 -5.8407455682754517e-01</leafValues></_>
        <_>
          <internalNodes>
            0 -1 233 7.4363849125802517e-03</internalNodes>
          <leafValues>
            -7.4710434675216675e-01 1.1195133626461029e-01</leafValues></_></weakClassifiers></_>
    <!-- stage 3 -->
    <_>
      <maxWeakCount>33</maxWeakCount>
      <stageThreshold>-1.4083919525146484e+00</stageThreshold>
      <weakClassifiers>
        <_>
          <internalNodes>
            0 -1 69 5.1502875983715057e-02</internalNodes>
          <leafValues>
            -7.4375283718109131e-01 -1.1132956296205521e-01</leafValues></_>
        <_>
          <internalNodes>
            0 -1 90 2.2400453686714172e-02</internalNodes>
          <leafValues>
            9.8689973354339600e-02 -7.1600949764251709e-01</leafValues></_>
        <_>
          <internalNodes>
            0 -1 79 3.2102391123771667e-02</internalNodes>
          <leafValues>
            2.3077224195003510e-01 -5.0217586755752563e-01</leafValues></_>
        <_>
          <internalNodes>
            0 -1 169 2.9524974524974823e-02</internalNodes>
          <leafValues>
            -3.9884585142135620e-01 2.8721171617507935e-01</leafValues></_>
        <_>
          <internalNodes>
            0 -1 219 1.7938513308763504e-02</internalNodes>
          <leafValues>
            -7.2439283132553101e-01 1.5777720510959625e-01</leafValues></_>
        <_>
          <internalNodes>
            0 -1 159 3.8203969597816467e-02</internalNodes>
          <leafValues>
            -4.4927552342414856e-01 2.7254301309585571e-01</leafValues></_>
        <_>
          <internalNodes>
            0 -1 220 2.6116199791431427e-02</internalNodes>
          <leafValues>
            -5.8744722604751587e-01 2.1738903224468231e-01</leafValues></_>
        <_>
          <internalNodes>
            0 -1 116 3.2098390161991119e-02</internalNodes>
          <leafValues>
            -5.1089346408843994e-01 1.7353330552577972e-01</leafValues></_>
        <_>
          <internalNodes>
            0 -1 211 2.1521633490920067e-02</internalNodes>
          <leafValues>
            1.1828013509511948e-01 -6.9952017068862915e-01</leafValues></_>
        <_>
          <internalNodes>
            0 -1 254 1.3209966942667961e-02</internalNodes>
          <leafValues>
            -6.3218581676483154e-01 9.9916599690914154e-02</leafValues></_>
        <_>
          <internalNodes>
            0 -1 67 8.9719966053962708e-03</internalNodes>
          <leafValues>
            2.2091417014598846e-01 -3.5868716239929199e-01</leafValues></_>
        <_>
          <internalNodes>
            0 -1 111 4.3205663561820984e-02</internalNodes>
          <leafValues>
            -6.0751330852508545e-01 1.3937182724475861e-01</leafValues></_>
        <_>
          <internalNodes>
            0 -1 216 4.8801060765981674e-03</internalNodes>
          <leafValues>
            -5.7174247503280640e-01 1.0668815672397614e-01</leafValues></_>
        <_>
          <internalNodes>
            0 -1 243 9.4716418534517288e-03</internalNodes>
          <leafValues>
            -7.1860706806182861e-01 1.2912449240684509e-01</leafValues></_>
        <_>
          <internalNodes>
            0 -1 92 1.0080967098474503e-02</internalNodes>
          <leafValues>
            1.7387597262859344e-01 -3.8900744915008545e-01</leafValues></_>
        <_>
          <internalNodes>
            0 -1 93 1.6881128773093224e-02</internalNodes>
          <leafValues>
            -5.5804485082626343e-01 1.4351327717304230e-01</leafValues></_>
        <_>
          <internalNodes>
            0 -1 262 2.2518813610076904e-02</internalNodes>
          <leafValues>
            1.9086010754108429e-01 -3.6624953150749207e-01</leafValues></_>
        <_>
          <internalNodes>
            0 -1 181 2.9105708003044128e-02</internalNodes>
          <leafValues>
            1.7720067501068115e-01 -4.6312704682350159e-01</leafValues></_>
        <_>
          <internalNodes>
            0 -1 98 1.0210012085735798e-02</internalNodes>
          <leafValues>
            -5.2202743291854858e-01 1.2317404896020889e-01</leafValues></_>
        <_>
          <internalNodes>
            0 -1 30 1.2682568281888962e-02</internalNodes>
          <leafValues>
            -4.9130132794380188e-01 1.3373957574367523e-01</leafValues></_>
        <_>
          <internalNodes>
            0 -1 50 8.7768994271755219e-03</internalNodes>
          <leafValues>
            -3.5808742046356201e-01 1.6817760467529297e-01</leafValues></_>
        <_>
          <internalNodes>
            0 -1 267 2.0725751295685768e-02</internalNodes>
          <leafValues>
            -5.0732737779617310e-01 1.3694167137145996e-01</leafValues></_>
        <_>
          <internalNodes>
            0 -1 189 1.4336788095533848e-02</internalNodes>
          <leafValues>
            -6.4416539669036865e-01 8.3450600504875183e-02</leafValues></_>
        <_>
          <internalNodes>
            0 -1 158 3.3458128571510315e-02</internalNodes>
          <leafValues>
            1.5273542702198029e-01 -3.4527236223220825e-01</leafValues></_>
        <_>
          <internalNodes>
            0 -1 153 2.6440334040671587e-03</internalNodes>
          <leafValues>
            3.1882497668266296e-01 -1.7804834246635437e-01</leafValues></_>
        <_>
          <internalNodes>
            0 -1 77 5.3560532629489899e-02</internalNodes>
          <leafValues>
            -2.5077709555625916e-01 2.2857438027858734e-01</leafValues></_>
        <_>
          <internalNodes>
            0 -1 252 1.0922005400061607e-02</internalNodes>
          <leafValues>
            -6.1218482255935669e-01 1.1005352437496185e-01</leafValues></_>
        <_>
          <internalNodes>
            0 -1 53 1.4003957621753216e-02</internalNodes>
          <leafValues>
            -2.9359418153762817e-01 1.8226385116577148e-01</leafValues></_>
        <_>
          <internalNodes>
            0 -1 41 6.5131578594446182e-03</internalNodes>
          <leafValues>
            2.5062376260757446e-01 -2.3429298400878906e-01</leafValues></_>
        <_>
          <internalNodes>
            0 -1 272 9.7604915499687195e-03</internalNodes>
          <leafValues>
            -7.2180891036987305e-01 8.0364920198917389e-02</leafValues></_>
        <_>
          <internalNodes>
            0 -1 281 3.5853993147611618e-02</internalNodes>
          <leafValues>
            -4.1773864626884460e-01 1.4686383306980133e-01</leafValues></_>
        <_>
          <internalNodes>
            0 -1 45 6.5591327846050262e-02</internalNodes>
          <leafValues>
            -2.0850890874862671e-01 3.0728989839553833e-01</leafValues></_>
        <_>
          <internalNodes>
            0 -1 230 2.5518434122204781e-03</internalNodes>
          <leafValues>
            -8.1655853986740112e-01 6.4768850803375244e-02</leafValues></_></weakClassifiers></_>
    <!-- stage 4 -->
    <_>
      <maxWeakCount>52</maxWeakCount>
      <stageThreshold>-1.4108177423477173e+00</stageThreshold>
      <weakClassifiers>
        <_>
          <internalNodes>
            0 -1 208 9.2271640896797180e-02</internalNodes>
          <leafValues>
            -5.9327036142349243e-01 -2.7758501470088959e-02</leafValues></_>
        <_>
          <internalNodes>
            0 -1 251 2.4336509406566620e-02</internalNodes>
          <leafValues>
            1.3046978414058685e-01 -5.3140145540237427e-01</leafValues></_>
        <_>
          <internalNodes>
            0 -1 19 4.5518890023231506e-02</internalNodes>
          <leafValues>
            -3.5981208086013794e-01 2.3660500347614288e-01</leafValues></_>
        <_>
          <internalNodes>
            0 -1 169 1.4497704803943634e-02</internalNodes>
          <leafValues>
            -5.5287885665893555e-01 1.8236953020095825e-01</leafValues></_>
        <_>
          <internalNodes>
            0 -1 227 3.1791459769010544e-02</internalNodes>
          <leafValues>
            -4.5971441268920898e-01 1.9331192970275879e-01</leafValues></_>
        <_>
          <internalNodes>
            0 -1 63 5.4586060345172882e-02</internalNodes>
          <leafValues>
            -2.4697926640510559e-01 3.3663341403007507e-01</leafValues></_>
        <_>
          <internalNodes>
            0 -1 186 5.1083005964756012e-02</internalNodes>
          <leafValues>
            -4.4132870435714722e-01 1.6152925789356232e-01</leafValues></_>
        <_>
          <internalNodes>
            0 -1 157 3.6170743405818939e-02</internalNodes>
          <leafValues>
            -3.6204695701599121e-01 2.0844945311546326e-01</leafValues></_>
        <_>
          <internalNodes>
            0 -1 76 1.0613993741571903e-02</internalNodes>
          <leafValues>
            -2.9565742611885071e-01 2.1974520385265350e-01</leafValues></_>
        <_>
          <internalNodes>
            0 -1 184 4.4009730219841003e-02</internalNodes>
          <leafValues>
            6.7289277911186218e-02 -6.6451489925384521e-01</leafValues></_>
        <_>
          <internalNodes>
            0 -1 195 3.6312077194452286e-02</internalNodes>
          <leafValues>
            -3.3834350109100342e-01 1.9829450547695160e-01</leafValues></_>
        <_>
          <internalNodes>
            0 -1 183 1.6238156706094742e-02</internalNodes>
          <leafValues>
            1.7591370642185211e-01 -3.8946822285652161e-01</leafValues></_>
        <_>
          <internalNodes>
            0 -1 10 3.6919426172971725e-02</internalNodes>
          <leafValues>
            1.0272254794836044e-01 -5.1497876644134521e-01</leafValues></_>
        <_>
          <internalNodes>
            0 -1 102 8.1838183104991913e-03</internalNodes>
          <leafValues>
            -3.6395719647407532e-01 1.3475690782070160e-01</leafValues></_>
        <_>
          <internalNodes>
            0 -1 265 2.5708857923746109e-02</internalNodes>
          <leafValues>
            1.1681850254535675e-01 -5.4068356752395630e-01</leafValues></_>
        <_>
          <internalNodes>
            0 -1 261 3.3875335007905960e-02</internalNodes>
          <leafValues>
            -1.3418960571289063e-01 4.4808074831962585e-01</leafValues></_>
        <_>
          <internalNodes>
            0 -1 260 3.2988719642162323e-02</internalNodes>
          <leafValues>
            -2.4425579607486725e-01 2.0435799658298492e-01</leafValues></_>
        <_>
          <internalNodes>
            0 -1 79 2.2149521857500076e-02</internalNodes>
          <leafValues>
            1.8044218420982361e-01 -2.9473555088043213e-01</leafValues></_>
        <_>
          <internalNodes>
            0 -1 7 1.1341023491695523e-03</internalNodes>
          <leafValues>
            4.0438124537467957e-01 -1.2846334278583527e-01</leafValues></_>
        <_>
          <internalNodes>
            0 -1 169 3.5698227584362030e-02</internalNodes>
          <leafValues>
            -2.3174650967121124e-01 2.3310662806034088e-01</leafValues></_>
        <_>
          <internalNodes>
            0 -1 86 2.6186220347881317e-02</internalNodes>
          <leafValues>
            -5.4479348659515381e-01 1.1231224238872528e-01</leafValues></_>
        <_>
          <internalNodes>
            0 -1 20 1.4838848263025284e-02</internalNodes>
          <leafValues>
            -2.8702124953269958e-01 1.5659329295158386e-01</leafValues></_>
        <_>
          <internalNodes>
            0 -1 75 8.1989653408527374e-03</internalNodes>
          <leafValues>
            -6.6963124275207520e-01 6.9799937307834625e-02</leafValues></_>
        <_>
          <internalNodes>
            0 -1 117 3.0074134469032288e-02</internalNodes>
          <leafValues>
            5.4935328662395477e-02 -6.8387931585311890e-01</leafValues></_>
        <_>
          <internalNodes>
            0 -1 145 1.5050055459141731e-02</internalNodes>
          <leafValues>
            -2.2783713042736053e-01 2.4490380287170410e-01</leafValues></_>
        <_>
          <internalNodes>
            0 -1 93 4.2615968734025955e-02</internalNodes>
          <leafValues>
            -2.4485494196414948e-01 1.8058559298515320e-01</leafValues></_>
        <_>
          <internalNodes>
            0 -1 282 1.7527215182781219e-02</internalNodes>
          <leafValues>
            -5.0481539964675903e-01 8.5231244564056396e-02</leafValues></_>
        <_>
          <internalNodes>
            0 -1 241 2.1334487944841385e-02</internalNodes>
          <leafValues>
            1.9305710494518280e-01 -2.7844732999801636e-01</leafValues></_>
        <_>
          <internalNodes>
            0 -1 123 6.1153233982622623e-03</internalNodes>
          <leafValues>
            -5.3373891115188599e-01 8.0426469445228577e-02</leafValues></_>
        <_>
          <internalNodes>
            0 -1 103 6.8125827237963676e-03</internalNodes>
          <leafValues>
            -5.4203468561172485e-01 7.4380099773406982e-02</leafValues></_>
        <_>
          <internalNodes>
            0 -1 267 2.1764038130640984e-02</internalNodes>
          <leafValues>
            -4.1866835951805115e-01 1.0412452369928360e-01</leafValues></_>
        <_>
          <internalNodes>
            0 -1 121 3.6204807460308075e-02</internalNodes>
          <leafValues>
            8.6397185921669006e-02 -4.9928063154220581e-01</leafValues></_>
        <_>
          <internalNodes>
            0 -1 273 1.2538427487015724e-02</internalNodes>
          <leafValues>
            -6.8994069099426270e-01 5.9452421963214874e-02</leafValues></_>
        <_>
          <internalNodes>
            0 -1 107 3.2545626163482666e-02</internalNodes>
          <leafValues>
            4.0307372808456421e-02 -7.7880352735519409e-01</leafValues></_>
        <_>
          <internalNodes>
            0 -1 187 1.0781999677419662e-02</internalNodes>
          <leafValues>
            -5.5581259727478027e-01 6.3264757394790649e-02</leafValues></_>
        <_>
          <internalNodes>
            0 -1 140 1.6976719489321113e-03</internalNodes>
          <leafValues>
            2.9820886254310608e-01 -1.3017085194587708e-01</leafValues></_>
        <_>
          <internalNodes>
            0 -1 22 3.1742141582071781e-03</internalNodes>
          <leafValues>
            -5.3193414211273193e-01 7.7353112399578094e-02</leafValues></_>
        <_>
          <internalNodes>
            0 -1 34 1.9091968424618244e-03</internalNodes>
          <leafValues>
            3.0071380734443665e-01 -1.4022697508335114e-01</leafValues></_>
        <_>
          <internalNodes>
            0 -1 66 2.7678657323122025e-02</internalNodes>
          <leafValues>
            -4.0570187568664551e-01 1.0835488140583038e-01</leafValues></_>
        <_>
          <internalNodes>
            0 -1 127 5.7620324194431305e-02</internalNodes>
          <leafValues>
            7.4396774172782898e-02 -5.2545452117919922e-01</leafValues></_>
        <_>
          <internalNodes>
            0 -1 77 7.3501601815223694e-02</internalNodes>
          <leafValues>
            -1.5641181170940399e-01 2.7364107966423035e-01</leafValues></_>
        <_>
          <internalNodes>
            0 -1 135 6.1158277094364166e-03</internalNodes>
          <leafValues>
            -2.5990033149719238e-01 1.4724327623844147e-01</leafValues></_>
        <_>
          <internalNodes>
            0 -1 239 2.3446626961231232e-02</internalNodes>
          <leafValues>
            6.6167294979095459e-02 -5.5937194824218750e-01</leafValues></_>
        <_>
          <internalNodes>
            0 -1 268 4.3989829719066620e-02</internalNodes>
          <leafValues>
            4.1948676109313965e-02 -7.7073097229003906e-01</leafValues></_>
        <_>
          <internalNodes>
            0 -1 26 1.6995180398225784e-02</internalNodes>
          <leafValues>
            1.0675026476383209e-01 -3.0617791414260864e-01</leafValues></_>
        <_>
          <internalNodes>
            0 -1 60 5.4289750754833221e-02</internalNodes>
          <leafValues>
            -1.2151956558227539e-01 3.5868382453918457e-01</leafValues></_>
        <_>
          <internalNodes>
            0 -1 35 2.2001918405294418e-02</internalNodes>
          <leafValues>
            -1.1203378438949585e-01 3.3596116304397583e-01</leafValues></_>
        <_>
          <internalNodes>
            0 -1 170 4.0327921509742737e-02</internalNodes>
          <leafValues>
            7.8000061213970184e-02 -5.3731912374496460e-01</leafValues></_>
        <_>
          <internalNodes>
            0 -1 285 6.3342838548123837e-03</internalNodes>
          <leafValues>
            -5.4378640651702881e-01 7.8826487064361572e-02</leafValues></_>
        <_>
          <internalNodes>
            0 -1 209 2.4550860747694969e-02</internalNodes>
          <leafValues>
            1.2192925810813904e-01 -3.3535897731781006e-01</leafValues></_>
        <_>
          <internalNodes>
            0 -1 17 7.9268950503319502e-04</internalNodes>
          <leafValues>
            3.7313786149024963e-01 -1.1226496845483780e-01</leafValues></_>
        <_>
          <internalNodes>
            0 -1 226 1.0836075991392136e-02</internalNodes>
          <leafValues>
            -3.7225618958473206e-01 1.0973531007766724e-01</leafValues></_></weakClassifiers></_>
    <!-- stage 5 -->
    <_>
      <maxWeakCount>75</maxWeakCount>
      <stageThreshold>-1.3828611373901367e+00</stageThreshold>
      <weakClassifiers>
        <_>
          <internalNodes>
            0 -1 100 9.1571817174553871e-03</internalNodes>
          <leafValues>
            -1.2110922485589981e-01 -6.0745614767074585e-01</leafValues></_>
        <_>
          <internalNodes>
            0 -1 199 4.4709563255310059e-02</internalNodes>
          <leafValues>
            -3.2794168591499329e-01 2.0239436626434326e-01</leafValues></_>
        <_>
          <internalNodes>
            0 -1 79 4.1085727512836456e-02</internalNodes>
          <leafValues>
            1.1650093644857407e-01 -5.3745877742767334e-01</leafValues></_>
        <_>
          <internalNodes>
            0 -1 188 3.4752868115901947e-02</internalNodes>
          <leafValues>
            -5.0447452068328857e-01 1.3300618529319763e-01</leafValues></_>
        <_>
          <internalNodes>
            0 -1 54 2.6543585583567619e-02</internalNodes>
          <leafValues>
            -2.6181790232658386e-01 2.2805796563625336e-01</leafValues></_>
        <_>
          <internalNodes>
            0 -1 26 2.2910444065928459e-02</internalNodes>
          <leafValues>
            1.1249089986085892e-01 -5.9356939792633057e-01</leafValues></_>
        <_>
          <internalNodes>
            0 -1 29 4.3452944606542587e-02</internalNodes>
          <leafValues>
            -2.1778817474842072e-01 2.3028919100761414e-01</leafValues></_>
        <_>
          <internalNodes>
            0 -1 219 3.1291306018829346e-02</internalNodes>
          <leafValues>
            -3.2832795381546021e-01 1.4187033474445343e-01</leafValues></_>
        <_>
          <internalNodes>
            0 -1 131 4.7717519104480743e-02</internalNodes>
          <leafValues>
            -3.4284532070159912e-01 1.3691630959510803e-01</leafValues></_>
        <_>
          <internalNodes>
            0 -1 258 2.0732395350933075e-02</internalNodes>
          <leafValues>
            -4.8289346694946289e-01 9.2963308095932007e-02</leafValues></_>
        <_>
          <internalNodes>
            0 -1 179 3.4558311104774475e-02</internalNodes>
          <leafValues>
            -3.1267324090003967e-01 1.6119503974914551e-01</leafValues></_>
        <_>
          <internalNodes>
            0 -1 220 3.3904697746038437e-02</internalNodes>
          <leafValues>
            -3.1977957487106323e-01 1.5317237377166748e-01</leafValues></_>
        <_>
          <internalNodes>
            0 -1 240 1.3245117850601673e-02</internalNodes>
          <leafValues>
            -6.6707986593246460e-01 6.6601790487766266e-02</leafValues></_>
        <_>
          <internalNodes>
            0 -1 261 6.9937005639076233e-02</internalNodes>
          <leafValues>
            -7.3568157851696014e-02 6.4103883504867554e-01</leafValues></_>
        <_>
          <internalNodes>
            0 -1 266 1.5903830528259277e-02</internalNodes>
          <leafValues>
            -4.0887397527694702e-01 1.2216125428676605e-01</leafValues></_>
        <_>
          <internalNodes>
            0 -1 171 1.7288342118263245e-02</internalNodes>
          <leafValues>
            -4.8039439320564270e-01 8.9675597846508026e-02</leafValues></_>
        <_>
          <internalNodes>
            0 -1 210 2.2669710218906403e-02</internalNodes>
          <leafValues>
            1.2440729886293411e-01 -3.2710179686546326e-01</leafValues></_>
        <_>
          <internalNodes>
            0 -1 89 2.4368718266487122e-02</internalNodes>
          <leafValues>
            1.0520941019058228e-01 -4.3686109781265259e-01</leafValues></_>
        <_>
          <internalNodes>
            0 -1 120 6.2642106786370277e-03</internalNodes>
          <leafValues>
            -6.2750518321990967e-01 5.8649789541959763e-02</leafValues></_>
        <_>
          <internalNodes>
            0 -1 225 9.7022466361522675e-03</internalNodes>
          <leafValues>
            -4.7225189208984375e-01 6.4417228102684021e-02</leafValues></_>
        <_>
          <internalNodes>
            0 -1 205 2.7853108942508698e-02</internalNodes>
          <leafValues>
            -1.5630379319190979e-01 2.4570864439010620e-01</leafValues></_>
        <_>
          <internalNodes>
            0 -1 111 3.0849743634462357e-02</internalNodes>
          <leafValues>
            -7.2496855258941650e-01 6.0430850833654404e-02</leafValues></_>
        <_>
          <internalNodes>
            0 -1 42 3.9465175941586494e-03</internalNodes>
          <leafValues>
            -4.5290797948837280e-01 6.9483622908592224e-02</leafValues></_>
        <_>
          <internalNodes>
            0 -1 91 1.9134581089019775e-02</internalNodes>
          <leafValues>
            5.9550810605287552e-02 -5.5076050758361816e-01</leafValues></_>
        <_>
          <internalNodes>
            0 -1 177 2.2042699158191681e-02</internalNodes>
          <leafValues>
            9.4702839851379395e-02 -3.5502469539642334e-01</leafValues></_>
        <_>
          <internalNodes>
            0 -1 18 2.3731682449579239e-03</internalNodes>
          <leafValues>
            3.1838941574096680e-01 -1.4160458743572235e-01</leafValues></_>
        <_>
          <internalNodes>
            0 -1 219 1.4716209843754768e-02</internalNodes>
          <leafValues>
            -6.2040120363235474e-01 5.5131658911705017e-02</leafValues></_>
        <_>
          <internalNodes>
            0 -1 106 3.5162132233381271e-02</internalNodes>
          <leafValues>
            8.2268826663494110e-02 -4.0693062543869019e-01</leafValues></_>
        <_>
          <internalNodes>
            0 -1 270 4.2456858791410923e-03</internalNodes>
          <leafValues>
            -5.9084808826446533e-01 5.4228477180004120e-02</leafValues></_>
        <_>
          <internalNodes>
            0 -1 150 3.7728408351540565e-03</internalNodes>
          <leafValues>
            3.3788681030273438e-01 -1.1208678036928177e-01</leafValues></_>
        <_>
          <internalNodes>
            0 -1 153 1.3896315358579159e-03</internalNodes>
          <leafValues>
            2.9633504152297974e-01 -1.1131149530410767e-01</leafValues></_>
        <_>
          <internalNodes>
            0 -1 217 2.9495984315872192e-02</internalNodes>
          <leafValues>
            -1.0519438236951828e-01 3.0312785506248474e-01</leafValues></_>
        <_>
          <internalNodes>
            0 -1 36 3.4792183432728052e-03</internalNodes>
          <leafValues>
            -6.6034400463104248e-01 5.0412334501743317e-02</leafValues></_>
        <_>
          <internalNodes>
            0 -1 176 3.8343429565429688e-02</internalNodes>
          <leafValues>
            9.0110100805759430e-02 -3.2065105438232422e-01</leafValues></_>
        <_>
          <internalNodes>
            0 -1 154 1.7017526552081108e-02</internalNodes>
          <leafValues>
            1.6956192255020142e-01 -2.0903594791889191e-01</leafValues></_>
        <_>
          <internalNodes>
            0 -1 237 7.4446052312850952e-02</internalNodes>
          <leafValues>
            7.0598304271697998e-02 -4.5683509111404419e-01</leafValues></_>
        <_>
          <internalNodes>
            0 -1 212 4.6602118760347366e-02</internalNodes>
          <leafValues>
            4.7582279890775681e-02 -6.4912092685699463e-01</leafValues></_>
        <_>
          <internalNodes>
            0 -1 203 2.3632038384675980e-02</internalNodes>
          <leafValues>
            3.6495868116617203e-02 -6.7415505647659302e-01</leafValues></_>
        <_>
          <internalNodes>
            0 -1 251 2.6284132152795792e-02</internalNodes>
          <leafValues>
            8.7036788463592529e-02 -3.6429160833358765e-01</leafValues></_>
        <_>
          <internalNodes>
            0 -1 11 6.2568344175815582e-02</internalNodes>
          <leafValues>
            3.1984843313694000e-02 -8.7950235605239868e-01</leafValues></_>
        <_>
          <internalNodes>
            0 -1 80 1.6021260991692543e-02</internalNodes>
          <leafValues>
            9.0113133192062378e-02 -3.1762319803237915e-01</leafValues></_>
        <_>
          <internalNodes>
            0 -1 262 4.9650229513645172e-02</internalNodes>
          <leafValues>
            5.7774998247623444e-02 -5.5090838670730591e-01</leafValues></_>
        <_>
          <internalNodes>
            0 -1 249 1.4352372847497463e-02</internalNodes>
          <leafValues>
            -5.5697888135910034e-01 4.7966759651899338e-02</leafValues></_>
        <_>
          <internalNodes>
            0 -1 201 9.5942448824644089e-03</internalNodes>
          <leafValues>
            -3.5954478383064270e-01 8.4960885345935822e-02</leafValues></_>
        <_>
          <internalNodes>
            0 -1 286 1.1548437178134918e-02</internalNodes>
          <leafValues>
            -2.9587405920028687e-01 9.7695007920265198e-02</leafValues></_>
        <_>
          <internalNodes>
            0 -1 221 7.2893751785159111e-03</internalNodes>
          <leafValues>
            -5.0890070199966431e-01 5.6162890046834946e-02</leafValues></_>
        <_>
          <internalNodes>
            0 -1 200 1.2487468123435974e-01</internalNodes>
          <leafValues>
            -8.8190943002700806e-02 3.8070431351661682e-01</leafValues></_>
        <_>
          <internalNodes>
            0 -1 256 8.5107926279306412e-03</internalNodes>
          <leafValues>
            -8.5391628742218018e-01 4.0500104427337646e-02</leafValues></_>
        <_>
          <internalNodes>
            0 -1 82 3.0711552128195763e-02</internalNodes>
          <leafValues>
            -8.1845954060554504e-02 4.1246756911277771e-01</leafValues></_>
        <_>
          <internalNodes>
            0 -1 264 1.1949840933084488e-01</internalNodes>
          <leafValues>
            -3.8625825196504593e-02 7.0360368490219116e-01</leafValues></_>
        <_>
          <internalNodes>
            0 -1 206 1.9435755908489227e-02</internalNodes>
          <leafValues>
            -6.0743194818496704e-01 5.5578831583261490e-02</leafValues></_>
        <_>
          <internalNodes>
            0 -1 44 1.2416920624673367e-02</internalNodes>
          <leafValues>
            -1.6790075600147247e-01 1.7962616682052612e-01</leafValues></_>
        <_>
          <internalNodes>
            0 -1 71 4.6432847739197314e-04</internalNodes>
          <leafValues>
            3.9204356074333191e-01 -7.7948726713657379e-02</leafValues></_>
        <_>
          <internalNodes>
            0 -1 223 4.6404983848333359e-02</internalNodes>
          <leafValues>
            -1.8731041252613068e-01 1.6087478399276733e-01</leafValues></_>
        <_>
          <internalNodes>
            0 -1 133 4.9304366111755371e-02</internalNodes>
          <leafValues>
            -6.8785302340984344e-02 4.2630088329315186e-01</leafValues></_>
        <_>
          <internalNodes>
            0 -1 30 2.1957412362098694e-02</internalNodes>
          <leafValues>
            -2.4469107389450073e-01 1.1928753554821014e-01</leafValues></_>
        <_>
          <internalNodes>
            0 -1 274 1.1286851018667221e-02</internalNodes>
          <leafValues>
            -1.7418871819972992e-01 1.5567970275878906e-01</leafValues></_>
        <_>
          <internalNodes>
            0 -1 244 1.7913606017827988e-02</internalNodes>
          <leafValues>
            1.0042204707860947e-01 -3.5336825251579285e-01</leafValues></_>
        <_>
          <internalNodes>
            0 -1 215 1.1693218722939491e-02</internalNodes>
          <leafValues>
            -5.2484989166259766e-01 4.3494988232851028e-02</leafValues></_>
        <_>
          <internalNodes>
            0 -1 74 2.2547967731952667e-02</internalNodes>
          <leafValues>
            1.0609058290719986e-01 -2.6072010397911072e-01</leafValues></_>
        <_>
          <internalNodes>
            0 -1 64 2.3063658736646175e-03</internalNodes>
          <leafValues>
            2.2287154197692871e-01 -1.3116340339183807e-01</leafValues></_>
        <_>
          <internalNodes>
            0 -1 235 3.8035111501812935e-03</internalNodes>
          <leafValues>
            -4.1531088948249817e-01 7.8464068472385406e-02</leafValues></_>
        <_>
          <internalNodes>
            0 -1 234 2.9571309685707092e-02</internalNodes>
          <leafValues>
            5.8795776218175888e-02 -4.3894386291503906e-01</leafValues></_>
        <_>
          <internalNodes>
            0 -1 87 6.4666410908102989e-03</internalNodes>
          <leafValues>
            -2.8337684273719788e-01 9.2186383903026581e-02</leafValues></_>
        <_>
          <internalNodes>
            0 -1 164 6.1260156333446503e-02</internalNodes>
          <leafValues>
            6.8750716745853424e-02 -3.7953263521194458e-01</leafValues></_>
        <_>
          <internalNodes>
            0 -1 245 2.0856389775872231e-02</internalNodes>
          <leafValues>
            7.2201818227767944e-02 -4.0395504236221313e-01</leafValues></_>
        <_>
          <internalNodes>
            0 -1 104 4.2738993652164936e-03</internalNodes>
          <leafValues>
            -2.8742629289627075e-01 1.0055281966924667e-01</leafValues></_>
        <_>
          <internalNodes>
            0 -1 99 7.4819186702370644e-03</internalNodes>
          <leafValues>
            -3.9004674553871155e-01 7.8220494091510773e-02</leafValues></_>
        <_>
          <internalNodes>
            0 -1 276 2.3843627423048019e-02</internalNodes>
          <leafValues>
            1.2673009932041168e-01 -2.2865779697895050e-01</leafValues></_>
        <_>
          <internalNodes>
            0 -1 113 2.5627037510275841e-02</internalNodes>
          <leafValues>
            6.8559013307094574e-02 -3.9821159839630127e-01</leafValues></_>
        <_>
          <internalNodes>
            0 -1 8 1.9331215880811214e-03</internalNodes>
          <leafValues>
            2.7334806323051453e-01 -1.0368580371141434e-01</leafValues></_>
        <_>
          <internalNodes>
            0 -1 83 7.9279849305748940e-03</internalNodes>
          <leafValues>
            -2.9203814268112183e-01 1.1419975012540817e-01</leafValues></_>
        <_>
          <internalNodes>
            0 -1 94 1.7948095500469208e-01</internalNodes>
          <leafValues>
            -4.5591820031404495e-02 6.5302890539169312e-01</leafValues></_>
        <_>
          <internalNodes>
            0 -1 259 1.1116329580545425e-02</internalNodes>
          <leafValues>
            -3.5087859630584717e-01 9.8496772348880768e-02</leafValues></_>
        <_>
          <internalNodes>
            0 -1 139 4.9498165026307106e-03</internalNodes>
          <leafValues>
            3.1504139304161072e-01 -8.8791713118553162e-02</leafValues></_></weakClassifiers></_>
    <!-- stage 6 -->
    <_>
      <maxWeakCount>89</maxWeakCount>
      <stageThreshold>-1.0202453136444092e+00</stageThreshold>
      <weakClassifiers>
        <_>
          <internalNodes>
            0 -1 116 4.6360082924365997e-02</internalNodes>
          <leafValues>
            -3.8267543911933899e-01 1.6254281997680664e-01</leafValues></_>
        <_>
          <internalNodes>
            0 -1 19 7.1816377341747284e-02</internalNodes>
          <leafValues>
            -2.0464871823787689e-01 3.1163752079010010e-01</leafValues></_>
        <_>
          <internalNodes>
            0 -1 111 7.0416346192359924e-02</internalNodes>
          <leafValues>
            -3.3408802747726440e-01 1.5793545544147491e-01</leafValues></_>
        <_>
          <internalNodes>
            0 -1 156 1.9412595778703690e-02</internalNodes>
          <leafValues>
            1.8130886554718018e-01 -3.2748657464981079e-01</leafValues></_>
        <_>
          <internalNodes>
            0 -1 21 2.8050169348716736e-02</internalNodes>
          <leafValues>
            -3.0108433961868286e-01 1.4167855679988861e-01</leafValues></_>
        <_>
          <internalNodes>
            0 -1 124 9.2407185584306717e-03</internalNodes>
          <leafValues>
            -2.4219080805778503e-01 1.9189919531345367e-01</leafValues></_>
        <_>
          <internalNodes>
            0 -1 143 1.4501357218250632e-03</internalNodes>
          <leafValues>
            2.9897928237915039e-01 -1.6916318237781525e-01</leafValues></_>
        <_>
          <internalNodes>
            0 -1 20 7.4087907560169697e-03</internalNodes>
          <leafValues>
            -4.6957522630691528e-01 1.1297712475061417e-01</leafValues></_>
        <_>
          <internalNodes>
            0 -1 77 4.0295355021953583e-02</internalNodes>
          <leafValues>
            -3.5692825913429260e-01 8.1760801374912262e-02</leafValues></_>
        <_>
          <internalNodes>
            0 -1 197 2.6817321777343750e-02</internalNodes>
          <leafValues>
            -1.9774840772151947e-01 2.1365849673748016e-01</leafValues></_>
        <_>
          <internalNodes>
            0 -1 264 2.3394957184791565e-02</internalNodes>
          <leafValues>
            -3.3892583847045898e-01 1.3366803526878357e-01</leafValues></_>
        <_>
          <internalNodes>
            0 -1 177 1.6436390578746796e-02</internalNodes>
          <leafValues>
            1.2789192795753479e-01 -2.9279059171676636e-01</leafValues></_>
        <_>
          <internalNodes>
            0 -1 28 5.3414113819599152e-02</internalNodes>
          <leafValues>
            9.6998319029808044e-02 -4.1835343837738037e-01</leafValues></_>
        <_>
          <internalNodes>
            0 -1 211 2.0484738051891327e-02</internalNodes>
          <leafValues>
            4.7339607030153275e-02 -5.4836004972457886e-01</leafValues></_>
        <_>
          <internalNodes>
            0 -1 33 1.0592541098594666e-01</internalNodes>
          <leafValues>
            3.9420396089553833e-02 -8.7786239385604858e-01</leafValues></_>
        <_>
          <internalNodes>
            0 -1 162 8.4575936198234558e-03</internalNodes>
          <leafValues>
            -5.2922946214675903e-01 6.4812727272510529e-02</leafValues></_>
        <_>
          <internalNodes>
            0 -1 193 2.4314284324645996e-02</internalNodes>
          <leafValues>
            2.0340310037136078e-01 -1.7730918526649475e-01</leafValues></_>
        <_>
          <internalNodes>
            0 -1 277 2.2577520459890366e-02</internalNodes>
          <leafValues>
            -3.7892255187034607e-01 9.4442375004291534e-02</leafValues></_>
        <_>
          <internalNodes>
            0 -1 78 4.2407948523759842e-02</internalNodes>
          <leafValues>
            8.1496387720108032e-02 -5.0064200162887573e-01</leafValues></_>
        <_>
          <internalNodes>
            0 -1 45 4.6431273221969604e-02</internalNodes>
          <leafValues>
            -2.1532405912876129e-01 1.4264708757400513e-01</leafValues></_>
        <_>
          <internalNodes>
            0 -1 280 2.7949651703238487e-02</internalNodes>
          <leafValues>
            -2.6835012435913086e-01 1.1594286561012268e-01</leafValues></_>
        <_>
          <internalNodes>
            0 -1 148 5.3908703848719597e-03</internalNodes>
          <leafValues>
            4.2344310879707336e-01 -6.9589748978614807e-02</leafValues></_>
        <_>
          <internalNodes>
            0 -1 228 2.7657754719257355e-02</internalNodes>
          <leafValues>
            -2.2489115595817566e-01 1.3327895104885101e-01</leafValues></_>
        <_>
          <internalNodes>
            0 -1 82 2.2201217710971832e-02</internalNodes>
          <leafValues>
            -1.0988926142454147e-01 3.0007702112197876e-01</leafValues></_>
        <_>
          <internalNodes>
            0 -1 0 1.5401305258274078e-01</internalNodes>
          <leafValues>
            -5.3336843848228455e-02 5.2770817279815674e-01</leafValues></_>
        <_>
          <internalNodes>
            0 -1 8 6.0550417751073837e-02</internalNodes>
          <leafValues>
            -5.1231104880571365e-02 5.2478814125061035e-01</leafValues></_>
        <_>
          <internalNodes>
            0 -1 275 3.7675891071557999e-02</internalNodes>
          <leafValues>
            -2.3089276254177094e-01 1.3451594114303589e-01</leafValues></_>
        <_>
          <internalNodes>
            0 -1 126 4.4568862766027451e-02</internalNodes>
          <leafValues>
            -9.0146064758300781e-02 3.6085802316665649e-01</leafValues></_>
        <_>
          <internalNodes>
            0 -1 23 7.0216499269008636e-02</internalNodes>
          <leafValues>
            -5.4198350757360458e-02 5.1131677627563477e-01</leafValues></_>
        <_>
          <internalNodes>
            0 -1 218 5.0984386354684830e-02</internalNodes>
          <leafValues>
            -2.5363746285438538e-01 1.3954605162143707e-01</leafValues></_>
        <_>
          <internalNodes>
            0 -1 225 1.7564643174409866e-02</internalNodes>
          <leafValues>
            -2.4889956414699554e-01 1.2179418653249741e-01</leafValues></_>
        <_>
          <internalNodes>
            0 -1 29 2.0409669727087021e-02</internalNodes>
          <leafValues>
            -2.8312811255455017e-01 1.1140388250350952e-01</leafValues></_>
        <_>
          <internalNodes>
            0 -1 81 1.5388643369078636e-02</internalNodes>
          <leafValues>
            -5.5535095930099487e-01 5.4004590958356857e-02</leafValues></_>
        <_>
          <internalNodes>
            0 -1 57 3.8450926542282104e-02</internalNodes>
          <leafValues>
            -1.4993406832218170e-01 2.0430721342563629e-01</leafValues></_>
        <_>
          <internalNodes>
            0 -1 112 2.5199882686138153e-02</internalNodes>
          <leafValues>
            9.3940198421478271e-02 -3.7795722484588623e-01</leafValues></_>
        <_>
          <internalNodes>
            0 -1 105 4.2015004903078079e-02</internalNodes>
          <leafValues>
            1.1550542712211609e-01 -2.6744905114173889e-01</leafValues></_>
        <_>
          <internalNodes>
            0 -1 137 1.1972554493695498e-03</internalNodes>
          <leafValues>
            3.3398157358169556e-01 -9.1453529894351959e-02</leafValues></_>
        <_>
          <internalNodes>
            0 -1 213 8.3739478141069412e-03</internalNodes>
          <leafValues>
            -5.1955711841583252e-01 4.7753918915987015e-02</leafValues></_>
        <_>
          <internalNodes>
            0 -1 92 9.6829086542129517e-03</internalNodes>
          <leafValues>
            1.1646682769060135e-01 -2.1663856506347656e-01</leafValues></_>
        <_>
          <internalNodes>
            0 -1 38 6.1467895284295082e-03</internalNodes>
          <leafValues>
            -2.6521593332290649e-01 1.1854863166809082e-01</leafValues></_>
        <_>
          <internalNodes>
            0 -1 12 3.7585718091577291e-03</internalNodes>
          <leafValues>
            2.0832671225070953e-01 -1.4806348085403442e-01</leafValues></_>
        <_>
          <internalNodes>
            0 -1 243 9.3933399766683578e-03</internalNodes>
          <leafValues>
            -5.5646836757659912e-01 5.1850672811269760e-02</leafValues></_>
        <_>
          <internalNodes>
            0 -1 182 3.0294008553028107e-02</internalNodes>
          <leafValues>
            4.7815356403589249e-02 -5.3698962926864624e-01</leafValues></_>
        <_>
          <internalNodes>
            0 -1 287 7.9796776175498962e-02</internalNodes>
          <leafValues>
            5.0543896853923798e-02 -4.6694809198379517e-01</leafValues></_>
        <_>
          <internalNodes>
            0 -1 96 7.2106689214706421e-02</internalNodes>
          <leafValues>
            -1.0692973434925079e-01 3.0065461993217468e-01</leafValues></_>
        <_>
          <internalNodes>
            0 -1 283 1.6141220927238464e-02</internalNodes>
          <leafValues>
            1.4162635803222656e-01 -1.9073425233364105e-01</leafValues></_>
        <_>
          <internalNodes>
            0 -1 175 1.0923551395535469e-02</internalNodes>
          <leafValues>
            -2.5351762771606445e-01 1.0705906152725220e-01</leafValues></_>
        <_>
          <internalNodes>
            0 -1 65 1.0347623378038406e-02</internalNodes>
          <leafValues>
            2.0136693120002747e-01 -1.4541442692279816e-01</leafValues></_>
        <_>
          <internalNodes>
            0 -1 158 7.6134577393531799e-02</internalNodes>
          <leafValues>
            3.5206466913223267e-02 -7.8664714097976685e-01</leafValues></_>
        <_>
          <internalNodes>
            0 -1 178 5.3014867007732391e-02</internalNodes>
          <leafValues>
            -1.2725459039211273e-01 2.1021425724029541e-01</leafValues></_>
        <_>
          <internalNodes>
            0 -1 164 2.6790296658873558e-02</internalNodes>
          <leafValues>
            2.0694120228290558e-01 -1.5731471776962280e-01</leafValues></_>
        <_>
          <internalNodes>
            0 -1 240 1.8610619008541107e-02</internalNodes>
          <leafValues>
            -4.8494207859039307e-01 5.4494842886924744e-02</leafValues></_>
        <_>
          <internalNodes>
            0 -1 84 5.2975886501371861e-03</internalNodes>
          <leafValues>
            -3.6957490444183350e-01 7.0480100810527802e-02</leafValues></_>
        <_>
          <internalNodes>
            0 -1 37 6.4233872108161449e-03</internalNodes>
          <leafValues>
            -5.1348853111267090e-01 4.6063918620347977e-02</leafValues></_>
        <_>
          <internalNodes>
            0 -1 118 9.3614812940359116e-03</internalNodes>
          <leafValues>
            1.2755849957466125e-01 -2.0051780343055725e-01</leafValues></_>
        <_>
          <internalNodes>
            0 -1 278 1.2494266033172607e-02</internalNodes>
          <leafValues>
            -5.2691745758056641e-01 5.1915228366851807e-02</leafValues></_>
        <_>
          <internalNodes>
            0 -1 144 1.9227629899978638e-01</internalNodes>
          <leafValues>
            -6.9175012409687042e-02 3.5674443840980530e-01</leafValues></_>
        <_>
          <internalNodes>
            0 -1 272 1.7628865316510201e-02</internalNodes>
          <leafValues>
            -2.8197234869003296e-01 1.0879856348037720e-01</leafValues></_>
        <_>
          <internalNodes>
            0 -1 2 1.0960448533296585e-01</internalNodes>
          <leafValues>
            -5.7838216423988342e-02 5.0375282764434814e-01</leafValues></_>
        <_>
          <internalNodes>
            0 -1 180 1.0615050792694092e-01</internalNodes>
          <leafValues>
            3.5486169159412384e-02 -8.1067979335784912e-01</leafValues></_>
        <_>
          <internalNodes>
            0 -1 43 3.0203158967196941e-03</internalNodes>
          <leafValues>
            2.4330410361289978e-01 -1.0372532904148102e-01</leafValues></_>
        <_>
          <internalNodes>
            0 -1 168 2.0441243425011635e-02</internalNodes>
          <leafValues>
            -1.4108775556087494e-01 1.9344858825206757e-01</leafValues></_>
        <_>
          <internalNodes>
            0 -1 172 7.8731272369623184e-03</internalNodes>
          <leafValues>
            -5.7861953973770142e-01 4.5813146978616714e-02</leafValues></_>
        <_>
          <internalNodes>
            0 -1 5 1.8306889105588198e-03</internalNodes>
          <leafValues>
            -6.2980461120605469e-01 3.2206248492002487e-02</leafValues></_>
        <_>
          <internalNodes>
            0 -1 141 4.1399160400032997e-03</internalNodes>
          <leafValues>
            -5.2285015583038330e-01 4.1091818362474442e-02</leafValues></_>
        <_>
          <internalNodes>
            0 -1 24 9.6089271828532219e-03</internalNodes>
          <leafValues>
            1.8054346740245819e-01 -1.4348965883255005e-01</leafValues></_>
        <_>
          <internalNodes>
            0 -1 257 2.8079356998205185e-02</internalNodes>
          <leafValues>
            1.1126162111759186e-01 -2.4309507012367249e-01</leafValues></_>
        <_>
          <internalNodes>
            0 -1 222 6.6539570689201355e-03</internalNodes>
          <leafValues>
            1.4992389082908630e-01 -1.6923017799854279e-01</leafValues></_>
        <_>
          <internalNodes>
            0 -1 1 8.8638201355934143e-02</internalNodes>
          <leafValues>
            3.5345163196325302e-02 -6.8485182523727417e-01</leafValues></_>
        <_>
          <internalNodes>
            0 -1 61 3.5175569355487823e-02</internalNodes>
          <leafValues>
            -1.7695178091526031e-01 1.3672511279582977e-01</leafValues></_>
        <_>
          <internalNodes>
            0 -1 88 1.4905482530593872e-02</internalNodes>
          <leafValues>
            1.3452066481113434e-01 -1.9349740445613861e-01</leafValues></_>
        <_>
          <internalNodes>
            0 -1 3 7.6251231133937836e-02</internalNodes>
          <leafValues>
            2.6644580066204071e-02 -9.4448304176330566e-01</leafValues></_>
        <_>
          <internalNodes>
            0 -1 181 5.5349193513393402e-02</internalNodes>
          <leafValues>
            2.5062594562768936e-02 -7.2093015909194946e-01</leafValues></_>
        <_>
          <internalNodes>
            0 -1 4 5.5250167846679688e-02</internalNodes>
          <leafValues>
            4.3938465416431427e-02 -4.8600581288337708e-01</leafValues></_>
        <_>
          <internalNodes>
            0 -1 103 1.1743458919227123e-02</internalNodes>
          <leafValues>
            -3.1837934255599976e-01 7.5772844254970551e-02</leafValues></_>
        <_>
          <internalNodes>
            0 -1 109 1.5036218799650669e-02</internalNodes>
          <leafValues>
            -6.3539397716522217e-01 3.4293625503778458e-02</leafValues></_>
        <_>
          <internalNodes>
            0 -1 236 3.8346625864505768e-02</internalNodes>
          <leafValues>
            9.3605525791645050e-02 -2.5494483113288879e-01</leafValues></_>
        <_>
          <internalNodes>
            0 -1 56 7.8706935048103333e-02</internalNodes>
          <leafValues>
            -8.1573419272899628e-02 2.8114560246467590e-01</leafValues></_>
        <_>
          <internalNodes>
            0 -1 134 1.7687339335680008e-02</internalNodes>
          <leafValues>
            -1.5805961191654205e-01 1.6182193160057068e-01</leafValues></_>
        <_>
          <internalNodes>
            0 -1 16 2.3824246600270271e-03</internalNodes>
          <leafValues>
            2.9049935936927795e-01 -8.8514283299446106e-02</leafValues></_>
        <_>
          <internalNodes>
            0 -1 177 3.1732801347970963e-02</internalNodes>
          <leafValues>
            4.7075793147087097e-02 -5.5074357986450195e-01</leafValues></_>
        <_>
          <internalNodes>
            0 -1 101 3.1212396919727325e-02</internalNodes>
          <leafValues>
            -1.7876224219799042e-01 1.3429234921932220e-01</leafValues></_>
        <_>
          <internalNodes>
            0 -1 39 1.2205542996525764e-02</internalNodes>
          <leafValues>
            -1.8856315314769745e-01 1.2822520732879639e-01</leafValues></_>
        <_>
          <internalNodes>
            0 -1 178 3.3534936606884003e-02</internalNodes>
          <leafValues>
            -2.0505660772323608e-01 1.2639309465885162e-01</leafValues></_>
        <_>
          <internalNodes>
            0 -1 110 7.7321501448750496e-03</internalNodes>
          <leafValues>
            -5.3566485643386841e-01 4.1978556662797928e-02</leafValues></_>
        <_>
          <internalNodes>
            0 -1 284 7.5554498471319675e-03</internalNodes>
          <leafValues>
            -7.8238731622695923e-01 2.2701632231473923e-02</leafValues></_>
        <_>
          <internalNodes>
            0 -1 119 4.3049454689025879e-02</internalNodes>
          <leafValues>
            1.2549729645252228e-01 -1.7869266867637634e-01</leafValues></_>
        <_>
          <internalNodes>
            0 -1 229 1.8329536542296410e-02</internalNodes>
          <leafValues>
            1.8217357993125916e-01 -1.4098255336284637e-01</leafValues></_>
        <_>
          <internalNodes>
            0 -1 55 5.0758540630340576e-02</internalNodes>
          <leafValues>
            -1.3339988887310028e-01 1.6398727893829346e-01</leafValues></_></weakClassifiers></_>
    <!-- stage 7 -->
    <_>
      <maxWeakCount>86</maxWeakCount>
      <stageThreshold>-3.2263565063476563e-01</stageThreshold>
      <weakClassifiers>
        <_>
          <internalNodes>
            0 -1 192 2.4706268683075905e-02</internalNodes>
          <leafValues>
            5.9483116865158081e-01 -1.3927577063441277e-02</leafValues></_>
        <_>
          <internalNodes>
            0 -1 195 2.9638858512043953e-02</internalNodes>
          <leafValues>
            -3.4615084528923035e-01 2.0707510411739349e-01</leafValues></_>
        <_>
          <internalNodes>
            0 -1 200 8.8688023388385773e-02</internalNodes>
          <leafValues>
            -2.3492267727851868e-01 2.5912681221961975e-01</leafValues></_>
        <_>
          <internalNodes>
            0 -1 204 1.5034484677016735e-02</internalNodes>
          <leafValues>
            1.4128781855106354e-01 -3.9788815379142761e-01</leafValues></_>
        <_>
          <internalNodes>
            0 -1 262 2.0836982876062393e-02</internalNodes>
          <leafValues>
            1.5708601474761963e-01 -2.9769396781921387e-01</leafValues></_>
        <_>
          <internalNodes>
            0 -1 142 2.6458106935024261e-02</internalNodes>
          <leafValues>
            -3.8103026151657104e-01 1.1543463170528412e-01</leafValues></_>
        <_>
          <internalNodes>
            0 -1 174 1.5938259661197662e-02</internalNodes>
          <leafValues>
            -2.8381183743476868e-01 1.4335821568965912e-01</leafValues></_>
        <_>
          <internalNodes>
            0 -1 13 8.2466736435890198e-02</internalNodes>
          <leafValues>
            -1.2743243575096130e-01 5.0425142049789429e-01</leafValues></_>
        <_>
          <internalNodes>
            0 -1 25 9.4646513462066650e-03</internalNodes>
          <leafValues>
            1.9337399303913116e-01 -2.4582411348819733e-01</leafValues></_>
        <_>
          <internalNodes>
            0 -1 86 4.9422711133956909e-02</internalNodes>
          <leafValues>
            -2.7239575982093811e-01 1.3058343529701233e-01</leafValues></_>
        <_>
          <internalNodes>
            0 -1 62 1.0060751438140869e-01</internalNodes>
          <leafValues>
            -4.2774543166160583e-02 6.8364143371582031e-01</leafValues></_>
        <_>
          <internalNodes>
            0 -1 9 5.0391592085361481e-02</internalNodes>
          <leafValues>
            -6.5109170973300934e-02 5.7949250936508179e-01</leafValues></_>
        <_>
          <internalNodes>
            0 -1 47 3.7876643240451813e-02</internalNodes>
          <leafValues>
            -3.3392772078514099e-01 1.2412614375352859e-01</leafValues></_>
        <_>
          <internalNodes>
            0 -1 251 3.2684154808521271e-02</internalNodes>
          <leafValues>
            6.0877267271280289e-02 -5.3094130754470825e-01</leafValues></_>
        <_>
          <internalNodes>
            0 -1 169 2.4415120482444763e-02</internalNodes>
          <leafValues>
            -3.0533644556999207e-01 1.2104922533035278e-01</leafValues></_>
        <_>
          <internalNodes>
            0 -1 255 3.7764288485050201e-02</internalNodes>
          <leafValues>
            7.5687997043132782e-02 -5.4438596963882446e-01</leafValues></_>
        <_>
          <internalNodes>
            0 -1 6 4.0990114212036133e-03</internalNodes>
          <leafValues>
            2.4423670768737793e-01 -1.8235534429550171e-01</leafValues></_>
        <_>
          <internalNodes>
            0 -1 198 1.5205930918455124e-02</internalNodes>
          <leafValues>
            -1.2713004648685455e-01 3.4951436519622803e-01</leafValues></_>
        <_>
          <internalNodes>
            0 -1 230 1.4296476729214191e-03</internalNodes>
          <leafValues>
            -8.1680101156234741e-01 5.3718391805887222e-02</leafValues></_>
        <_>
          <internalNodes>
            0 -1 120 1.2347495183348656e-02</internalNodes>
          <leafValues>
            -4.2635393142700195e-01 6.5883807837963104e-02</leafValues></_>
        <_>
          <internalNodes>
            0 -1 128 7.4318302795290947e-03</internalNodes>
          <leafValues>
            -3.5119310021400452e-01 8.5812665522098541e-02</leafValues></_>
        <_>
          <internalNodes>
            0 -1 68 1.2526553124189377e-02</internalNodes>
          <leafValues>
            1.3803499937057495e-01 -2.3350226879119873e-01</leafValues></_>
        <_>
          <internalNodes>
            0 -1 185 1.1167977750301361e-01</internalNodes>
          <leafValues>
            4.8426195979118347e-02 -5.9589916467666626e-01</leafValues></_>
        <_>
          <internalNodes>
            0 -1 125 2.6188556104898453e-02</internalNodes>
          <leafValues>
            -1.3418518006801605e-01 2.2861829400062561e-01</leafValues></_>
        <_>
          <internalNodes>
            0 -1 101 1.6263661906123161e-02</internalNodes>
          <leafValues>
            -3.8084810972213745e-01 1.0573250800371170e-01</leafValues></_>
        <_>
          <internalNodes>
            0 -1 73 1.2269355356693268e-02</internalNodes>
          <leafValues>
            -8.2619082927703857e-01 3.1594626605510712e-02</leafValues></_>
        <_>
          <internalNodes>
            0 -1 40 1.9592214375734329e-03</internalNodes>
          <leafValues>
            2.9609888792037964e-01 -1.0192248225212097e-01</leafValues></_>
        <_>
          <internalNodes>
            0 -1 146 3.0770553275942802e-03</internalNodes>
          <leafValues>
            -6.0435646772384644e-01 5.3161077201366425e-02</leafValues></_>
        <_>
          <internalNodes>
            0 -1 231 2.0199550315737724e-02</internalNodes>
          <leafValues>
            -9.1522224247455597e-02 3.3414816856384277e-01</leafValues></_>
        <_>
          <internalNodes>
            0 -1 250 8.2435399293899536e-02</internalNodes>
          <leafValues>
            4.2595263570547104e-02 -7.7555137872695923e-01</leafValues></_>
        <_>
          <internalNodes>
            0 -1 209 3.0218675732612610e-02</internalNodes>
          <leafValues>
            5.5972464382648468e-02 -4.4813457131385803e-01</leafValues></_>
        <_>
          <internalNodes>
            0 -1 202 4.3576866388320923e-02</internalNodes>
          <leafValues>
            4.4517528265714645e-02 -6.1124002933502197e-01</leafValues></_>
        <_>
          <internalNodes>
            0 -1 253 3.2995343208312988e-02</internalNodes>
          <leafValues>
            4.1749082505702972e-02 -6.2403869628906250e-01</leafValues></_>
        <_>
          <internalNodes>
            0 -1 97 2.9929338488727808e-03</internalNodes>
          <leafValues>
            3.5374781489372253e-01 -8.4560245275497437e-02</leafValues></_>
        <_>
          <internalNodes>
            0 -1 108 1.7021453008055687e-02</internalNodes>
          <leafValues>
            -3.9953979849815369e-01 7.2970628738403320e-02</leafValues></_>
        <_>
          <internalNodes>
            0 -1 122 2.4018092080950737e-03</internalNodes>
          <leafValues>
            3.3497059345245361e-01 -8.8520847260951996e-02</leafValues></_>
        <_>
          <internalNodes>
            0 -1 130 4.7943294048309326e-02</internalNodes>
          <leafValues>
            7.7882990241050720e-02 -4.1801038384437561e-01</leafValues></_>
        <_>
          <internalNodes>
            0 -1 159 3.9107955992221832e-02</internalNodes>
          <leafValues>
            -2.3131597042083740e-01 1.3385669887065887e-01</leafValues></_>
        <_>
          <internalNodes>
            0 -1 173 3.2490037381649017e-02</internalNodes>
          <leafValues>
            6.9122165441513062e-02 -4.5275473594665527e-01</leafValues></_>
        <_>
          <internalNodes>
            0 -1 138 1.3019314035773277e-02</internalNodes>
          <leafValues>
            -1.4429938793182373e-01 2.1206767857074738e-01</leafValues></_>
        <_>
          <internalNodes>
            0 -1 117 2.1229593083262444e-02</internalNodes>
          <leafValues>
            8.9881725609302521e-02 -4.2752823233604431e-01</leafValues></_>
        <_>
          <internalNodes>
            0 -1 85 3.8984338752925396e-03</internalNodes>
          <leafValues>
            -5.1953321695327759e-01 5.8905977755784988e-02</leafValues></_>
        <_>
          <internalNodes>
            0 -1 132 5.6191593408584595e-02</internalNodes>
          <leafValues>
            4.2156651616096497e-02 -7.1245586872100830e-01</leafValues></_>
        <_>
          <internalNodes>
            0 -1 154 3.4588955342769623e-02</internalNodes>
          <leafValues>
            8.0344684422016144e-02 -3.3300608396530151e-01</leafValues></_>
        <_>
          <internalNodes>
            0 -1 263 4.5923817902803421e-02</internalNodes>
          <leafValues>
            -1.1153782904148102e-01 2.6014623045921326e-01</leafValues></_>
        <_>
          <internalNodes>
            0 -1 155 1.0254836082458496e-01</internalNodes>
          <leafValues>
            4.8111446201801300e-02 -6.5167552232742310e-01</leafValues></_>
        <_>
          <internalNodes>
            0 -1 129 1.1148350313305855e-02</internalNodes>
          <leafValues>
            -4.7960433363914490e-01 4.9222715198993683e-02</leafValues></_>
        <_>
          <internalNodes>
            0 -1 267 2.1778685972094536e-02</internalNodes>
          <leafValues>
            -3.4858182072639465e-01 8.7671883404254913e-02</leafValues></_>
        <_>
          <internalNodes>
            0 -1 242 6.6816091537475586e-02</internalNodes>
          <leafValues>
            -4.5418120920658112e-02 7.8361803293228149e-01</leafValues></_>
        <_>
          <internalNodes>
            0 -1 158 3.8934648036956787e-02</internalNodes>
          <leafValues>
            1.0375716537237167e-01 -3.1123447418212891e-01</leafValues></_>
        <_>
          <internalNodes>
            0 -1 194 2.8136810287833214e-02</internalNodes>
          <leafValues>
            -4.5227608084678650e-01 6.2846966087818146e-02</leafValues></_>
        <_>
          <internalNodes>
            0 -1 224 3.2905701547861099e-02</internalNodes>
          <leafValues>
            3.6506009101867676e-01 -8.8540799915790558e-02</leafValues></_>
        <_>
          <internalNodes>
            0 -1 15 9.9816601723432541e-03</internalNodes>
          <leafValues>
            -2.3647455871105194e-01 1.2577791512012482e-01</leafValues></_>
        <_>
          <internalNodes>
            0 -1 30 3.5847291350364685e-02</internalNodes>
          <leafValues>
            -1.7102117836475372e-01 1.7103508114814758e-01</leafValues></_>
        <_>
          <internalNodes>
            0 -1 163 2.1519907750189304e-03</internalNodes>
          <leafValues>
            6.8574249744415283e-01 -4.3061066418886185e-02</leafValues></_>
        <_>
          <internalNodes>
            0 -1 143 4.4811205589212477e-04</internalNodes>
          <leafValues>
            4.0488114953041077e-01 -6.0339529067277908e-02</leafValues></_>
        <_>
          <internalNodes>
            0 -1 165 3.4777531400322914e-03</internalNodes>
          <leafValues>
            -8.4851253032684326e-01 3.6035094410181046e-02</leafValues></_>
        <_>
          <internalNodes>
            0 -1 46 1.8641803413629532e-02</internalNodes>
          <leafValues>
            -1.3688679039478302e-01 2.0302969217300415e-01</leafValues></_>
        <_>
          <internalNodes>
            0 -1 52 6.6827379167079926e-02</internalNodes>
          <leafValues>
            -1.1506700515747070e-01 2.5936838984489441e-01</leafValues></_>
        <_>
          <internalNodes>
            0 -1 214 5.4054968059062958e-03</internalNodes>
          <leafValues>
            -4.2510083317756653e-01 7.0462450385093689e-02</leafValues></_>
        <_>
          <internalNodes>
            0 -1 67 9.0618862304836512e-04</internalNodes>
          <leafValues>
            3.4978950023651123e-01 -9.2223905026912689e-02</leafValues></_>
        <_>
          <internalNodes>
            0 -1 238 4.2644448578357697e-02</internalNodes>
          <leafValues>
            7.4258215725421906e-02 -4.7379231452941895e-01</leafValues></_>
        <_>
          <internalNodes>
            0 -1 59 1.6062982380390167e-02</internalNodes>
          <leafValues>
            1.7141680419445038e-01 -1.5005311369895935e-01</leafValues></_>
        <_>
          <internalNodes>
            0 -1 161 6.0250516980886459e-03</internalNodes>
          <leafValues>
            -3.6331647634506226e-01 7.9455479979515076e-02</leafValues></_>
        <_>
          <internalNodes>
            0 -1 31 1.6794756054878235e-02</internalNodes>
          <leafValues>
            1.3391093909740448e-01 -2.0077201724052429e-01</leafValues></_>
        <_>
          <internalNodes>
            0 -1 32 9.8074801266193390e-02</internalNodes>
          <leafValues>
            -5.0997495651245117e-02 5.3059846162796021e-01</leafValues></_>
        <_>
          <internalNodes>
            0 -1 166 3.0635654926300049e-02</internalNodes>
          <leafValues>
            -3.8060864806175232e-01 7.8593835234642029e-02</leafValues></_>
        <_>
          <internalNodes>
            0 -1 247 1.6939120367169380e-02</internalNodes>
          <leafValues>
            -1.2715394794940948e-01 1.9996917247772217e-01</leafValues></_>
        <_>
          <internalNodes>
            0 -1 246 8.1262756139039993e-03</internalNodes>
          <leafValues>
            4.9226507544517517e-01 -5.5078160017728806e-02</leafValues></_>
        <_>
          <internalNodes>
            0 -1 14 1.2247891863808036e-03</internalNodes>
          <leafValues>
            4.6790316700935364e-01 -5.2565440535545349e-02</leafValues></_>
        <_>
          <internalNodes>
            0 -1 114 3.2170198857784271e-02</internalNodes>
          <leafValues>
            3.0980158597230911e-02 -9.1925644874572754e-01</leafValues></_>
        <_>
          <internalNodes>
            0 -1 191 9.7587592899799347e-03</internalNodes>
          <leafValues>
            -8.5676807165145874e-01 2.0915038883686066e-02</leafValues></_>
        <_>
          <internalNodes>
            0 -1 151 2.6632755994796753e-02</internalNodes>
          <leafValues>
            -1.2000346928834915e-01 2.2370214760303497e-01</leafValues></_>
        <_>
          <internalNodes>
            0 -1 152 4.6765193343162537e-02</internalNodes>
          <leafValues>
            6.9049537181854248e-02 -4.6019724011421204e-01</leafValues></_>
        <_>
          <internalNodes>
            0 -1 248 4.7408111393451691e-02</internalNodes>
          <leafValues>
            3.4012768417596817e-02 -6.7197674512863159e-01</leafValues></_>
        <_>
          <internalNodes>
            0 -1 26 9.1364812105894089e-03</internalNodes>
          <leafValues>
            1.3706788420677185e-01 -1.7781223356723785e-01</leafValues></_>
        <_>
          <internalNodes>
            0 -1 95 4.7428240068256855e-03</internalNodes>
          <leafValues>
            -2.1277220547199249e-01 1.2694375216960907e-01</leafValues></_>
        <_>
          <internalNodes>
            0 -1 60 5.3069431334733963e-02</internalNodes>
          <leafValues>
            -1.0240862518548965e-01 2.7622586488723755e-01</leafValues></_>
        <_>
          <internalNodes>
            0 -1 147 1.2872787192463875e-02</internalNodes>
          <leafValues>
            2.4329926073551178e-01 -1.0592533648014069e-01</leafValues></_>
        <_>
          <internalNodes>
            0 -1 258 1.3774335384368896e-02</internalNodes>
          <leafValues>
            -5.8203417062759399e-01 5.4806515574455261e-02</leafValues></_>
        <_>
          <internalNodes>
            0 -1 115 4.7597684897482395e-03</internalNodes>
          <leafValues>
            -3.3457446098327637e-01 7.7841229736804962e-02</leafValues></_>
        <_>
          <internalNodes>
            0 -1 136 2.1456792950630188e-02</internalNodes>
          <leafValues>
            1.6777059435844421e-01 -1.7245690524578094e-01</leafValues></_>
        <_>
          <internalNodes>
            0 -1 72 5.3620368242263794e-02</internalNodes>
          <leafValues>
            -3.0073779821395874e-01 9.4943270087242126e-02</leafValues></_>
        <_>
          <internalNodes>
            0 -1 127 6.2754422426223755e-02</internalNodes>
          <leafValues>
            4.4034734368324280e-02 -6.0754346847534180e-01</leafValues></_>
        <_>
          <internalNodes>
            0 -1 282 1.5897933393716812e-02</internalNodes>
          <leafValues>
            -5.1651376485824585e-01 4.8724241554737091e-02</leafValues></_>
        <_>
          <internalNodes>
            0 -1 70 2.4375915527343750e-02</internalNodes>
          <leafValues>
            1.1796556413173676e-01 -2.2961169481277466e-01</leafValues></_></weakClassifiers></_></stages>
  <features>
    <_>
      <rect>
        0 0 8 8 3</rect></_>
    <_>
      <rect>
        0 0 8 8 4</rect></_>
    <_>
      <rect>
        0 0 8 8 11</rect></_>
    <_>
      <rect>
        0 0 8 8 34</rect></_>
    <_>
      <rect>
        0 4 8 8 1</rect></_>
    <_>
      <rect>
        0 4 8 8 3</rect></_>
    <_>
      <rect>
        0 4 8 8 9</rect></_>
    <_>
      <rect>
        0 4 8 8 17</rect></_>
    <_>
      <rect>
        0 4 8 8 24</rect></_>
    <_>
      <rect>
        0 4 8 8 33</rect></_>
    <_>
      <rect>
        0 8 8 8 1</rect></_>
    <_>
      <rect>
        0 8 8 8 16</rect></_>
    <_>
      <rect>
        0 8 8 8 17</rect></_>
    <_>
      <rect>
        0 8 8 8 21</rect></_>
    <_>
      <rect>
        0 8 8 8 23</rect></_>
    <_>
      <rect>
        0 8 8 8 32</rect></_>
    <_>
      <rect>
        0 12 8 8 0</rect></_>
    <_>
      <rect>
        0 12 8 8 7</rect></_>
    <_>
      <rect>
        0 12 8 8 8</rect></_>
    <_>
      <rect>
        0 16 8 8 11</rect></_>
    <_>
      <rect>
        0 16 8 8 17</rect></_>
    <_>
      <rect>
        0 16 8 8 18</rect></_>
    <_>
      <rect>
        0 16 8 8 25</rect></_>
    <_>
      <rect>
        0 20 8 8 24</rect></_>
    <_>
      <rect>
        0 20 8 8 31</rect></_>
    <_>
      <rect>
        0 20 8 8 34</rect></_>
    <_>
      <rect>
        0 20 8 8 35</rect></_>
    <_>
      <rect>
        0 24 8 8 0</rect></_>
    <_>
      <rect>
        0 24 8 8 10</rect></_>
    <_>
      <rect>
        0 24 8 8 18</rect></_>
    <_>
      <rect>
        0 24 8 8 19</rect></_>
    <_>
      <rect>
        0 24 8 8 22</rect></_>
    <_>
      <rect>
        0 24 8 8 24</rect></_>
    <_>
      <rect>
        0 24 8 8 26</rect></_>
    <_>
      <rect>
        4 0 8 8 0</rect></_>
    <_>
      <rect>
        4 0 8 8 33</rect></_>
    <_>
      <rect>
        4 4 8 8 12</rect></_>
    <_>
      <rect>
        4 4 8 8 20</rect></_>
    <_>
      <rect>
        4 4 8 8 34</rect></_>
    <_>
      <rect>
        4 4 8 8 35</rect></_>
    <_>
      <rect>
        4 8 8 8 5</rect></_>
    <_>
      <rect>
        4 8 8 8 8</rect></_>
    <_>
      <rect>
        4 8 8 8 32</rect></_>
    <_>
      <rect>
        4 12 8 8 8</rect></_>
    <_>
      <rect>
        4 12 8 8 16</rect></_>
    <_>
      <rect>
        4 16 8 8 1</rect></_>
    <_>
      <rect>
        4 16 8 8 7</rect></_>
    <_>
      <rect>
        4 16 8 8 10</rect></_>
    <_>
      <rect>
        4 16 8 8 11</rect></_>
    <_>
      <rect>
        4 16 8 8 12</rect></_>
    <_>
      <rect>
        4 16 8 8 15</rect></_>
    <_>
      <rect>
        4 16 8 8 22</rect></_>
    <_>
      <rect>
        4 20 8 8 1</rect></_>
    <_>
      <rect>
        4 20 8 8 7</rect></_>
    <_>
      <rect>
        4 20 8 8 8</rect></_>
    <_>
      <rect>
        4 20 8 8 10</rect></_>
    <_>
      <rect>
        4 20 8 8 11</rect></_>
    <_>
      <rect>
        4 20 8 8 12</rect></_>
    <_>
      <rect>
        4 20 8 8 14</rect></_>
    <_>
      <rect>
        4 24 8 8 2</rect></_>
    <_>
      <rect>
        4 24 8 8 18</rect></_>
    <_>
      <rect>
        4 24 8 8 19</rect></_>
    <_>
      <rect>
        4 24 8 8 24</rect></_>
    <_>
      <rect>
        4 24 8 8 29</rect></_>
    <_>
      <rect>
        8 0 8 8 6</rect></_>
    <_>
      <rect>
        8 0 8 8 9</rect></_>
    <_>
      <rect>
        8 0 8 8 28</rect></_>
    <_>
      <rect>
        8 4 8 8 0</rect></_>
    <_>
      <rect>
        8 4 8 8 14</rect></_>
    <_>
      <rect>
        8 4 8 8 28</rect></_>
    <_>
      <rect>
        8 4 8 8 31</rect></_>
    <_>
      <rect>
        8 8 8 8 8</rect></_>
    <_>
      <rect>
        8 12 8 8 10</rect></_>
    <_>
      <rect>
        8 12 8 8 28</rect></_>
    <_>
      <rect>
        8 12 8 8 35</rect></_>
    <_>
      <rect>
        8 16 8 8 3</rect></_>
    <_>
      <rect>
        8 16 8 8 6</rect></_>
    <_>
      <rect>
        8 16 8 8 11</rect></_>
    <_>
      <rect>
        8 16 8 8 17</rect></_>
    <_>
      <rect>
        8 16 8 8 19</rect></_>
    <_>
      <rect>
        8 16 8 8 26</rect></_>
    <_>
      <rect>
        8 16 8 8 28</rect></_>
    <_>
      <rect>
        8 16 8 8 32</rect></_>
    <_>
      <rect>
        8 20 8 8 5</rect></_>
    <_>
      <rect>
        8 20 8 8 6</rect></_>
    <_>
      <rect>
        8 20 8 8 7</rect></_>
    <_>
      <rect>
        8 20 8 8 11</rect></_>
    <_>
      <rect>
        8 20 8 8 14</rect></_>
    <_>
      <rect>
        8 20 8 8 18</rect></_>
    <_>
      <rect>
        8 20 8 8 21</rect></_>
    <_>
      <rect>
        8 20 8 8 22</rect></_>
    <_>
      <rect>
        8 20 8 8 25</rect></_>
    <_>
      <rect>
        8 20 8 8 26</rect></_>
    <_>
      <rect>
        8 20 8 8 28</rect></_>
    <_>
      <rect>
        8 24 8 8 19</rect></_>
    <_>
      <rect>
        8 24 8 8 23</rect></_>
    <_>
      <rect>
        8 24 8 8 29</rect></_>
    <_>
      <rect>
        8 24 8 8 35</rect></_>
    <_>
      <rect>
        12 0 8 8 11</rect></_>
    <_>
      <rect>
        12 0 8 8 12</rect></_>
    <_>
      <rect>
        12 4 8 8 0</rect></_>
    <_>
      <rect>
        12 4 8 8 9</rect></_>
    <_>
      <rect>
        12 4 8 8 16</rect></_>
    <_>
      <rect>
        12 4 8 8 17</rect></_>
    <_>
      <rect>
        12 4 8 8 32</rect></_>
    <_>
      <rect>
        12 8 8 8 11</rect></_>
    <_>
      <rect>
        12 8 8 8 12</rect></_>
    <_>
      <rect>
        12 12 8 8 26</rect></_>
    <_>
      <rect>
        12 12 8 8 27</rect></_>
    <_>
      <rect>
        12 12 8 8 28</rect></_>
    <_>
      <rect>
        12 16 8 8 3</rect></_>
    <_>
      <rect>
        12 16 8 8 10</rect></_>
    <_>
      <rect>
        12 16 8 8 21</rect></_>
    <_>
      <rect>
        12 16 8 8 22</rect></_>
    <_>
      <rect>
        12 16 8 8 25</rect></_>
    <_>
      <rect>
        12 16 8 8 30</rect></_>
    <_>
      <rect>
        12 20 8 8 9</rect></_>
    <_>
      <rect>
        12 20 8 8 22</rect></_>
    <_>
      <rect>
        12 20 8 8 26</rect></_>
    <_>
      <rect>
        12 24 8 8 1</rect></_>
    <_>
      <rect>
        12 24 8 8 20</rect></_>
    <_>
      <rect>
        12 24 8 8 27</rect></_>
    <_>
      <rect>
        16 0 8 8 8</rect></_>
    <_>
      <rect>
        16 0 8 8 12</rect></_>
    <_>
      <rect>
        16 0 8 8 15</rect></_>
    <_>
      <rect>
        16 0 8 8 30</rect></_>
    <_>
      <rect>
        16 0 8 8 34</rect></_>
    <_>
      <rect>
        16 4 8 8 11</rect></_>
    <_>
      <rect>
        16 4 8 8 16</rect></_>
    <_>
      <rect>
        16 4 8 8 35</rect></_>
    <_>
      <rect>
        16 8 8 8 3</rect></_>
    <_>
      <rect>
        16 12 8 8 1</rect></_>
    <_>
      <rect>
        16 12 8 8 8</rect></_>
    <_>
      <rect>
        16 12 8 8 12</rect></_>
    <_>
      <rect>
        16 12 8 8 16</rect></_>
    <_>
      <rect>
        16 12 8 8 24</rect></_>
    <_>
      <rect>
        16 12 8 8 29</rect></_>
    <_>
      <rect>
        16 12 8 8 32</rect></_>
    <_>
      <rect>
        16 16 8 8 23</rect></_>
    <_>
      <rect>
        16 16 8 8 27</rect></_>
    <_>
      <rect>
        16 16 8 8 33</rect></_>
    <_>
      <rect>
        16 20 8 8 4</rect></_>
    <_>
      <rect>
        16 20 8 8 19</rect></_>
    <_>
      <rect>
        16 20 8 8 33</rect></_>
    <_>
      <rect>
        16 24 8 8 1</rect></_>
    <_>
      <rect>
        16 24 8 8 5</rect></_>
    <_>
      <rect>
        16 24 8 8 8</rect></_>
    <_>
      <rect>
        16 24 8 8 9</rect></_>
    <_>
      <rect>
        16 24 8 8 10</rect></_>
    <_>
      <rect>
        16 24 8 8 27</rect></_>
    <_>
      <rect>
        16 24 8 8 28</rect></_>
    <_>
      <rect>
        16 24 8 8 30</rect></_>
    <_>
      <rect>
        16 24 8 8 31</rect></_>
    <_>
      <rect>
        16 24 8 8 33</rect></_>
    <_>
      <rect>
        0 0 8 16 1</rect></_>
    <_>
      <rect>
        0 0 8 16 2</rect></_>
    <_>
      <rect>
        0 0 8 16 9</rect></_>
    <_>
      <rect>
        0 0 8 16 12</rect></_>
    <_>
      <rect>
        0 0 8 16 20</rect></_>
    <_>
      <rect>
        0 4 8 16 12</rect></_>
    <_>
      <rect>
        0 4 8 16 18</rect></_>
    <_>
      <rect>
        0 4 8 16 21</rect></_>
    <_>
      <rect>
        0 4 8 16 26</rect></_>
    <_>
      <rect>
        0 8 8 16 0</rect></_>
    <_>
      <rect>
        0 8 8 16 2</rect></_>
    <_>
      <rect>
        0 8 8 16 3</rect></_>
    <_>
      <rect>
        0 8 8 16 11</rect></_>
    <_>
      <rect>
        0 8 8 16 12</rect></_>
    <_>
      <rect>
        0 8 8 16 14</rect></_>
    <_>
      <rect>
        0 8 8 16 18</rect></_>
    <_>
      <rect>
        0 8 8 16 20</rect></_>
    <_>
      <rect>
        4 0 8 16 3</rect></_>
    <_>
      <rect>
        4 0 8 16 18</rect></_>
    <_>
      <rect>
        4 0 8 16 22</rect></_>
    <_>
      <rect>
        4 0 8 16 26</rect></_>
    <_>
      <rect>
        4 0 8 16 35</rect></_>
    <_>
      <rect>
        4 4 8 16 4</rect></_>
    <_>
      <rect>
        4 4 8 16 22</rect></_>
    <_>
      <rect>
        4 8 8 16 2</rect></_>
    <_>
      <rect>
        4 8 8 16 12</rect></_>
    <_>
      <rect>
        4 8 8 16 19</rect></_>
    <_>
      <rect>
        4 8 8 16 20</rect></_>
    <_>
      <rect>
        4 8 8 16 21</rect></_>
    <_>
      <rect>
        4 8 8 16 22</rect></_>
    <_>
      <rect>
        4 8 8 16 27</rect></_>
    <_>
      <rect>
        4 8 8 16 28</rect></_>
    <_>
      <rect>
        8 0 8 16 28</rect></_>
    <_>
      <rect>
        8 4 8 16 27</rect></_>
    <_>
      <rect>
        8 4 8 16 28</rect></_>
    <_>
      <rect>
        8 8 8 16 3</rect></_>
    <_>
      <rect>
        8 8 8 16 10</rect></_>
    <_>
      <rect>
        8 8 8 16 28</rect></_>
    <_>
      <rect>
        12 0 8 16 0</rect></_>
    <_>
      <rect>
        12 0 8 16 1</rect></_>
    <_>
      <rect>
        12 0 8 16 10</rect></_>
    <_>
      <rect>
        12 0 8 16 27</rect></_>
    <_>
      <rect>
        12 0 8 16 28</rect></_>
    <_>
      <rect>
        12 0 8 16 35</rect></_>
    <_>
      <rect>
        12 4 8 16 7</rect></_>
    <_>
      <rect>
        12 4 8 16 9</rect></_>
    <_>
      <rect>
        12 4 8 16 10</rect></_>
    <_>
      <rect>
        12 4 8 16 16</rect></_>
    <_>
      <rect>
        12 4 8 16 18</rect></_>
    <_>
      <rect>
        12 4 8 16 25</rect></_>
    <_>
      <rect>
        12 4 8 16 26</rect></_>
    <_>
      <rect>
        12 4 8 16 35</rect></_>
    <_>
      <rect>
        12 8 8 16 2</rect></_>
    <_>
      <rect>
        12 8 8 16 9</rect></_>
    <_>
      <rect>
        12 8 8 16 10</rect></_>
    <_>
      <rect>
        12 8 8 16 13</rect></_>
    <_>
      <rect>
        12 8 8 16 18</rect></_>
    <_>
      <rect>
        12 8 8 16 26</rect></_>
    <_>
      <rect>
        16 0 8 16 8</rect></_>
    <_>
      <rect>
        16 0 8 16 12</rect></_>
    <_>
      <rect>
        16 0 8 16 15</rect></_>
    <_>
      <rect>
        16 0 8 16 18</rect></_>
    <_>
      <rect>
        16 0 8 16 23</rect></_>
    <_>
      <rect>
        16 0 8 16 30</rect></_>
    <_>
      <rect>
        16 4 8 16 1</rect></_>
    <_>
      <rect>
        16 4 8 16 17</rect></_>
    <_>
      <rect>
        16 4 8 16 20</rect></_>
    <_>
      <rect>
        16 4 8 16 21</rect></_>
    <_>
      <rect>
        16 4 8 16 32</rect></_>
    <_>
      <rect>
        16 8 8 16 9</rect></_>
    <_>
      <rect>
        16 8 8 16 10</rect></_>
    <_>
      <rect>
        16 8 8 16 12</rect></_>
    <_>
      <rect>
        16 8 8 16 16</rect></_>
    <_>
      <rect>
        16 8 8 16 17</rect></_>
    <_>
      <rect>
        16 8 8 16 20</rect></_>
    <_>
      <rect>
        16 8 8 16 28</rect></_>
    <_>
      <rect>
        0 0 16 8 3</rect></_>
    <_>
      <rect>
        0 0 16 8 6</rect></_>
    <_>
      <rect>
        0 0 16 8 8</rect></_>
    <_>
      <rect>
        0 0 16 8 12</rect></_>
    <_>
      <rect>
        0 0 16 8 14</rect></_>
    <_>
      <rect>
        0 0 16 8 15</rect></_>
    <_>
      <rect>
        0 0 16 8 17</rect></_>
    <_>
      <rect>
        0 0 16 8 29</rect></_>
    <_>
      <rect>
        0 4 16 8 4</rect></_>
    <_>
      <rect>
        0 4 16 8 8</rect></_>
    <_>
      <rect>
        0 4 16 8 10</rect></_>
    <_>
      <rect>
        0 4 16 8 13</rect></_>
    <_>
      <rect>
        0 4 16 8 15</rect></_>
    <_>
      <rect>
        0 4 16 8 17</rect></_>
    <_>
      <rect>
        0 8 16 8 8</rect></_>
    <_>
      <rect>
        0 8 16 8 32</rect></_>
    <_>
      <rect>
        0 12 16 8 1</rect></_>
    <_>
      <rect>
        0 12 16 8 6</rect></_>
    <_>
      <rect>
        0 12 16 8 15</rect></_>
    <_>
      <rect>
        0 16 16 8 1</rect></_>
    <_>
      <rect>
        0 16 16 8 19</rect></_>
    <_>
      <rect>
        0 16 16 8 20</rect></_>
    <_>
      <rect>
        0 16 16 8 27</rect></_>
    <_>
      <rect>
        0 16 16 8 33</rect></_>
    <_>
      <rect>
        0 20 16 8 0</rect></_>
    <_>
      <rect>
        0 20 16 8 26</rect></_>
    <_>
      <rect>
        0 20 16 8 28</rect></_>
    <_>
      <rect>
        0 24 16 8 2</rect></_>
    <_>
      <rect>
        0 24 16 8 9</rect></_>
    <_>
      <rect>
        0 24 16 8 17</rect></_>
    <_>
      <rect>
        0 24 16 8 19</rect></_>
    <_>
      <rect>
        0 24 16 8 24</rect></_>
    <_>
      <rect>
        0 24 16 8 27</rect></_>
    <_>
      <rect>
        0 0 16 16 2</rect></_>
    <_>
      <rect>
        0 0 16 16 3</rect></_>
    <_>
      <rect>
        0 0 16 16 14</rect></_>
    <_>
      <rect>
        0 0 16 16 18</rect></_>
    <_>
      <rect>
        0 0 16 16 19</rect></_>
    <_>
      <rect>
        0 0 16 16 22</rect></_>
    <_>
      <rect>
        0 0 16 16 23</rect></_>
    <_>
      <rect>
        0 0 16 16 24</rect></_>
    <_>
      <rect>
        0 0 16 16 28</rect></_>
    <_>
      <rect>
        0 0 16 16 30</rect></_>
    <_>
      <rect>
        0 4 16 16 3</rect></_>
    <_>
      <rect>
        0 4 16 16 6</rect></_>
    <_>
      <rect>
        0 4 16 16 9</rect></_>
    <_>
      <rect>
        0 4 16 16 13</rect></_>
    <_>
      <rect>
        0 4 16 16 17</rect></_>
    <_>
      <rect>
        0 4 16 16 27</rect></_>
    <_>
      <rect>
        0 4 16 16 29</rect></_>
    <_>
      <rect>
        0 8 16 16 3</rect></_>
    <_>
      <rect>
        0 8 16 16 9</rect></_>
    <_>
      <rect>
        0 8 16 16 12</rect></_>
    <_>
      <rect>
        0 8 16 16 14</rect></_>
    <_>
      <rect>
        0 8 16 16 19</rect></_>
    <_>
      <rect>
        0 8 16 16 21</rect></_>
    <_>
      <rect>
        0 8 16 16 26</rect></_>
    <_>
      <rect>
        0 8 16 16 28</rect></_></features></cascade>
</opencv_storage>
