<?xml version="1.0"?>
<opencv_storage>
<!-- Created using Computer Vision System Toolbox(tm) for MATLAB(R) -->
<!-- Version 8.6.0.267246 (R2015b) -->
<!-- Compatible with OpenCV 2.4 -->
<cascade>
  <stageType>BOOST</stageType>
  <featureType>LBP</featureType>
  <height>38</height>
  <width>32</width>
  <stageParams>
    <boostType>GAB</boostType>
    <minHitRate>9.9500000476837158e-01</minHitRate>
    <maxFalseAlarm>5.0000000745058060e-02</maxFalseAlarm>
    <weightTrimRate>9.4999999999999996e-01</weightTrimRate>
    <maxDepth>1</maxDepth>
    <maxWeakCount>100</maxWeakCount></stageParams>
  <featureParams>
    <maxCatCount>256</maxCatCount>
    <featSize>1</featSize></featureParams>
  <stageNum>7</stageNum>
  <stages>
    <!-- stage 0 -->
    <_>
      <maxWeakCount>9</maxWeakCount>
      <stageThreshold>-2.8951290249824524e-01</stageThreshold>
      <weakClassifiers>
        <_>
          <internalNodes>
            0 -1 27 -136316929 -35925093 -645577893 -50425394 -251422725
            -71662967 -77735185 -83996978</internalNodes>
          <leafValues>
            -8.7664669752120972e-01 4.9226570129394531e-01</leafValues></_>
        <_>
          <internalNodes>
            0 -1 9 -10488833 -115346538 -184053435 -134754142 -242617601
            -348107383 -119800833 1354170414</internalNodes>
          <leafValues>
            -7.7432781457901001e-01 4.8577055335044861e-01</leafValues></_>
        <_>
          <internalNodes>
            0 -1 59 -69206274 -620572269 1074827466 -1599029206
            -100447541 -208436017 -1294865745 -117571889</internalNodes>
          <leafValues>
            -7.1963459253311157e-01 5.4590421915054321e-01</leafValues></_>
        <_>
          <internalNodes>
            0 -1 14 -780085249 352376972 -788227745 -10894947 1078524923
            8945834 -120821145 2147413935</internalNodes>
          <leafValues>
            -6.3703161478042603e-01 5.4208564758300781e-01</leafValues></_>
        <_>
          <internalNodes>
            0 -1 3 -53618962 1595663886 -1740373750 -405814840
            1346901099 137642121 344660142 1374151597</internalNodes>
          <leafValues>
            -6.7183500528335571e-01 5.0673276185989380e-01</leafValues></_>
        <_>
          <internalNodes>
            0 -1 41 -745800706 -1878380416 269774989 -140123414
            -234620753 -116916070 -326639409 -486573321</internalNodes>
          <leafValues>
            -5.8637690544128418e-01 5.6814455986022949e-01</leafValues></_>
        <_>
          <internalNodes>
            0 -1 16 -673186081 -25132149 -1945251382 -1455373462
            -656686641 -128791667 -91632917 -301669618</internalNodes>
          <leafValues>
            -6.8565964698791504e-01 4.8055729269981384e-01</leafValues></_>
        <_>
          <internalNodes>
            0 -1 25 -206073432 1002339966 -17073110 -268959825
            -1057553955 79642110 1285350682 -322984201</internalNodes>
          <leafValues>
            -5.7785862684249878e-01 6.5563851594924927e-01</leafValues></_>
        <_>
          <internalNodes>
            0 -1 76 -203467889 -682376958 -1878982656 -687816378
            -787758966 -1463172990 -788273137 -239447976</internalNodes>
          <leafValues>
            -7.4910634756088257e-01 4.6755310893058777e-01</leafValues></_></weakClassifiers></_>
    <!-- stage 1 -->
    <_>
      <maxWeakCount>11</maxWeakCount>
      <stageThreshold>-9.1513252258300781e-01</stageThreshold>
      <weakClassifiers>
        <_>
          <internalNodes>
            0 -1 11 -141436033 -2633345 -620641969 -544214817
            -1853488225 -41219959 1526957535 263977143</internalNodes>
          <leafValues>
            -7.6864725351333618e-01 2.4684077501296997e-01</leafValues></_>
        <_>
          <internalNodes>
            0 -1 80 1032035761 -1154379567 361305053 1604157821
            -1037918021 -72281976 186366143 1057820840</internalNodes>
          <leafValues>
            -5.9905183315277100e-01 4.6221086382865906e-01</leafValues></_>
        <_>
          <internalNodes>
            0 -1 43 -90512684 154710751 -1994730504 -1090369862
            -478108746 411042012 -610173512 -72308308</internalNodes>
          <leafValues>
            -6.6623657941818237e-01 4.0045526623725891e-01</leafValues></_>
        <_>
          <internalNodes>
            0 -1 64 -698876834 -1848315466 -1333683697 805601830
            -452050944 -258911847 -251166081 -251702714</internalNodes>
          <leafValues>
            -7.1279102563858032e-01 3.6381751298904419e-01</leafValues></_>
        <_>
          <internalNodes>
            0 -1 48 -753667809 -749629005 -1325333231 -543287214
            -116948805 2063772743 1969191835 -320593400</internalNodes>
          <leafValues>
            -7.6346021890640259e-01 3.4055596590042114e-01</leafValues></_>
        <_>
          <internalNodes>
            0 -1 4 -45962178 -1649311235 276924510 -747924154 1358975421
            455280873 847981046 2011922431</internalNodes>
          <leafValues>
            -7.1475678682327271e-01 3.8385471701622009e-01</leafValues></_>
        <_>
          <internalNodes>
            0 -1 38 -439451478 76091996 -2147481336 -1039465966
            -217575414 621051912 -499104894 -1595686161</internalNodes>
          <leafValues>
            -5.2188670635223389e-01 5.1511836051940918e-01</leafValues></_>
        <_>
          <internalNodes>
            0 -1 63 -488759744 -36699901 822088111 -1839562345
            1879056916 1882722579 -1012225144 -1935636328</internalNodes>
          <leafValues>
            -7.2052025794982910e-01 3.7623098492622375e-01</leafValues></_>
        <_>
          <internalNodes>
            0 -1 44 1595906199 -804073202 -2080303425 285413122
            -461339737 -232582733 -904394548 976887063</internalNodes>
          <leafValues>
            -5.4377913475036621e-01 4.7300723195075989e-01</leafValues></_>
        <_>
          <internalNodes>
            0 -1 84 285217004 1937764499 16783627 -2293735 -2122177864
            -1417150208 -1291152439 523846652</internalNodes>
          <leafValues>
            -6.9235658645629883e-01 3.9428627490997314e-01</leafValues></_>
        <_>
          <internalNodes>
            0 -1 70 -246098212 -81956589 -268428979 -1375053429
            -787345398 488640656 46237887 -256511382</internalNodes>
          <leafValues>
            -6.9106280803680420e-01 3.8298055529594421e-01</leafValues></_></weakClassifiers></_>
    <!-- stage 2 -->
    <_>
      <maxWeakCount>13</maxWeakCount>
      <stageThreshold>-2.2136446833610535e-01</stageThreshold>
      <weakClassifiers>
        <_>
          <internalNodes>
            0 -1 61 -136577409 643300039 1344275080 584570121 -246298225
            -239140631 -363892341 -150997041</internalNodes>
          <leafValues>
            -7.3648226261138916e-01 2.2586207091808319e-01</leafValues></_>
        <_>
          <internalNodes>
            0 -1 46 -623202568 12870364 -236940930 -39287024 -711362060
            412892604 -131630081 -72357206</internalNodes>
          <leafValues>
            -7.1136111021041870e-01 2.8073176741600037e-01</leafValues></_>
        <_>
          <internalNodes>
            0 -1 68 -85988614 286585777 -66274084 -53415685 -620613526
            -132021703 -751118129 -114181822</internalNodes>
          <leafValues>
            -6.1228078603744507e-01 3.4705862402915955e-01</leafValues></_>
        <_>
          <internalNodes>
            0 -1 15 -1339555953 1893458190 16859142 -2000091062
            -1460551537 -780124022 -914255669 1884510210</internalNodes>
          <leafValues>
            -5.2351731061935425e-01 4.7732174396514893e-01</leafValues></_>
        <_>
          <internalNodes>
            0 -1 72 721465995 206667778 1426169117 2068681749
            -1064461313 -1181038422 420064159 671097528</internalNodes>
          <leafValues>
            -5.8284157514572144e-01 3.9064136147499084e-01</leafValues></_>
        <_>
          <internalNodes>
            0 -1 10 -317723734 1092006634 269492232 -2129272010
            1095306186 1378387148 -658044630 -1121728985</internalNodes>
          <leafValues>
            -4.9935007095336914e-01 4.8745182156562805e-01</leafValues></_>
        <_>
          <internalNodes>
            0 -1 78 -741277810 269509394 1476472925 304369728 1405435918
            -24131273 -92042321 -144346288</internalNodes>
          <leafValues>
            -7.3359191417694092e-01 3.1010794639587402e-01</leafValues></_>
        <_>
          <internalNodes>
            0 -1 42 -1026028970 599843038 -939510406 -279527091
            1217611681 585214082 1778451314 -243803901</internalNodes>
          <leafValues>
            -6.6746723651885986e-01 3.4975352883338928e-01</leafValues></_>
        <_>
          <internalNodes>
            0 -1 69 -791341736 -53440414 -1899491111 -1878521845
            -125632528 -666885302 -2102550312 -2046264726</internalNodes>
          <leafValues>
            -6.1689054965972900e-01 3.9333093166351318e-01</leafValues></_>
        <_>
          <internalNodes>
            0 -1 29 1066971571 461407130 1086849290 -542269175 814285193
            834535677 -2134660918 -1077986782</internalNodes>
          <leafValues>
            -5.4707390069961548e-01 4.3652218580245972e-01</leafValues></_>
        <_>
          <internalNodes>
            0 -1 12 -101320728 -261193558 562037570 1604522379
            1974005615 295772323 -678727094 1942416333</internalNodes>
          <leafValues>
            -6.0212415456771851e-01 4.0111175179481506e-01</leafValues></_>
        <_>
          <internalNodes>
            0 -1 67 46539363 -2066799720 -1878982516 719292553 553922683
            142772371 -1307985781 -1381041475</internalNodes>
          <leafValues>
            -6.9025146961212158e-01 3.4635722637176514e-01</leafValues></_>
        <_>
          <internalNodes>
            0 -1 17 -129583866 -242380049 1098957324 -962361154
            486564002 940114209 -863819765 1438906975</internalNodes>
          <leafValues>
            -6.1136603355407715e-01 3.9540228247642517e-01</leafValues></_></weakClassifiers></_>
    <!-- stage 3 -->
    <_>
      <maxWeakCount>15</maxWeakCount>
      <stageThreshold>-9.0036821365356445e-01</stageThreshold>
      <weakClassifiers>
        <_>
          <internalNodes>
            0 -1 45 -754533893 -209477241 386105355 -1088765453
            -216162133 -217611685 -1155552625 -84131318</internalNodes>
          <leafValues>
            -7.7878105640411377e-01 7.7777780592441559e-02</leafValues></_>
        <_>
          <internalNodes>
            0 -1 54 -693013635 2031260467 -922443847 -92618340
            -1937035047 -609554247 -1708599048 -1271355168</internalNodes>
          <leafValues>
            -6.1151897907257080e-01 3.1011486053466797e-01</leafValues></_>
        <_>
          <internalNodes>
            0 -1 18 269217737 1544388809 163956125 -10630591 302049202
            447947707 1540256325 -3272138</internalNodes>
          <leafValues>
            -5.3320479393005371e-01 4.0477690100669861e-01</leafValues></_>
        <_>
          <internalNodes>
            0 -1 83 23645 -545140674 454607837 -1644949481 -1299010819
            -1196711802 990380735 521493724</internalNodes>
          <leafValues>
            -5.5925154685974121e-01 3.9304801821708679e-01</leafValues></_>
        <_>
          <internalNodes>
            0 -1 65 -146819397 1090900292 42005512 -92214644 -1560112418
            -1945529719 327845290 -71183835</internalNodes>
          <leafValues>
            -4.8929581046104431e-01 4.2565578222274780e-01</leafValues></_>
        <_>
          <internalNodes>
            0 -1 19 -661062406 822183055 1526827339 -73924279 -125237061
            311738541 13211805 -139885811</internalNodes>
          <leafValues>
            -5.1988065242767334e-01 4.0449035167694092e-01</leafValues></_>
        <_>
          <internalNodes>
            0 -1 20 1690666206 1544913152 285264217 489582922 -802124290
            -1713217270 -1694463930 -100463829</internalNodes>
          <leafValues>
            -5.0396859645843506e-01 4.1220879554748535e-01</leafValues></_>
        <_>
          <internalNodes>
            0 -1 24 1556675716 -1734348766 -268433860 -1745618930
            1379948934 1428299986 -1150653486 564656406</internalNodes>
          <leafValues>
            -5.7494175434112549e-01 3.8315558433532715e-01</leafValues></_>
        <_>
          <internalNodes>
            0 -1 49 -124090283 -1656607595 1342329487 -249424481
            -1870609782 -74686308 -670377188 -233673838</internalNodes>
          <leafValues>
            -5.1733881235122681e-01 4.2753806710243225e-01</leafValues></_>
        <_>
          <internalNodes>
            0 -1 0 -1810064697 1493766171 352651031 1914439956
            -1744655939 -308574549 -1928754677 -1131490520</internalNodes>
          <leafValues>
            -7.1517837047576904e-01 2.9746368527412415e-01</leafValues></_>
        <_>
          <internalNodes>
            0 -1 32 -19942616 -8090454 1099759680 -2016247138 1083060464
            214061127 1229770059 252900211</internalNodes>
          <leafValues>
            -6.8092316389083862e-01 3.1354853510856628e-01</leafValues></_>
        <_>
          <internalNodes>
            0 -1 47 1116422517 47370567 1350633675 -1736693745
            -124470907 -770702968 -658207948 -426067010</internalNodes>
          <leafValues>
            -5.6630510091781616e-01 3.8036531209945679e-01</leafValues></_>
        <_>
          <internalNodes>
            0 -1 6 -652742706 1427947862 605202825 -6454882 411185819
            1552449690 -1207694968 2061831490</internalNodes>
          <leafValues>
            -5.0874477624893188e-01 4.6231374144554138e-01</leafValues></_>
        <_>
          <internalNodes>
            0 -1 56 -19116971 -604158876 -1369526401 -803209634
            -688111634 -1141211265 -1074201636 -920979495</internalNodes>
          <leafValues>
            -4.7135928273200989e-01 4.9438217282295227e-01</leafValues></_>
        <_>
          <internalNodes>
            0 -1 1 1459929339 949043328 1074037058 -1583038268 22917375
            344629450 706845087 1202151938</internalNodes>
          <leafValues>
            -5.1413488388061523e-01 4.4572001695632935e-01</leafValues></_></weakClassifiers></_>
    <!-- stage 4 -->
    <_>
      <maxWeakCount>15</maxWeakCount>
      <stageThreshold>-4.0728890895843506e-01</stageThreshold>
      <weakClassifiers>
        <_>
          <internalNodes>
            0 -1 74 -680034580 890426051 1342341215 -1461522745
            -865638852 2001377666 -666698519 -2110485</internalNodes>
          <leafValues>
            -7.2067040205001831e-01 8.1525802612304688e-02</leafValues></_>
        <_>
          <internalNodes>
            0 -1 51 -150476801 420290833 16845059 -46202621 -1583629697
            -2096426943 -1356606837 -19642162</internalNodes>
          <leafValues>
            -6.6202330589294434e-01 2.1625894308090210e-01</leafValues></_>
        <_>
          <internalNodes>
            0 -1 57 -707135509 -789532297 -997683124 -1917739518
            -1960589389 -1197415184 -1683252759 -1130876365</internalNodes>
          <leafValues>
            -4.7229731082916260e-01 3.7323385477066040e-01</leafValues></_>
        <_>
          <internalNodes>
            0 -1 22 555782332 218206003 2013521037 635536792 288102815
            153576703 1150203796 1036835541</internalNodes>
          <leafValues>
            -7.7716070413589478e-01 2.6018214225769043e-01</leafValues></_>
        <_>
          <internalNodes>
            0 -1 82 21237 857051418 1023415725 1032294865 -268382024
            1806603458 1757475775 1317341281</internalNodes>
          <leafValues>
            -6.3071447610855103e-01 3.0779272317886353e-01</leafValues></_>
        <_>
          <internalNodes>
            0 -1 79 -1294927417 -1123880496 269324507 -830151888
            -778325233 -209080181 -127147349 -287330880</internalNodes>
          <leafValues>
            -5.2983629703521729e-01 3.7894773483276367e-01</leafValues></_>
        <_>
          <internalNodes>
            0 -1 71 1910234876 869609879 838959276 968477834 34097921
            -510615142 -95839607 -811343338</internalNodes>
          <leafValues>
            -4.0745052695274353e-01 4.9172240495681763e-01</leafValues></_>
        <_>
          <internalNodes>
            0 -1 13 -696072506 1028502032 12888834 -271596536 837164467
            2030580249 1040259337 1860438576</internalNodes>
          <leafValues>
            -6.6802227497100830e-01 2.8711104393005371e-01</leafValues></_>
        <_>
          <internalNodes>
            0 -1 62 1324223797 818612640 858837279 1962725694 629349168
            1906835585 -1761378116 -23795044</internalNodes>
          <leafValues>
            -5.6354808807373047e-01 3.3778017759323120e-01</leafValues></_>
        <_>
          <internalNodes>
            0 -1 58 1482569442 255530312 -704411622 551550088 -221700981
            1252563969 -510418559 -980156783</internalNodes>
          <leafValues>
            -6.4115637540817261e-01 3.0478084087371826e-01</leafValues></_>
        <_>
          <internalNodes>
            0 -1 36 -239923126 -1157581752 -779050401 -14055967
            235078563 1930863327 -2012495294 1809521435</internalNodes>
          <leafValues>
            -5.0643426179885864e-01 4.1323429346084595e-01</leafValues></_>
        <_>
          <internalNodes>
            0 -1 81 -247203235 -310090885 -1073692584 -23662409
            -536612677 -1457149845 671873211 -1901934341</internalNodes>
          <leafValues>
            -4.8412775993347168e-01 4.2469099164009094e-01</leafValues></_>
        <_>
          <internalNodes>
            0 -1 21 -176377142 -2044796779 -1878998946 -291313530
            1636480514 480903302 -2146092274 -1218183665</internalNodes>
          <leafValues>
            -4.7201928496360779e-01 4.5533677935600281e-01</leafValues></_>
        <_>
          <internalNodes>
            0 -1 55 -1019084583 -564707071 1082343833 1511149785
            -2105502952 -1294817016 -1417493878 -2093311976</internalNodes>
          <leafValues>
            -5.3602099418640137e-01 4.0472516417503357e-01</leafValues></_>
        <_>
          <internalNodes>
            0 -1 23 -689398082 733662608 -2124545982 959423539 278210989
            301629569 -1256988738 -1123867124</internalNodes>
          <leafValues>
            -4.8177254199981689e-01 4.1690823435783386e-01</leafValues></_></weakClassifiers></_>
    <!-- stage 5 -->
    <_>
      <maxWeakCount>13</maxWeakCount>
      <stageThreshold>3.1539589166641235e-02</stageThreshold>
      <weakClassifiers>
        <_>
          <internalNodes>
            0 -1 75 -532532591 -493837820 37 1813792982 16941502
            -1169250207 884975 -1909416788</internalNodes>
          <leafValues>
            -5.2749490737915039e-01 4.6460980176925659e-01</leafValues></_>
        <_>
          <internalNodes>
            0 -1 7 523718399 487304901 -19009617 -302645252 1606875031
            822493180 -9504865 -75432003</internalNodes>
          <leafValues>
            -4.3891936540603638e-01 4.8186740279197693e-01</leafValues></_>
        <_>
          <internalNodes>
            0 -1 37 -3145734 -286327245 737884674 1172497000 -606683141
            1451229077 -438372432 -1007681778</internalNodes>
          <leafValues>
            -4.1993072628974915e-01 4.9997165799140930e-01</leafValues></_>
        <_>
          <internalNodes>
            0 -1 50 -633615105 -633456899 1874841597 -110346369
            -692260885 -147292161 -1105207315 -300278546</internalNodes>
          <leafValues>
            -3.4939956665039063e-01 6.1370456218719482e-01</leafValues></_>
        <_>
          <internalNodes>
            0 -1 28 -645077820 1236055662 1141735612 311509254
            -465272543 327188618 537139394 -2115779761</internalNodes>
          <leafValues>
            -5.0462943315505981e-01 4.5694085955619812e-01</leafValues></_>
        <_>
          <internalNodes>
            0 -1 39 1627903388 65241347 1148992 254644358 1235271834
            1084262540 822558979 -425210109</internalNodes>
          <leafValues>
            -4.9453011155128479e-01 4.7810700535774231e-01</leafValues></_>
        <_>
          <internalNodes>
            0 -1 73 1367430511 1434456081 -787414838 919130248 58918222
            -1053812704 -2147399537 -25878446</internalNodes>
          <leafValues>
            -6.0773628950119019e-01 3.7933284044265747e-01</leafValues></_>
        <_>
          <internalNodes>
            0 -1 2 -1591193524 -1048259826 84934979 -980875128
            -1073741392 -1969741663 -2147432246 1921415690</internalNodes>
          <leafValues>
            -6.6517549753189087e-01 3.6168497800827026e-01</leafValues></_>
        <_>
          <internalNodes>
            0 -1 52 -164601772 -373268217 1090551834 -175635055
            -1446365021 -1837072253 -645242726 -1291171830</internalNodes>
          <leafValues>
            -5.3167450428009033e-01 4.6299564838409424e-01</leafValues></_>
        <_>
          <internalNodes>
            0 -1 30 -1793340978 1368593472 402657556 -2129166300
            704827546 142643331 164234253 1908887863</internalNodes>
          <leafValues>
            -5.1736700534820557e-01 4.9566474556922913e-01</leafValues></_>
        <_>
          <internalNodes>
            0 -1 77 1900122389 905712016 -1929379571 -183401472
            889205179 -106393440 1233128201 151523480</internalNodes>
          <leafValues>
            -6.0794442892074585e-01 3.8385894894599915e-01</leafValues></_>
        <_>
          <internalNodes>
            0 -1 35 -1726867013 -2004770686 36872 1460225308 11634789
            200573057 -1996390264 -895875928</internalNodes>
          <leafValues>
            -5.5818885564804077e-01 4.8563152551651001e-01</leafValues></_>
        <_>
          <internalNodes>
            0 -1 31 1962845918 -1216417921 -810549377 1878226930
            871257998 -19447969 -1100690307 -213432689</internalNodes>
          <leafValues>
            -4.6264424920082092e-01 6.0083729028701782e-01</leafValues></_></weakClassifiers></_>
    <!-- stage 6 -->
    <_>
      <maxWeakCount>10</maxWeakCount>
      <stageThreshold>2.3819344118237495e-02</stageThreshold>
      <weakClassifiers>
        <_>
          <internalNodes>
            0 -1 60 -65970 287113086 -1157693408 720273390 520089422
            -1476394606 -528482152 955481679</internalNodes>
          <leafValues>
            -4.8888888955116272e-01 7.1960783004760742e-01</leafValues></_>
        <_>
          <internalNodes>
            0 -1 66 691740156 787824383 -1124188434 -2031206849
            -805404963 460192767 -16963587 -222562825</internalNodes>
          <leafValues>
            -4.5971375703811646e-01 5.7239949703216553e-01</leafValues></_>
        <_>
          <internalNodes>
            0 -1 5 -1056954136 -784203470 822182149 1363247429 537405617
            302022802 696795290 -863705083</internalNodes>
          <leafValues>
            -5.6090962886810303e-01 5.0433009862899780e-01</leafValues></_>
        <_>
          <internalNodes>
            0 -1 26 1090830558 -703037362 64 193003522 -2147450654
            -587202429 1207961636 704839945</internalNodes>
          <leafValues>
            -5.5052214860916138e-01 5.6678289175033569e-01</leafValues></_>
        <_>
          <internalNodes>
            0 -1 8 216971971 -1196789762 -1611677697 -1715097730
            218011566 720330749 -285344284 620945600</internalNodes>
          <leafValues>
            -5.2268099784851074e-01 5.6310117244720459e-01</leafValues></_>
        <_>
          <internalNodes>
            0 -1 34 872559666 1728856 67125313 -853327867 1636302880
            675807234 9502723 -114350071</internalNodes>
          <leafValues>
            -7.2824275493621826e-01 4.4394406676292419e-01</leafValues></_>
        <_>
          <internalNodes>
            0 -1 85 -246685302 -754974590 16660 344064000 -2010636133
            -1988100093 35464 -636850118</internalNodes>
          <leafValues>
            -5.7281225919723511e-01 5.6656193733215332e-01</leafValues></_>
        <_>
          <internalNodes>
            0 -1 40 -2142829714 54886656 -469761504 -712978432
            -2146828128 49450 -528347776 1318814592</internalNodes>
          <leafValues>
            -6.2260067462921143e-01 5.1717507839202881e-01</leafValues></_>
        <_>
          <internalNodes>
            0 -1 33 1627514780 1075873803 536871683 1191747584 268567948
            243400704 423633105 1258455426</internalNodes>
          <leafValues>
            -7.0791840553283691e-01 4.3899723887443542e-01</leafValues></_>
        <_>
          <internalNodes>
            0 -1 53 -608296983 2029690783 -295217 -344600965 -33685572
            -34570276 1853611508 272316731</internalNodes>
          <leafValues>
            -4.8543766140937805e-01 6.7495644092559814e-01</leafValues></_></weakClassifiers></_></stages>
  <features>
    <_>
      <rect>
        0 0 9 5</rect></_>
    <_>
      <rect>
        0 3 3 4</rect></_>
    <_>
      <rect>
        0 4 5 8</rect></_>
    <_>
      <rect>
        0 15 5 6</rect></_>
    <_>
      <rect>
        0 15 7 5</rect></_>
    <_>
      <rect>
        0 23 4 4</rect></_>
    <_>
      <rect>
        0 23 5 4</rect></_>
    <_>
      <rect>
        0 23 8 5</rect></_>
    <_>
      <rect>
        0 28 2 2</rect></_>
    <_>
      <rect>
        1 1 6 10</rect></_>
    <_>
      <rect>
        1 5 3 7</rect></_>
    <_>
      <rect>
        1 5 9 9</rect></_>
    <_>
      <rect>
        1 14 4 5</rect></_>
    <_>
      <rect>
        1 19 4 5</rect></_>
    <_>
      <rect>
        1 19 9 6</rect></_>
    <_>
      <rect>
        2 0 3 8</rect></_>
    <_>
      <rect>
        2 0 5 5</rect></_>
    <_>
      <rect>
        2 10 4 4</rect></_>
    <_>
      <rect>
        2 20 6 6</rect></_>
    <_>
      <rect>
        2 20 10 6</rect></_>
    <_>
      <rect>
        2 28 5 3</rect></_>
    <_>
      <rect>
        3 11 2 5</rect></_>
    <_>
      <rect>
        3 13 6 7</rect></_>
    <_>
      <rect>
        3 26 2 3</rect></_>
    <_>
      <rect>
        4 8 3 4</rect></_>
    <_>
      <rect>
        4 19 4 4</rect></_>
    <_>
      <rect>
        4 29 5 3</rect></_>
    <_>
      <rect>
        5 2 9 6</rect></_>
    <_>
      <rect>
        5 11 2 2</rect></_>
    <_>
      <rect>
        5 14 7 8</rect></_>
    <_>
      <rect>
        5 17 5 7</rect></_>
    <_>
      <rect>
        5 32 5 2</rect></_>
    <_>
      <rect>
        6 12 3 5</rect></_>
    <_>
      <rect>
        6 13 3 5</rect></_>
    <_>
      <rect>
        6 21 6 5</rect></_>
    <_>
      <rect>
        6 22 6 5</rect></_>
    <_>
      <rect>
        7 20 8 6</rect></_>
    <_>
      <rect>
        8 12 3 3</rect></_>
    <_>
      <rect>
        9 12 1 3</rect></_>
    <_>
      <rect>
        9 13 3 4</rect></_>
    <_>
      <rect>
        9 17 2 3</rect></_>
    <_>
      <rect>
        9 17 7 7</rect></_>
    <_>
      <rect>
        9 22 3 3</rect></_>
    <_>
      <rect>
        9 25 4 3</rect></_>
    <_>
      <rect>
        9 26 7 4</rect></_>
    <_>
      <rect>
        10 0 5 6</rect></_>
    <_>
      <rect>
        10 23 5 3</rect></_>
    <_>
      <rect>
        10 28 1 1</rect></_>
    <_>
      <rect>
        11 0 7 10</rect></_>
    <_>
      <rect>
        11 30 4 2</rect></_>
    <_>
      <rect>
        11 31 1 1</rect></_>
    <_>
      <rect>
        12 0 4 7</rect></_>
    <_>
      <rect>
        12 26 2 2</rect></_>
    <_>
      <rect>
        13 29 4 3</rect></_>
    <_>
      <rect>
        13 30 2 1</rect></_>
    <_>
      <rect>
        13 33 1 1</rect></_>
    <_>
      <rect>
        13 35 1 1</rect></_>
    <_>
      <rect>
        14 24 5 4</rect></_>
    <_>
      <rect>
        15 18 2 2</rect></_>
    <_>
      <rect>
        16 13 5 8</rect></_>
    <_>
      <rect>
        17 13 4 4</rect></_>
    <_>
      <rect>
        18 15 2 3</rect></_>
    <_>
      <rect>
        18 27 1 1</rect></_>
    <_>
      <rect>
        18 31 1 1</rect></_>
    <_>
      <rect>
        19 13 4 5</rect></_>
    <_>
      <rect>
        19 17 3 7</rect></_>
    <_>
      <rect>
        19 18 1 2</rect></_>
    <_>
      <rect>
        19 21 1 1</rect></_>
    <_>
      <rect>
        19 22 4 5</rect></_>
    <_>
      <rect>
        19 34 2 1</rect></_>
    <_>
      <rect>
        20 14 2 2</rect></_>
    <_>
      <rect>
        20 19 4 3</rect></_>
    <_>
      <rect>
        21 1 3 1</rect></_>
    <_>
      <rect>
        21 18 3 2</rect></_>
    <_>
      <rect>
        21 20 2 3</rect></_>
    <_>
      <rect>
        22 30 2 2</rect></_>
    <_>
      <rect>
        23 2 3 12</rect></_>
    <_>
      <rect>
        23 5 3 1</rect></_>
    <_>
      <rect>
        23 18 3 2</rect></_>
    <_>
      <rect>
        24 14 2 2</rect></_>
    <_>
      <rect>
        25 4 2 1</rect></_>
    <_>
      <rect>
        25 31 2 2</rect></_>
    <_>
      <rect>
        26 8 2 1</rect></_>
    <_>
      <rect>
        26 9 2 1</rect></_>
    <_>
      <rect>
        28 8 1 1</rect></_>
    <_>
      <rect>
        29 31 1 1</rect></_></features></cascade>
</opencv_storage>
