<?xml version="1.0"?>
<opencv_storage>
<!-- Created using Computer Vision System Toolbox(tm) for MATLAB(R) -->
<!-- Version 8.6.0.267246 (R2015b) -->
<!-- Compatible with OpenCV 2.4 -->
<cascade>
  <stageType>BOOST</stageType>
  <featureType>LBP</featureType>
  <height>32</height>
  <width>37</width>
  <stageParams>
    <boostType>GAB</boostType>
    <minHitRate>9.9500000476837158e-01</minHitRate>
    <maxFalseAlarm>5.0000000745058060e-02</maxFalseAlarm>
    <weightTrimRate>9.4999999999999996e-01</weightTrimRate>
    <maxDepth>1</maxDepth>
    <maxWeakCount>100</maxWeakCount></stageParams>
  <featureParams>
    <maxCatCount>256</maxCatCount>
    <featSize>1</featSize></featureParams>
  <stageNum>6</stageNum>
  <stages>
    <!-- stage 0 -->
    <_>
      <maxWeakCount>6</maxWeakCount>
      <stageThreshold>-4.6723192930221558e-01</stageThreshold>
      <weakClassifiers>
        <_>
          <internalNodes>
            0 -1 8 -101975041 1393032095 -1056853801 -205270869 4250619
            1379979843 193128843 1408760783</internalNodes>
          <leafValues>
            -8.7557184696197510e-01 6.1341851949691772e-01</leafValues></_>
        <_>
          <internalNodes>
            0 -1 23 -730466562 -555986554 805425230 -577271781
            -796726869 -221083519 -506476374 -16779297</internalNodes>
          <leafValues>
            -8.6381000280380249e-01 6.4581334590911865e-01</leafValues></_>
        <_>
          <internalNodes>
            0 -1 40 -706761937 -1358433269 -1048543104 -271072797
            -2013026135 144801963 458762 -1360010561</internalNodes>
          <leafValues>
            -7.4659597873687744e-01 6.5466898679733276e-01</leafValues></_>
        <_>
          <internalNodes>
            0 -1 18 -262471681 -182025381 -788147965 -540843489
            -1681757553 -1291771261 -882890065 1940354047</internalNodes>
          <leafValues>
            -7.3248857259750366e-01 7.0456123352050781e-01</leafValues></_>
        <_>
          <internalNodes>
            0 -1 33 -561318146 -1223364374 -721369720 -47851519
            -377100818 -73826165 -1794399815 -570442817</internalNodes>
          <leafValues>
            -7.5964456796646118e-01 6.9142591953277588e-01</leafValues></_>
        <_>
          <internalNodes>
            0 -1 43 -708447352 -577699769 -1878785704 -582671933
            1478607172 145801354 1342210572 148896335</internalNodes>
          <leafValues>
            -8.5513913631439209e-01 5.8483880758285522e-01</leafValues></_></weakClassifiers></_>
    <!-- stage 1 -->
    <_>
      <maxWeakCount>8</maxWeakCount>
      <stageThreshold>-5.5902814865112305e-01</stageThreshold>
      <weakClassifiers>
        <_>
          <internalNodes>
            0 -1 5 -648610305 1397391619 1358971837 -141095557
            1946218672 1896349961 -98510161 -5246065</internalNodes>
          <leafValues>
            -7.2539287805557251e-01 5.9607845544815063e-01</leafValues></_>
        <_>
          <internalNodes>
            0 -1 35 709338591 181600433 4314527 252511627 -83631697
            -6733119 -904197905 -69221697</internalNodes>
          <leafValues>
            -7.2264468669891357e-01 5.8021664619445801e-01</leafValues></_>
        <_>
          <internalNodes>
            0 -1 2 -767107060 -237879027 -1071994669 -723869489
            -653770620 1992364291 -107377937 -46389</internalNodes>
          <leafValues>
            -8.1641477346420288e-01 5.0752657651901245e-01</leafValues></_>
        <_>
          <internalNodes>
            0 -1 0 -2634805 -314314301 1224855946 -807951478 -888678926
            -634142201 1359436296 1712783374</internalNodes>
          <leafValues>
            -7.7393460273742676e-01 4.6901357173919678e-01</leafValues></_>
        <_>
          <internalNodes>
            0 -1 28 1493193471 547115152 285459759 794689795 -805272431
            -1602191303 -1949775477 -1346734006</internalNodes>
          <leafValues>
            -7.1468687057495117e-01 5.7197976112365723e-01</leafValues></_>
        <_>
          <internalNodes>
            0 -1 34 -247086083 -1727723391 1359026305 -149045161
            -268324454 -1977151333 -1466717172 -1358959905</internalNodes>
          <leafValues>
            -6.2621468305587769e-01 6.8674069643020630e-01</leafValues></_>
        <_>
          <internalNodes>
            0 -1 3 -705210446 1359299503 -1816080236 -35927229 302182560
            1172897811 1955504256 -138944342</internalNodes>
          <leafValues>
            -6.3998025655746460e-01 6.4133834838867188e-01</leafValues></_>
        <_>
          <internalNodes>
            0 -1 39 -740904800 -1868704882 -1856962295 -1118076515
            2025912767 142737618 -1953932001 -1614808309</internalNodes>
          <leafValues>
            -6.8613135814666748e-01 5.9295976161956787e-01</leafValues></_></weakClassifiers></_>
    <!-- stage 2 -->
    <_>
      <maxWeakCount>8</maxWeakCount>
      <stageThreshold>-9.5955520868301392e-01</stageThreshold>
      <weakClassifiers>
        <_>
          <internalNodes>
            0 -1 24 -1033448969 -12536354 54722567 -2271972 -804224365
            -38095949 201394959 -3833185</internalNodes>
          <leafValues>
            -7.2881358861923218e-01 4.0802675485610962e-01</leafValues></_>
        <_>
          <internalNodes>
            0 -1 20 -59519252 -601578866 -1342070204 -158629681
            1106224906 -1892602235 -38674618 -286849</internalNodes>
          <leafValues>
            -8.7178140878677368e-01 3.4382301568984985e-01</leafValues></_>
        <_>
          <internalNodes>
            0 -1 4 -612457985 -1243614233 553768337 -38415971 -370529809
            1742292653 1806357259 1805331103</internalNodes>
          <leafValues>
            -7.1348029375076294e-01 4.7850692272186279e-01</leafValues></_>
        <_>
          <internalNodes>
            0 -1 45 -2009784117 67469400 -1861643908 75505923 1250020287
            589842616 -1954387569 -370941301</internalNodes>
          <leafValues>
            -7.7152144908905029e-01 4.5304602384567261e-01</leafValues></_>
        <_>
          <internalNodes>
            0 -1 1 -174070002 -1429617877 21086210 -1533622138
            -738159041 -1414807382 -1564359610 -890854874</internalNodes>
          <leafValues>
            -7.9912018775939941e-01 3.9826983213424683e-01</leafValues></_>
        <_>
          <internalNodes>
            0 -1 38 -6096452 -1616184070 -1116161 -167982852 -277086209
            -1073741889 -3153987 -1881160658</internalNodes>
          <leafValues>
            -5.5044728517532349e-01 6.9088101387023926e-01</leafValues></_>
        <_>
          <internalNodes>
            0 -1 36 -1232947970 -1325260212 -1323972139 1032389010
            -679464453 -100614144 939577995 724259595</internalNodes>
          <leafValues>
            -8.0163717269897461e-01 4.4762179255485535e-01</leafValues></_>
        <_>
          <internalNodes>
            0 -1 22 1616598010 932282769 -1845444065 -7914734 9175510
            1925745280 -1979610453 -77657813</internalNodes>
          <leafValues>
            -6.5351307392120361e-01 5.4982370138168335e-01</leafValues></_></weakClassifiers></_>
    <!-- stage 3 -->
    <_>
      <maxWeakCount>10</maxWeakCount>
      <stageThreshold>1.2304488569498062e-01</stageThreshold>
      <weakClassifiers>
        <_>
          <internalNodes>
            0 -1 16 -144706569 1489995679 1229457549 -581093622
            1686380949 -1198849493 -897563728 -4195365</internalNodes>
          <leafValues>
            -6.9488537311553955e-01 3.6752137541770935e-01</leafValues></_>
        <_>
          <internalNodes>
            0 -1 25 567553247 1599741298 763905503 -1650960328 12617184
            1072431160 687956365 150739166</internalNodes>
          <leafValues>
            -7.8646385669708252e-01 3.5625401139259338e-01</leafValues></_>
        <_>
          <internalNodes>
            0 -1 44 -181286994 -435625033 604078414 -868047615
            1773078279 1146110079 -409272314 -44049589</internalNodes>
          <leafValues>
            -7.4182039499282837e-01 4.1718757152557373e-01</leafValues></_>
        <_>
          <internalNodes>
            0 -1 29 -514566667 -369069796 84087059 -745752572
            -2013125717 -1115418590 -1736441333 -1883535437</internalNodes>
          <leafValues>
            -6.4436590671539307e-01 5.0168836116790771e-01</leafValues></_>
        <_>
          <internalNodes>
            0 -1 11 -217582386 -458779597 404783128 -1070201862
            -368707179 -1979710847 -125577016 -264049781</internalNodes>
          <leafValues>
            -6.9197219610214233e-01 4.8035886883735657e-01</leafValues></_>
        <_>
          <internalNodes>
            0 -1 42 -1222773882 -457930878 -788429819 -583622506
            809596091 1342275626 -343580403 1471113483</internalNodes>
          <leafValues>
            -6.5601521730422974e-01 5.0206297636032104e-01</leafValues></_>
        <_>
          <internalNodes>
            0 -1 46 -215223677 -628112629 1090621445 -536428029
            -478142261 -1324875768 1091521062 1299443203</internalNodes>
          <leafValues>
            -5.6723999977111816e-01 5.6582671403884888e-01</leafValues></_>
        <_>
          <internalNodes>
            0 -1 41 -753224706 -372201060 -2088170184 -585799480
            277979643 520683537 1208058106 -1198800630</internalNodes>
          <leafValues>
            -5.9923273324966431e-01 5.5124574899673462e-01</leafValues></_>
        <_>
          <internalNodes>
            0 -1 7 -620255785 -1320075257 373887123 -553953273
            1090551840 -78413824 638008590 2139470783</internalNodes>
          <leafValues>
            -6.5158212184906006e-01 5.0978457927703857e-01</leafValues></_>
        <_>
          <internalNodes>
            0 -1 27 269038034 1058165504 83888573 -170262267 696273077
            850395168 -1598023282 -1419595391</internalNodes>
          <leafValues>
            -6.3946813344955444e-01 5.3598219156265259e-01</leafValues></_></weakClassifiers></_>
    <!-- stage 4 -->
    <_>
      <maxWeakCount>10</maxWeakCount>
      <stageThreshold>3.0279484391212463e-01</stageThreshold>
      <weakClassifiers>
        <_>
          <internalNodes>
            0 -1 13 -6617833 -263186343 -1799272187 -5865213 42045823
            -2134628349 908047247 -72357753</internalNodes>
          <leafValues>
            -5.9278351068496704e-01 5.1183968782424927e-01</leafValues></_>
        <_>
          <internalNodes>
            0 -1 26 -4522241 -69009672 -521 -1879245580 -1360199681
            -1075511812 197983727 -609757962</internalNodes>
          <leafValues>
            -4.7507768869400024e-01 6.6611760854721069e-01</leafValues></_>
        <_>
          <internalNodes>
            0 -1 10 -261097336 1715769867 -771719010 -133161641
            -782564260 1930428419 -83719406 -84554965</internalNodes>
          <leafValues>
            -7.0436066389083862e-01 4.4991919398307800e-01</leafValues></_>
        <_>
          <internalNodes>
            0 -1 32 -519436881 -1911340727 -2080357361 802263963
            1241531137 1669440424 3541023 -4482612</internalNodes>
          <leafValues>
            -7.1196419000625610e-01 4.2919114232063293e-01</leafValues></_>
        <_>
          <internalNodes>
            0 -1 17 -804802449 1092233619 -230647532 -1190967991
            1611780788 2072543365 -1011056766 -106635130</internalNodes>
          <leafValues>
            -6.0466086864471436e-01 5.2032458782196045e-01</leafValues></_>
        <_>
          <internalNodes>
            0 -1 6 -1038101286 -201011178 -1660599110 -199819132
            -1542909141 681607170 -477809795 -283171569</internalNodes>
          <leafValues>
            -7.8333932161331177e-01 4.1351753473281860e-01</leafValues></_>
        <_>
          <internalNodes>
            0 -1 9 -1320230729 -780033065 -1879015424 -216989103
            1074119962 -394155605 1074022521 2051689444</internalNodes>
          <leafValues>
            -8.1555324792861938e-01 4.1749209165573120e-01</leafValues></_>
        <_>
          <internalNodes>
            0 -1 30 -1056796429 -1077903338 -1860890159 -956295148
            -2130689870 -830472160 -2130698021 -660420468</internalNodes>
          <leafValues>
            -5.9371173381805420e-01 6.0055536031723022e-01</leafValues></_>
        <_>
          <internalNodes>
            0 -1 21 1895934779 219218224 -1859059704 -771719152
            -2139043429 -2112876542 -1929205237 -592209533</internalNodes>
          <leafValues>
            -6.3741731643676758e-01 5.4557794332504272e-01</leafValues></_>
        <_>
          <internalNodes>
            0 -1 37 289518877 85987392 -1828122345 -1523314044 61871
            -1467383664 -1962892308 -1928814534</internalNodes>
          <leafValues>
            -6.8323260545730591e-01 5.0478905439376831e-01</leafValues></_></weakClassifiers></_>
    <!-- stage 5 -->
    <_>
      <maxWeakCount>7</maxWeakCount>
      <stageThreshold>5.8872622251510620e-01</stageThreshold>
      <weakClassifiers>
        <_>
          <internalNodes>
            0 -1 15 1358971012 1142964228 4097 470024194 1342177419
            1207976593 137 1560283411</internalNodes>
          <leafValues>
            -8.5714286565780640e-01 7.4461537599563599e-01</leafValues></_>
        <_>
          <internalNodes>
            0 -1 12 -167772748 -1569325185 -258 -620757001 1157154036
            2012468727 1861509616 -344457729</internalNodes>
          <leafValues>
            -5.1186168193817139e-01 7.6560962200164795e-01</leafValues></_>
        <_>
          <internalNodes>
            0 -1 47 -17445361 -420550826 -16814865 -976953791 1316388627
            259522397 671039234 1718876031</internalNodes>
          <leafValues>
            -6.1379402875900269e-01 7.3779302835464478e-01</leafValues></_>
        <_>
          <internalNodes>
            0 -1 19 -1073737676 1409286400 99088 335643136 285802753
            -1333771958 536906149 -1509916285</internalNodes>
          <leafValues>
            -8.6161386966705322e-01 5.1227086782455444e-01</leafValues></_>
        <_>
          <internalNodes>
            0 -1 31 47636 270041361 1140854796 -251592701 -2128608638
            545456128 16520 -1853816696</internalNodes>
          <leafValues>
            -7.4643999338150024e-01 6.2808185815811157e-01</leafValues></_>
        <_>
          <internalNodes>
            0 -1 14 -788234185 459271 0 1367343747 -2145288140 131072
            2099842 -935194174</internalNodes>
          <leafValues>
            -7.0916825532913208e-01 6.9818007946014404e-01</leafValues></_>
        <_>
          <internalNodes>
            0 -1 48 -788163582 134250497 134217728 -938475496 20482
            -1597734912 -2004834299 -930955254</internalNodes>
          <leafValues>
            -7.3888927698135376e-01 6.5998202562332153e-01</leafValues></_></weakClassifiers></_></stages>
  <features>
    <_>
      <rect>
        0 6 5 7</rect></_>
    <_>
      <rect>
        0 8 3 5</rect></_>
    <_>
      <rect>
        0 17 6 5</rect></_>
    <_>
      <rect>
        1 2 6 6</rect></_>
    <_>
      <rect>
        1 8 7 8</rect></_>
    <_>
      <rect>
        2 0 8 5</rect></_>
    <_>
      <rect>
        2 0 11 10</rect></_>
    <_>
      <rect>
        2 1 6 9</rect></_>
    <_>
      <rect>
        2 1 7 10</rect></_>
    <_>
      <rect>
        2 7 5 8</rect></_>
    <_>
      <rect>
        2 20 3 4</rect></_>
    <_>
      <rect>
        2 25 2 2</rect></_>
    <_>
      <rect>
        3 0 6 7</rect></_>
    <_>
      <rect>
        3 0 8 9</rect></_>
    <_>
      <rect>
        3 1 3 7</rect></_>
    <_>
      <rect>
        3 16 6 5</rect></_>
    <_>
      <rect>
        4 0 4 6</rect></_>
    <_>
      <rect>
        4 5 4 4</rect></_>
    <_>
      <rect>
        5 11 5 6</rect></_>
    <_>
      <rect>
        6 1 10 9</rect></_>
    <_>
      <rect>
        7 0 10 8</rect></_>
    <_>
      <rect>
        7 2 7 6</rect></_>
    <_>
      <rect>
        9 23 5 2</rect></_>
    <_>
      <rect>
        10 7 8 6</rect></_>
    <_>
      <rect>
        11 13 4 3</rect></_>
    <_>
      <rect>
        11 18 4 2</rect></_>
    <_>
      <rect>
        12 9 3 2</rect></_>
    <_>
      <rect>
        12 21 2 1</rect></_>
    <_>
      <rect>
        12 21 5 2</rect></_>
    <_>
      <rect>
        13 14 4 2</rect></_>
    <_>
      <rect>
        15 7 3 2</rect></_>
    <_>
      <rect>
        15 14 1 1</rect></_>
    <_>
      <rect>
        15 25 6 2</rect></_>
    <_>
      <rect>
        16 10 4 4</rect></_>
    <_>
      <rect>
        16 15 6 5</rect></_>
    <_>
      <rect>
        17 23 3 3</rect></_>
    <_>
      <rect>
        18 8 3 4</rect></_>
    <_>
      <rect>
        18 20 3 1</rect></_>
    <_>
      <rect>
        19 7 2 2</rect></_>
    <_>
      <rect>
        19 7 4 4</rect></_>
    <_>
      <rect>
        19 14 5 6</rect></_>
    <_>
      <rect>
        20 14 2 2</rect></_>
    <_>
      <rect>
        21 4 3 6</rect></_>
    <_>
      <rect>
        21 13 4 3</rect></_>
    <_>
      <rect>
        22 16 5 5</rect></_>
    <_>
      <rect>
        22 29 2 1</rect></_>
    <_>
      <rect>
        25 0 3 7</rect></_>
    <_>
      <rect>
        25 0 4 10</rect></_>
    <_>
      <rect>
        28 17 1 1</rect></_></features></cascade>
</opencv_storage>
