<?xml version="1.0"?>
<opencv_storage>
<!-- Created using Computer Vision System Toolbox(tm) for MATLAB(R) -->
<!-- Version 8.6.0.267246 (R2015b) -->
<!-- Compatible with OpenCV 2.4 -->
<cascade>
  <stageType>BOOST</stageType>
  <featureType>LBP</featureType>
  <height>36</height>
  <width>32</width>
  <stageParams>
    <boostType>GAB</boostType>
    <minHitRate>9.9500000476837158e-01</minHitRate>
    <maxFalseAlarm>5.0000000745058060e-02</maxFalseAlarm>
    <weightTrimRate>9.4999999999999996e-01</weightTrimRate>
    <maxDepth>1</maxDepth>
    <maxWeakCount>100</maxWeakCount></stageParams>
  <featureParams>
    <maxCatCount>256</maxCatCount>
    <featSize>1</featSize></featureParams>
  <stageNum>7</stageNum>
  <stages>
    <!-- stage 0 -->
    <_>
      <maxWeakCount>7</maxWeakCount>
      <stageThreshold>-2.0142428576946259e-01</stageThreshold>
      <weakClassifiers>
        <_>
          <internalNodes>
            0 -1 41 -212865298 -544225329 -238958482 -280312766
            -71045398 -72623957 -24460662 -4209</internalNodes>
          <leafValues>
            -8.7211740016937256e-01 5.4755783081054688e-01</leafValues></_>
        <_>
          <internalNodes>
            0 -1 28 -169881140 -538971177 -2021408501 -11826 -144970868
            -68976149 -375141944 -286340020</internalNodes>
          <leafValues>
            -8.7075740098953247e-01 3.8831335306167603e-01</leafValues></_>
        <_>
          <internalNodes>
            0 -1 45 -405799441 -1501056126 -1010645373 -1068515313
            -1071915271 -1563197309 -385620305 -361772053</internalNodes>
          <leafValues>
            -7.2628581523895264e-01 5.5502963066101074e-01</leafValues></_>
        <_>
          <internalNodes>
            0 -1 67 -548931614 -1432571000 -1828615936 2139804418
            1234952672 -217918790 727843584 -2641501</internalNodes>
          <leafValues>
            -7.6040226221084595e-01 4.7977969050407410e-01</leafValues></_>
        <_>
          <internalNodes>
            0 -1 35 -385896978 -1561632769 -1359037834 -497304858
            -956309729 1702592383 -218169413 -218630213</internalNodes>
          <leafValues>
            -5.3700870275497437e-01 6.7108201980590820e-01</leafValues></_>
        <_>
          <internalNodes>
            0 -1 37 2011061073 -145271981 -1929210485 -170000113
            -116946289 -270958450 -394032359 -286369204</internalNodes>
          <leafValues>
            -7.1520853042602539e-01 5.2758896350860596e-01</leafValues></_>
        <_>
          <internalNodes>
            0 -1 27 -964826461 -389570165 -1845226982 -1070481255
            -234116344 139493637 1107681871 -178793730</internalNodes>
          <leafValues>
            -5.7120639085769653e-01 5.7039690017700195e-01</leafValues></_></weakClassifiers></_>
    <!-- stage 1 -->
    <_>
      <maxWeakCount>13</maxWeakCount>
      <stageThreshold>-8.6835741996765137e-01</stageThreshold>
      <weakClassifiers>
        <_>
          <internalNodes>
            0 -1 23 -763970277 -2829921 -1056795841 -2304584 -258167877
            -90990407 -384849221 -62388224</internalNodes>
          <leafValues>
            -7.5556826591491699e-01 2.2507552802562714e-01</leafValues></_>
        <_>
          <internalNodes>
            0 -1 69 -604636640 -107087105 1879411006 -413347574
            1896309312 -150216021 -87560254 -3198</internalNodes>
          <leafValues>
            -7.4574291706085205e-01 3.1987461447715759e-01</leafValues></_>
        <_>
          <internalNodes>
            0 -1 31 -142083169 -2105289518 -536393723 -398204913
            -1186478585 985874759 -129808098 -2144338145</internalNodes>
          <leafValues>
            -6.4039391279220581e-01 3.9855551719665527e-01</leafValues></_>
        <_>
          <internalNodes>
            0 -1 71 -1501522447 956338648 -1852210251 424760433
            539132633 -1111646070 243272985 251732256</internalNodes>
          <leafValues>
            -6.0620909929275513e-01 4.7133335471153259e-01</leafValues></_>
        <_>
          <internalNodes>
            0 -1 11 2007954830 -14875881 -440037052 -10043193
            -1148343845 -122601465 644639790 1078522606</internalNodes>
          <leafValues>
            -7.6215535402297974e-01 3.2443159818649292e-01</leafValues></_>
        <_>
          <internalNodes>
            0 -1 16 -1007686866 1099428137 -938278654 50579483
            1100870523 67275804 2014931083 1937761163</internalNodes>
          <leafValues>
            -5.8054846525192261e-01 4.3881076574325562e-01</leafValues></_>
        <_>
          <internalNodes>
            0 -1 68 2089220694 -665286378 -1857977057 -270560738
            1758308815 -1817673333 -1277155106 -18393018</internalNodes>
          <leafValues>
            -5.4113847017288208e-01 4.4617152214050293e-01</leafValues></_>
        <_>
          <internalNodes>
            0 -1 2 -225774098 -28380718 -251592380 -5332730 1885467119
            -628387399 -359966579 -991171738</internalNodes>
          <leafValues>
            -5.6434553861618042e-01 4.4933649897575378e-01</leafValues></_>
        <_>
          <internalNodes>
            0 -1 89 898153465 -1714633852 -2121100969 1536147865
            -519908369 -1742753767 194085528 220989940</internalNodes>
          <leafValues>
            -7.1108639240264893e-01 3.6744746565818787e-01</leafValues></_>
        <_>
          <internalNodes>
            0 -1 70 -1050971278 -193982455 -716979934 -10763326
            1880146087 -780035942 195365984 -13686829</internalNodes>
          <leafValues>
            -6.0961180925369263e-01 4.0133520960807800e-01</leafValues></_>
        <_>
          <internalNodes>
            0 -1 8 -200293022 268456528 6152 1128435730 -117219320
            1158258697 -1056230680 1906828063</internalNodes>
          <leafValues>
            -5.3985142707824707e-01 4.6861535310745239e-01</leafValues></_>
        <_>
          <internalNodes>
            0 -1 72 -1090461935 1938365072 755007579 -1994972927
            -1852532229 -87523191 168927451 255265024</internalNodes>
          <leafValues>
            -5.6497240066528320e-01 4.6885168552398682e-01</leafValues></_>
        <_>
          <internalNodes>
            0 -1 48 -1050173405 -1566187421 155258947 1242530193
            1342267503 -116817880 -1962850657 -430618558</internalNodes>
          <leafValues>
            -6.0843139886856079e-01 4.2495748400688171e-01</leafValues></_></weakClassifiers></_>
    <!-- stage 2 -->
    <_>
      <maxWeakCount>15</maxWeakCount>
      <stageThreshold>-7.6846772432327271e-01</stageThreshold>
      <weakClassifiers>
        <_>
          <internalNodes>
            0 -1 36 -2106077721 14385455 -728116273 -900730117
            -1177817298 -32276086 -728974433 -67111029</internalNodes>
          <leafValues>
            -6.6287487745285034e-01 2.2524102032184601e-01</leafValues></_>
        <_>
          <internalNodes>
            0 -1 22 1418203061 -53440267 -708829985 -1107557153
            -1194612545 -359104114 -1432352725 -1163391220</internalNodes>
          <leafValues>
            -5.1812517642974854e-01 4.0093448758125305e-01</leafValues></_>
        <_>
          <internalNodes>
            0 -1 39 -102567442 -751816205 -1853795868 -1497058874
            -742840184 -114216537 -656154424 -67128566</internalNodes>
          <leafValues>
            -7.4310272932052612e-01 2.7241617441177368e-01</leafValues></_>
        <_>
          <internalNodes>
            0 -1 46 -678039644 338444454 822724616 -36924976 -1518227547
            1084468114 -746461292 -774921554</internalNodes>
          <leafValues>
            -4.6080833673477173e-01 4.2763218283653259e-01</leafValues></_>
        <_>
          <internalNodes>
            0 -1 49 -1488720741 -1432502139 -390004271 -1032634209
            -493048937 -1744202053 -1324573810 -89138481</internalNodes>
          <leafValues>
            -4.5413634181022644e-01 4.4003117084503174e-01</leafValues></_>
        <_>
          <internalNodes>
            0 -1 92 1063829501 -16777219 -32911 -950659 -1074069509
            -696320018 -1090586674 -1779430116</internalNodes>
          <leafValues>
            -4.1770613193511963e-01 5.2226328849792480e-01</leafValues></_>
        <_>
          <internalNodes>
            0 -1 0 -137301223 -578752234 -1593753598 -701315006
            -1073688151 -776437620 -1064920401 -1575295350</internalNodes>
          <leafValues>
            -5.9719234704971313e-01 3.4671804308891296e-01</leafValues></_>
        <_>
          <internalNodes>
            0 -1 13 -775614002 1833763205 360776942 -573079480
            -2113139557 -527925073 571132622 1879757243</internalNodes>
          <leafValues>
            -5.9239304065704346e-01 4.0127694606781006e-01</leafValues></_>
        <_>
          <internalNodes>
            0 -1 75 -775429906 5419658 1409425948 71772177 1084341483
            67639337 1145764287 -1429494977</internalNodes>
          <leafValues>
            -5.4025042057037354e-01 4.6461164951324463e-01</leafValues></_>
        <_>
          <internalNodes>
            0 -1 18 2031528328 -736983599 1519187227 -349390360
            -1186350661 -1434025592 -114840917 -55567872</internalNodes>
          <leafValues>
            -6.9081813097000122e-01 3.1052899360656738e-01</leafValues></_>
        <_>
          <internalNodes>
            0 -1 44 -440666198 -1568427062 -2074629486 -422665394
            630829965 42176906 1637196214 -673199832</internalNodes>
          <leafValues>
            -6.0591930150985718e-01 3.7175312638282776e-01</leafValues></_>
        <_>
          <internalNodes>
            0 -1 81 132175839 332481361 423660991 492689797 -805265207
            464847083 700926715 528810361</internalNodes>
          <leafValues>
            -5.1550924777984619e-01 4.3093329668045044e-01</leafValues></_>
        <_>
          <internalNodes>
            0 -1 58 -1516980537 -1408720478 -922648574 -24325766
            -2129419862 1149890694 -2121686320 -536876054</internalNodes>
          <leafValues>
            -4.9913412332534790e-01 4.4554510712623596e-01</leafValues></_>
        <_>
          <internalNodes>
            0 -1 93 93460172 -206535211 285524360 -145370614 -2087922698
            -1421229920 -1190618924 286786988</internalNodes>
          <leafValues>
            -7.2588449716567993e-01 3.1626728177070618e-01</leafValues></_>
        <_>
          <internalNodes>
            0 -1 6 1161978344 -50326395 -2130687779 -1887268822
            -1702788949 -628490069 -494335558 -1983545214</internalNodes>
          <leafValues>
            -5.0967913866043091e-01 4.6486419439315796e-01</leafValues></_></weakClassifiers></_>
    <!-- stage 3 -->
    <_>
      <maxWeakCount>18</maxWeakCount>
      <stageThreshold>-3.6095404624938965e-01</stageThreshold>
      <weakClassifiers>
        <_>
          <internalNodes>
            0 -1 17 -242754065 63947151 -653140863 25891227 -735450179
            1304144381 -628258401 1006618543</internalNodes>
          <leafValues>
            -6.9677829742431641e-01 5.2278820425271988e-02</leafValues></_>
        <_>
          <internalNodes>
            0 -1 83 1466040163 -1806723294 -1723842145 -875916416
            1511090689 -1968567545 2056121101 2138527557</internalNodes>
          <leafValues>
            -6.6221958398818970e-01 2.1944300830364227e-01</leafValues></_>
        <_>
          <internalNodes>
            0 -1 38 -311492809 -1112052174 535691257 -806359209
            -1912930375 -16908289 2109464495 -286312906</internalNodes>
          <leafValues>
            -3.7863489985466003e-01 4.9480196833610535e-01</leafValues></_>
        <_>
          <internalNodes>
            0 -1 42 -183310710 -1637841880 269484034 -171257790
            1360136847 1082438306 614569384 1364186014</internalNodes>
          <leafValues>
            -4.7658044099807739e-01 3.9996251463890076e-01</leafValues></_>
        <_>
          <internalNodes>
            0 -1 56 -1010589073 1364656391 100779025 -653319409
            -1036866901 1006698502 -872351713 -924458391</internalNodes>
          <leafValues>
            -4.2929595708847046e-01 4.2738401889801025e-01</leafValues></_>
        <_>
          <internalNodes>
            0 -1 90 -1947140227 -151175315 2147270619 -8912900
            -339874050 -553648643 -1073883139 -1078387208</internalNodes>
          <leafValues>
            -3.3990931510925293e-01 5.4342913627624512e-01</leafValues></_>
        <_>
          <internalNodes>
            0 -1 32 -355341626 -1501524705 -2012940962 -493383213
            1736481290 418512935 -825520199 -353637985</internalNodes>
          <leafValues>
            -5.1383286714553833e-01 3.5071757435798645e-01</leafValues></_>
        <_>
          <internalNodes>
            0 -1 25 -1322585216 -745623056 -1878900464 -572932014
            -339103461 -2054481782 -242117839 361198116</internalNodes>
          <leafValues>
            -5.9815824031829834e-01 3.2424852252006531e-01</leafValues></_>
        <_>
          <internalNodes>
            0 -1 61 35192629 -1105718631 1495353853 995820371
            -1715430951 -1390182008 710480125 134682981</internalNodes>
          <leafValues>
            -5.5391174554824829e-01 3.3681708574295044e-01</leafValues></_>
        <_>
          <internalNodes>
            0 -1 1 1250325459 1151353600 1091633436 -268770392
            -1609522763 -777411925 -515831414 -1599087122</internalNodes>
          <leafValues>
            -5.1674777269363403e-01 3.6513429880142212e-01</leafValues></_>
        <_>
          <internalNodes>
            0 -1 62 -186192826 1415185795 805398880 -239320832
            -1073732703 197985746 1082348267 -990923933</internalNodes>
          <leafValues>
            -4.3070337176322937e-01 4.5807406306266785e-01</leafValues></_>
        <_>
          <internalNodes>
            0 -1 9 -786963182 1023903601 318968086 1394483803
            -1056460688 329883801 -791984450 1167708043</internalNodes>
          <leafValues>
            -4.8212555050849915e-01 4.0593984723091125e-01</leafValues></_>
        <_>
          <internalNodes>
            0 -1 77 -531173118 -2059341777 524300 -1393781873 -860288222
            -2004868877 -367813786 -34013</internalNodes>
          <leafValues>
            -5.7977217435836792e-01 3.5502493381500244e-01</leafValues></_>
        <_>
          <internalNodes>
            0 -1 88 -1154958465 -1628864591 -1895841793 -1250132506
            1073462707 -136450602 666565597 -2086373915</internalNodes>
          <leafValues>
            -4.3980324268341064e-01 4.7545677423477173e-01</leafValues></_>
        <_>
          <internalNodes>
            0 -1 34 -2120501195 -1601698981 46260575 -1064451648
            -519468685 1110042922 -2130472953 -496505217</internalNodes>
          <leafValues>
            -6.4925956726074219e-01 3.2299685478210449e-01</leafValues></_>
        <_>
          <internalNodes>
            0 -1 57 -5309457 -1074893122 -1258362130 -771766036
            -1074958369 108953327 -58853891 -846203497</internalNodes>
          <leafValues>
            -4.0995299816131592e-01 5.2091264724731445e-01</leafValues></_>
        <_>
          <internalNodes>
            0 -1 87 1059635128 2139094905 -276889601 1073166313
            2121465799 -9078793 1040153983 -1611198335</internalNodes>
          <leafValues>
            -4.0394163131713867e-01 5.3156548738479614e-01</leafValues></_>
        <_>
          <internalNodes>
            0 -1 7 520206190 1499533751 16811722 1314896 -2147376996
            27992235 -347895640 870480682</internalNodes>
          <leafValues>
            -6.4629626274108887e-01 3.4462511539459229e-01</leafValues></_></weakClassifiers></_>
    <!-- stage 4 -->
    <_>
      <maxWeakCount>17</maxWeakCount>
      <stageThreshold>-3.2516545057296753e-01</stageThreshold>
      <weakClassifiers>
        <_>
          <internalNodes>
            0 -1 33 1565041144 -245763821 889418033 -9184609 -1187782734
            -133004797 -929838688 -17383690</internalNodes>
          <leafValues>
            -6.5731710195541382e-01 5.7569295167922974e-02</leafValues></_>
        <_>
          <internalNodes>
            0 -1 86 -2045714947 -143789092 -117318275 -183168624
            -1397710856 -1147436807 -1154778177 -1883700800</internalNodes>
          <leafValues>
            -3.9274877309799194e-01 4.0793740749359131e-01</leafValues></_>
        <_>
          <internalNodes>
            0 -1 66 -93587380 -511635241 -1878716173 -598027973
            -779984888 831197375 -1054744179 -151323890</internalNodes>
          <leafValues>
            -5.4002207517623901e-01 3.0229371786117554e-01</leafValues></_>
        <_>
          <internalNodes>
            0 -1 51 -1427048510 646485408 394645696 -87635027
            -1471432329 243893162 567275798 -2032151052</internalNodes>
          <leafValues>
            -5.5644810199737549e-01 2.9167449474334717e-01</leafValues></_>
        <_>
          <internalNodes>
            0 -1 47 599506697 -1567375388 -1891301593 35377497
            -535760633 -1462910261 -437827061 -357345949</internalNodes>
          <leafValues>
            -5.4912519454956055e-01 3.4286698698997498e-01</leafValues></_>
        <_>
          <internalNodes>
            0 -1 76 1365695127 1686798354 27334815 -861956842 1494420034
            -659455945 -49721237 1995075943</internalNodes>
          <leafValues>
            -5.4517567157745361e-01 3.1549400091171265e-01</leafValues></_>
        <_>
          <internalNodes>
            0 -1 3 1434671956 -846364648 -1782529596 -37353016
            -2088230893 2052988945 927642249 1481626338</internalNodes>
          <leafValues>
            -5.5626451969146729e-01 3.0280551314353943e-01</leafValues></_>
        <_>
          <internalNodes>
            0 -1 54 698128317 475846672 86726137 -585297518 832748029
            -206380585 -1199248929 22353105</internalNodes>
          <leafValues>
            -5.1146233081817627e-01 3.6156436800956726e-01</leafValues></_>
        <_>
          <internalNodes>
            0 -1 43 -783814181 -1878318074 -2145124218 -36026350
            -994032497 1078632686 -578057517 -976232295</internalNodes>
          <leafValues>
            -4.2021751403808594e-01 4.4349351525306702e-01</leafValues></_>
        <_>
          <internalNodes>
            0 -1 30 -1240740337 -530808374 66703 -1065438379 -400522727
            -2001043431 -1383946050 -203690886</internalNodes>
          <leafValues>
            -4.9423524737358093e-01 4.0049639344215393e-01</leafValues></_>
        <_>
          <internalNodes>
            0 -1 26 -1752452191 -1949326398 1464927588 -1658993728
            601353077 -893221902 1501238049 -939544072</internalNodes>
          <leafValues>
            -4.5432797074317932e-01 3.9985594153404236e-01</leafValues></_>
        <_>
          <internalNodes>
            0 -1 80 -1424930528 724669008 1426178225 -1611937729
            -1476289896 -74448894 1926109602 186849393</internalNodes>
          <leafValues>
            -5.7846587896347046e-01 3.4242841601371765e-01</leafValues></_>
        <_>
          <internalNodes>
            0 -1 12 -1609764118 957829399 1157988751 -36122550 540346545
            -1174267773 -1994708978 1621223627</internalNodes>
          <leafValues>
            -5.6271600723266602e-01 3.5751265287399292e-01</leafValues></_>
        <_>
          <internalNodes>
            0 -1 21 798960267 -1030409697 -2063397541 -1595952551
            -762579808 172064833 -483592182 640019134</internalNodes>
          <leafValues>
            -6.1504048109054565e-01 2.8878709673881531e-01</leafValues></_>
        <_>
          <internalNodes>
            0 -1 59 1745159155 679982489 -667696561 1118662 2066422690
            696279219 151097538 -491521425</internalNodes>
          <leafValues>
            -5.4345428943634033e-01 3.4483036398887634e-01</leafValues></_>
        <_>
          <internalNodes>
            0 -1 55 1244942359 1407369489 50921695 -982810109 -666705730
            -1163290326 -343332569 -300211450</internalNodes>
          <leafValues>
            -4.2345428466796875e-01 4.6289044618606567e-01</leafValues></_>
        <_>
          <internalNodes>
            0 -1 91 -1919882383 -1211006060 1157749024 -1817631912
            1963061134 -637501439 -1467700836 -1257750140</internalNodes>
          <leafValues>
            -4.8528641462326050e-01 3.8878586888313293e-01</leafValues></_></weakClassifiers></_>
    <!-- stage 5 -->
    <_>
      <maxWeakCount>14</maxWeakCount>
      <stageThreshold>2.1866191923618317e-01</stageThreshold>
      <weakClassifiers>
        <_>
          <internalNodes>
            0 -1 63 -274750 -269025353 -288439576 804171494 -1344030
            2122252271 -8460498 -17307677</internalNodes>
          <leafValues>
            -3.6075949668884277e-01 6.1256545782089233e-01</leafValues></_>
        <_>
          <internalNodes>
            0 -1 40 1544612238 -1728051966 16846976 -585350832
            -1056876046 1082458753 -2147307902 1426837584</internalNodes>
          <leafValues>
            -4.7469562292098999e-01 4.5609554648399353e-01</leafValues></_>
        <_>
          <internalNodes>
            0 -1 10 1632889640 320704771 -788232884 1264290059
            1342346016 687866384 -1056875768 877232158</internalNodes>
          <leafValues>
            -5.3801792860031128e-01 4.0675833821296692e-01</leafValues></_>
        <_>
          <internalNodes>
            0 -1 73 -713048010 352218730 -1795339923 1978264189
            -733065976 2113339387 753268981 -1031317433</internalNodes>
          <leafValues>
            -4.1045954823493958e-01 5.3201365470886230e-01</leafValues></_>
        <_>
          <internalNodes>
            0 -1 79 -1083252132 518929096 49165729 1955032031 1125903502
            516881134 -959013651 1350041471</internalNodes>
          <leafValues>
            -4.3347811698913574e-01 5.2731949090957642e-01</leafValues></_>
        <_>
          <internalNodes>
            0 -1 15 -62960891 -176284516 -25199444 1954168634 -322982324
            1751080797 1733097102 -1208255253</internalNodes>
          <leafValues>
            -4.2901340126991272e-01 5.6024235486984253e-01</leafValues></_>
        <_>
          <internalNodes>
            0 -1 20 -518426132 -1055780224 20971781 59183106 -468137230
            134845056 -1241506468 1889144835</internalNodes>
          <leafValues>
            -5.3319650888442993e-01 4.5905005931854248e-01</leafValues></_>
        <_>
          <internalNodes>
            0 -1 19 -805861426 -151114123 -1207961797 -784521601
            -905980812 -1101234315 -1493417270 -1031030237</internalNodes>
          <leafValues>
            -3.6000338196754456e-01 6.4606136083602905e-01</leafValues></_>
        <_>
          <internalNodes>
            0 -1 50 -268828821 1789591540 -1048580 -1486688288
            -1384390732 -806354955 -2024572940 -293615119</internalNodes>
          <leafValues>
            -4.4082105159759521e-01 5.4554355144500732e-01</leafValues></_>
        <_>
          <internalNodes>
            0 -1 29 1553759409 1047456172 -26 -1511293855 -939737091
            1906769774 -1611206755 382598883</internalNodes>
          <leafValues>
            -4.0599238872528076e-01 6.1330676078796387e-01</leafValues></_>
        <_>
          <internalNodes>
            0 -1 53 -956129280 1092624585 1573255 545886467 1879085232
            -1600569216 -1728016384 -82795771</internalNodes>
          <leafValues>
            -6.8060368299484253e-01 4.0902864933013916e-01</leafValues></_>
        <_>
          <internalNodes>
            0 -1 85 -2058354567 -1860878334 -1056898753 1224737684
            671318669 -1207828480 137003450 -31457280</internalNodes>
          <leafValues>
            -5.4344123601913452e-01 4.8404964804649353e-01</leafValues></_>
        <_>
          <internalNodes>
            0 -1 60 1124092127 269254800 268501248 -1734246375 34115649
            32929 -1895708389 -1699190457</internalNodes>
          <leafValues>
            -4.6584752202033997e-01 5.6664717197418213e-01</leafValues></_>
        <_>
          <internalNodes>
            0 -1 78 289767556 -1056604159 268456330 -1321205605
            578904992 1115136 -2105468920 -1047549389</internalNodes>
          <leafValues>
            -5.7678812742233276e-01 4.9010807275772095e-01</leafValues></_></weakClassifiers></_>
    <!-- stage 6 -->
    <_>
      <maxWeakCount>10</maxWeakCount>
      <stageThreshold>7.0547264814376831e-01</stageThreshold>
      <weakClassifiers>
        <_>
          <internalNodes>
            0 -1 5 1090801672 268435729 16777476 100663554 32770
            268501130 167796744 -1610350080</internalNodes>
          <leafValues>
            -7.7777779102325439e-01 7.1212118864059448e-01</leafValues></_>
        <_>
          <internalNodes>
            0 -1 84 -1072070618 805404672 1097728 285282308 15009
            -1065353216 1090584624 444666145</internalNodes>
          <leafValues>
            -5.4766738414764404e-01 5.7795554399490356e-01</leafValues></_>
        <_>
          <internalNodes>
            0 -1 64 -1146254326 1572776682 1357816546 365896948
            788234238 68087549 -2030635041 -880063041</internalNodes>
          <leafValues>
            -4.3846940994262695e-01 7.3703467845916748e-01</leafValues></_>
        <_>
          <internalNodes>
            0 -1 52 1629683719 -1542454778 16777216 1548746948
            -2145222505 1082146968 268967952 -208961000</internalNodes>
          <leafValues>
            -4.9611568450927734e-01 5.8343845605850220e-01</leafValues></_>
        <_>
          <internalNodes>
            0 -1 74 2012186658 2078960362 1722163785 -1200739590
            347890894 2146107374 -849648136 1279706218</internalNodes>
          <leafValues>
            -5.1119685173034668e-01 5.7294559478759766e-01</leafValues></_>
        <_>
          <internalNodes>
            0 -1 24 -1198662083 -73147143 2143219695 736943613 780947358
            1819672565 -12744 187106705</internalNodes>
          <leafValues>
            -4.8133003711700439e-01 6.4108073711395264e-01</leafValues></_>
        <_>
          <internalNodes>
            0 -1 65 1354761130 9765123 -2147417851 -1618935804 34
            -1333247992 687870003 -1157560286</internalNodes>
          <leafValues>
            -5.3956925868988037e-01 5.9464752674102783e-01</leafValues></_>
        <_>
          <internalNodes>
            0 -1 4 182797857 1534181196 -1116836303 -1384878086
            1995781144 1786654198 -687929350 -1166373221</internalNodes>
          <leafValues>
            -5.2039110660552979e-01 6.3116627931594849e-01</leafValues></_>
        <_>
          <internalNodes>
            0 -1 82 -1942774825 334495741 -132129 1442840444 -1082441763
            -1614807049 1027080175 -1905063375</internalNodes>
          <leafValues>
            -3.8741618394851685e-01 7.8092175722122192e-01</leafValues></_>
        <_>
          <internalNodes>
            0 -1 14 -1090994642 1815673848 -352354656 1722840874
            -33952293 -956760194 209090269 -434915514</internalNodes>
          <leafValues>
            -5.1641345024108887e-01 6.2618780136108398e-01</leafValues></_></weakClassifiers></_></stages>
  <features>
    <_>
      <rect>
        0 0 3 9</rect></_>
    <_>
      <rect>
        0 4 3 4</rect></_>
    <_>
      <rect>
        0 4 5 4</rect></_>
    <_>
      <rect>
        0 9 10 9</rect></_>
    <_>
      <rect>
        0 23 2 4</rect></_>
    <_>
      <rect>
        1 0 10 6</rect></_>
    <_>
      <rect>
        1 2 5 2</rect></_>
    <_>
      <rect>
        1 9 5 7</rect></_>
    <_>
      <rect>
        1 12 2 5</rect></_>
    <_>
      <rect>
        1 18 3 6</rect></_>
    <_>
      <rect>
        1 22 3 4</rect></_>
    <_>
      <rect>
        2 0 9 12</rect></_>
    <_>
      <rect>
        2 3 6 3</rect></_>
    <_>
      <rect>
        2 10 10 8</rect></_>
    <_>
      <rect>
        2 12 1 3</rect></_>
    <_>
      <rect>
        2 19 1 1</rect></_>
    <_>
      <rect>
        2 20 4 5</rect></_>
    <_>
      <rect>
        3 24 6 4</rect></_>
    <_>
      <rect>
        4 1 8 4</rect></_>
    <_>
      <rect>
        4 16 2 6</rect></_>
    <_>
      <rect>
        4 19 3 5</rect></_>
    <_>
      <rect>
        5 22 2 3</rect></_>
    <_>
      <rect>
        6 0 7 3</rect></_>
    <_>
      <rect>
        6 0 8 4</rect></_>
    <_>
      <rect>
        6 1 3 2</rect></_>
    <_>
      <rect>
        7 6 2 2</rect></_>
    <_>
      <rect>
        7 9 1 1</rect></_>
    <_>
      <rect>
        7 28 1 1</rect></_>
    <_>
      <rect>
        8 1 8 8</rect></_>
    <_>
      <rect>
        8 6 2 3</rect></_>
    <_>
      <rect>
        8 28 1 1</rect></_>
    <_>
      <rect>
        9 12 3 8</rect></_>
    <_>
      <rect>
        9 27 1 1</rect></_>
    <_>
      <rect>
        10 2 4 5</rect></_>
    <_>
      <rect>
        10 19 3 5</rect></_>
    <_>
      <rect>
        10 26 1 2</rect></_>
    <_>
      <rect>
        10 29 1 2</rect></_>
    <_>
      <rect>
        11 0 7 7</rect></_>
    <_>
      <rect>
        11 1 7 3</rect></_>
    <_>
      <rect>
        11 8 7 5</rect></_>
    <_>
      <rect>
        11 9 2 2</rect></_>
    <_>
      <rect>
        11 11 7 6</rect></_>
    <_>
      <rect>
        11 12 2 2</rect></_>
    <_>
      <rect>
        11 12 2 3</rect></_>
    <_>
      <rect>
        11 15 1 1</rect></_>
    <_>
      <rect>
        11 18 3 4</rect></_>
    <_>
      <rect>
        12 13 2 1</rect></_>
    <_>
      <rect>
        12 21 2 5</rect></_>
    <_>
      <rect>
        12 21 3 5</rect></_>
    <_>
      <rect>
        12 28 1 2</rect></_>
    <_>
      <rect>
        13 9 1 1</rect></_>
    <_>
      <rect>
        13 11 1 1</rect></_>
    <_>
      <rect>
        13 16 1 1</rect></_>
    <_>
      <rect>
        13 22 3 3</rect></_>
    <_>
      <rect>
        14 1 2 1</rect></_>
    <_>
      <rect>
        14 3 6 2</rect></_>
    <_>
      <rect>
        14 6 3 7</rect></_>
    <_>
      <rect>
        14 13 2 2</rect></_>
    <_>
      <rect>
        14 15 1 1</rect></_>
    <_>
      <rect>
        14 33 1 1</rect></_>
    <_>
      <rect>
        15 0 4 3</rect></_>
    <_>
      <rect>
        15 1 3 1</rect></_>
    <_>
      <rect>
        15 8 2 2</rect></_>
    <_>
      <rect>
        15 13 5 5</rect></_>
    <_>
      <rect>
        15 15 2 2</rect></_>
    <_>
      <rect>
        15 29 4 2</rect></_>
    <_>
      <rect>
        16 1 5 8</rect></_>
    <_>
      <rect>
        16 12 5 8</rect></_>
    <_>
      <rect>
        17 1 5 6</rect></_>
    <_>
      <rect>
        17 5 5 10</rect></_>
    <_>
      <rect>
        17 19 5 5</rect></_>
    <_>
      <rect>
        18 2 3 1</rect></_>
    <_>
      <rect>
        19 3 2 1</rect></_>
    <_>
      <rect>
        19 9 2 3</rect></_>
    <_>
      <rect>
        19 12 2 2</rect></_>
    <_>
      <rect>
        19 14 2 3</rect></_>
    <_>
      <rect>
        20 8 4 4</rect></_>
    <_>
      <rect>
        20 11 3 6</rect></_>
    <_>
      <rect>
        20 12 3 7</rect></_>
    <_>
      <rect>
        20 16 2 2</rect></_>
    <_>
      <rect>
        23 1 3 1</rect></_>
    <_>
      <rect>
        23 3 2 1</rect></_>
    <_>
      <rect>
        23 6 2 1</rect></_>
    <_>
      <rect>
        23 8 3 6</rect></_>
    <_>
      <rect>
        23 18 3 5</rect></_>
    <_>
      <rect>
        23 30 3 2</rect></_>
    <_>
      <rect>
        26 9 2 1</rect></_>
    <_>
      <rect>
        26 18 2 2</rect></_>
    <_>
      <rect>
        26 30 2 1</rect></_>
    <_>
      <rect>
        28 6 1 1</rect></_>
    <_>
      <rect>
        29 16 1 1</rect></_>
    <_>
      <rect>
        29 24 1 1</rect></_>
    <_>
      <rect>
        29 27 1 1</rect></_>
    <_>
      <rect>
        29 33 1 1</rect></_></features></cascade>
</opencv_storage>
