<?xml version="1.0"?>
<opencv_storage>
<!-- Created using Computer Vision System Toolbox(tm) for MATLAB(R) -->
<!-- Version 8.6.0.267246 (R2015b) -->
<!-- Compatible with OpenCV 2.4 -->
<cascade>
  <stageType>BOOST</stageType>
  <featureType>LBP</featureType>
  <height>38</height>
  <width>32</width>
  <stageParams>
    <boostType>GAB</boostType>
    <minHitRate>9.9500000476837158e-01</minHitRate>
    <maxFalseAlarm>5.0000000745058060e-02</maxFalseAlarm>
    <weightTrimRate>9.4999999999999996e-01</weightTrimRate>
    <maxDepth>1</maxDepth>
    <maxWeakCount>100</maxWeakCount></stageParams>
  <featureParams>
    <maxCatCount>256</maxCatCount>
    <featSize>1</featSize></featureParams>
  <stageNum>8</stageNum>
  <stages>
    <!-- stage 0 -->
    <_>
      <maxWeakCount>9</maxWeakCount>
      <stageThreshold>-2.3626483976840973e-01</stageThreshold>
      <weakClassifiers>
        <_>
          <internalNodes>
            0 -1 73 -14680694 -552602870 285278464 -15744669 -629015637
            -610123646 -611202677 -808453365</internalNodes>
          <leafValues>
            -8.0548089742660522e-01 5.9157896041870117e-01</leafValues></_>
        <_>
          <internalNodes>
            0 -1 59 -246942848 -77951606 -1788362288 -6294697 -251616288
            1745797250 704724992 -1055838</internalNodes>
          <leafValues>
            -8.2938468456268311e-01 4.6704700589179993e-01</leafValues></_>
        <_>
          <internalNodes>
            0 -1 1 -565060702 -142601976 -217989113 -2158309 -796149589
            -291556721 -661862005 -2143421944</internalNodes>
          <leafValues>
            -7.6790827512741089e-01 4.2376303672790527e-01</leafValues></_>
        <_>
          <internalNodes>
            0 -1 29 -940575242 1299353616 -1651957416 -82095974 8630693
            1275185280 -922048344 -2107172</internalNodes>
          <leafValues>
            -6.8751704692840576e-01 4.8155415058135986e-01</leafValues></_>
        <_>
          <internalNodes>
            0 -1 53 -1803500047 -1811677168 -1862182467 -539426479
            -1333605447 -1456332671 141165019 -1925185520</internalNodes>
          <leafValues>
            -5.9760928153991699e-01 6.0200542211532593e-01</leafValues></_>
        <_>
          <internalNodes>
            0 -1 72 -114843134 -10632661 1157693835 -46251757 -607392849
            -116817165 -754198385 -775558262</internalNodes>
          <leafValues>
            -6.0662269592285156e-01 5.8005809783935547e-01</leafValues></_>
        <_>
          <internalNodes>
            0 -1 35 -385101094 -552185854 -2129637339 2141669205
            -790601512 786440 1611088128 1474552303</internalNodes>
          <leafValues>
            -6.7489588260650635e-01 5.5400949716567993e-01</leafValues></_>
        <_>
          <internalNodes>
            0 -1 54 1360384487 285671937 352393493 1570226759 88877739
            277446940 1258332364 1401680514</internalNodes>
          <leafValues>
            -5.8419728279113770e-01 5.9218400716781616e-01</leafValues></_>
        <_>
          <internalNodes>
            0 -1 25 -1022823222 -1816067822 -784334079 -2129330032
            -2143057777 -1064730223 -2096373041 -276611006</internalNodes>
          <leafValues>
            -6.3348495960235596e-01 5.8061271905899048e-01</leafValues></_></weakClassifiers></_>
    <!-- stage 1 -->
    <_>
      <maxWeakCount>12</maxWeakCount>
      <stageThreshold>-9.3230284750461578e-02</stageThreshold>
      <weakClassifiers>
        <_>
          <internalNodes>
            0 -1 75 -671105046 -37505233 -16694000 -1277 -568335958
            -1405909 -1169862447 -1064025</internalNodes>
          <leafValues>
            -7.5891757011413574e-01 2.5063291192054749e-01</leafValues></_>
        <_>
          <internalNodes>
            0 -1 36 -161488130 -279052206 -850174764 -1081644
            -1635590412 -560244075 -1727934276 -10756</internalNodes>
          <leafValues>
            -7.1184808015823364e-01 3.2263541221618652e-01</leafValues></_>
        <_>
          <internalNodes>
            0 -1 0 1745857425 -2369025 -651963905 -3233 747879339
            -1157692741 403376479 928884600</internalNodes>
          <leafValues>
            -6.1814075708389282e-01 4.0561732649803162e-01</leafValues></_>
        <_>
          <internalNodes>
            0 -1 84 -70399030 -1010830677 -1727903488 1292288194
            -908734326 -104562438 -362036695 -985531581</internalNodes>
          <leafValues>
            -6.1573588848114014e-01 4.3411391973495483e-01</leafValues></_>
        <_>
          <internalNodes>
            0 -1 26 -715656449 -242134194 -1819262190 1563492694
            1360053181 -263183840 1478250284 -310976145</internalNodes>
          <leafValues>
            -5.1396495103836060e-01 5.1271563768386841e-01</leafValues></_>
        <_>
          <internalNodes>
            0 -1 24 -2145823371 2065630356 -2130609833 -2240299
            -1824513868 -223903704 386093119 621482069</internalNodes>
          <leafValues>
            -6.1229139566421509e-01 4.2743465304374695e-01</leafValues></_>
        <_>
          <internalNodes>
            0 -1 18 -456223250 -797421426 -786197800 553671495
            -359997185 -1431396276 2335999 -1869839137</internalNodes>
          <leafValues>
            -6.2595027685165405e-01 4.1094702482223511e-01</leafValues></_>
        <_>
          <internalNodes>
            0 -1 45 1880658128 -128937828 -1626603047 286364320
            1241667764 2118848512 -349633382 -80261353</internalNodes>
          <leafValues>
            -5.3711813688278198e-01 4.6545571088790894e-01</leafValues></_>
        <_>
          <internalNodes>
            0 -1 15 690517848 -146713964 -754876067 1570406509 142781355
            -622722407 696486456 489097236</internalNodes>
          <leafValues>
            -7.1181344985961914e-01 3.6891767382621765e-01</leafValues></_>
        <_>
          <internalNodes>
            0 -1 96 -363600382 290042846 -2147385195 -708870001 1028302
            416383013 -381558118 -978261086</internalNodes>
          <leafValues>
            -6.0640656948089600e-01 4.6103167533874512e-01</leafValues></_>
        <_>
          <internalNodes>
            0 -1 55 1363522455 290172055 1592776703 -642261253
            -861997915 99005885 1280132491 -643698245</internalNodes>
          <leafValues>
            -4.5736631751060486e-01 6.2392169237136841e-01</leafValues></_>
        <_>
          <internalNodes>
            0 -1 19 -1308322928 -1674797043 285234513 -175832701
            847635161 -1157062509 12761263 -1827121011</internalNodes>
          <leafValues>
            -5.2343845367431641e-01 5.1525610685348511e-01</leafValues></_></weakClassifiers></_>
    <!-- stage 2 -->
    <_>
      <maxWeakCount>14</maxWeakCount>
      <stageThreshold>-4.0046975016593933e-01</stageThreshold>
      <weakClassifiers>
        <_>
          <internalNodes>
            0 -1 46 -77725888 -216144457 153068619 -2120721 -1335641177
            -213835225 -1199852613 -606090518</internalNodes>
          <leafValues>
            -7.0719289779663086e-01 1.4032258093357086e-01</leafValues></_>
        <_>
          <internalNodes>
            0 -1 4 -861867806 -7155405 1368388063 -774122681 -1008485445
            -311954296 -829828869 -810580279</internalNodes>
          <leafValues>
            -5.4695850610733032e-01 3.6211249232292175e-01</leafValues></_>
        <_>
          <internalNodes>
            0 -1 82 -524031354 -607025193 -1727672865 -714126977
            -92158257 -1167621647 -645154065 -2147120574</internalNodes>
          <leafValues>
            -5.4292434453964233e-01 4.0023556351661682e-01</leafValues></_>
        <_>
          <internalNodes>
            0 -1 79 -237373448 -750327316 -716361536 -671886648
            -1048453686 1761625477 1472293000 -1062409</internalNodes>
          <leafValues>
            -4.9419936537742615e-01 4.4085755944252014e-01</leafValues></_>
        <_>
          <internalNodes>
            0 -1 52 345520729 -472678168 293978383 1606268957
            -1585189639 -1179410294 501940461 255136016</internalNodes>
          <leafValues>
            -6.1760950088500977e-01 3.8049834966659546e-01</leafValues></_>
        <_>
          <internalNodes>
            0 -1 77 -606279990 268485002 -1811918704 93041238
            -1317558638 1211629961 1967231196 1373102739</internalNodes>
          <leafValues>
            -6.5233284235000610e-01 3.2705861330032349e-01</leafValues></_>
        <_>
          <internalNodes>
            0 -1 6 -2096973803 -1853517412 -719252579 -38714595
            822139834 -376731511 -1672788646 -1146546135</internalNodes>
          <leafValues>
            -4.7305470705032349e-01 4.9679347872734070e-01</leafValues></_>
        <_>
          <internalNodes>
            0 -1 2 -360646430 -1095515869 -242138823 355930511
            -1411153489 -610549029 180783559 -811334739</internalNodes>
          <leafValues>
            -5.5960416793823242e-01 4.2017009854316711e-01</leafValues></_>
        <_>
          <internalNodes>
            0 -1 87 -792276758 -2002780158 1092693272 1547645249
            -1531215108 -1005512702 1104265688 -919618021</internalNodes>
          <leafValues>
            -5.0667273998260498e-01 4.5914211869239807e-01</leafValues></_>
        <_>
          <internalNodes>
            0 -1 10 -212352208 -1911316101 1581406738 -1253024968
            -614233628 -98631520 -1837078224 -34275418</internalNodes>
          <leafValues>
            -6.7330831289291382e-01 3.5210672020912170e-01</leafValues></_>
        <_>
          <internalNodes>
            0 -1 11 -648166479 -1588481607 1359023633 1024557073
            -121265241 -1743101921 1921640436 -2145008825</internalNodes>
          <leafValues>
            -4.9039730429649353e-01 4.8611781001091003e-01</leafValues></_>
        <_>
          <internalNodes>
            0 -1 30 1674264644 -112974703 -645283829 -142634713
            -1741247690 -5762650 -1292850696 -396377398</internalNodes>
          <leafValues>
            -5.6754648685455322e-01 4.2574509978294373e-01</leafValues></_>
        <_>
          <internalNodes>
            0 -1 43 -1060576590 -1806118824 -1828646898 -37385535
            860766266 -1190494046 1263800583 1320403831</internalNodes>
          <leafValues>
            -5.7027268409729004e-01 4.1669762134552002e-01</leafValues></_>
        <_>
          <internalNodes>
            0 -1 27 1334841500 1968440781 153116147 -1081474281
            469766544 -1887333501 1771123327 -1677459336</internalNodes>
          <leafValues>
            -5.3866893053054810e-01 4.2806926369667053e-01</leafValues></_></weakClassifiers></_>
    <!-- stage 3 -->
    <_>
      <maxWeakCount>15</maxWeakCount>
      <stageThreshold>-5.0603240728378296e-01</stageThreshold>
      <weakClassifiers>
        <_>
          <internalNodes>
            0 -1 66 -1857957639 -652917740 -2121198121 -547511235
            -1610578755 -1414814336 220768509 -1617198888</internalNodes>
          <leafValues>
            -5.9938681125640869e-01 2.7634659409523010e-01</leafValues></_>
        <_>
          <internalNodes>
            0 -1 90 -52511768 -773934149 159583024 -110427134
            -1044010573 -1852389333 -314086767 -4256989</internalNodes>
          <leafValues>
            -6.3134968280792236e-01 2.9339540004730225e-01</leafValues></_>
        <_>
          <internalNodes>
            0 -1 49 -1034627620 -44154725 96471945 -39329277 -1702717244
            -1221132269 1126367819 -8429037</internalNodes>
          <leafValues>
            -4.5396339893341064e-01 4.1658073663711548e-01</leafValues></_>
        <_>
          <internalNodes>
            0 -1 40 -674482763 286933008 -419330593 2145978589
            -1415829059 -1290296920 1003203001 420889098</internalNodes>
          <leafValues>
            -5.9474623203277588e-01 3.4787055850028992e-01</leafValues></_>
        <_>
          <internalNodes>
            0 -1 32 -1062883312 -1878739811 1241686422 -1085722029
            -796419922 -1149072982 -326629331 -1423146442</internalNodes>
          <leafValues>
            -5.0871193408966064e-01 3.9889103174209595e-01</leafValues></_>
        <_>
          <internalNodes>
            0 -1 89 10506749 180457496 -1743662849 497303640 -1366189889
            -1429561168 1476395999 219152649</internalNodes>
          <leafValues>
            -5.3679436445236206e-01 3.6875694990158081e-01</leafValues></_>
        <_>
          <internalNodes>
            0 -1 95 -422578492 -502882206 1091097312 -83295030
            -476847452 12599440 92315894 -1013978998</internalNodes>
          <leafValues>
            -4.8372024297714233e-01 4.3690496683120728e-01</leafValues></_>
        <_>
          <internalNodes>
            0 -1 28 1979182874 -1141113478 2121620350 91291642
            -276950158 -231571 -27500966 -36987138</internalNodes>
          <leafValues>
            -3.9986217021942139e-01 5.3243559598922729e-01</leafValues></_>
        <_>
          <internalNodes>
            0 -1 17 825231412 -1717628408 -1853504993 -3700467
            -1878998573 -76905589 595917201 493113680</internalNodes>
          <leafValues>
            -7.1348834037780762e-01 3.2715561985969543e-01</leafValues></_>
        <_>
          <internalNodes>
            0 -1 97 1110485 1039167636 990972625 -36450095 587317502
            -1355570987 -1081566551 -808976235</internalNodes>
          <leafValues>
            -4.5810559391975403e-01 5.3329807519912720e-01</leafValues></_>
        <_>
          <internalNodes>
            0 -1 64 2143010035 -821573872 -5373954 -335151242 1864228863
            252952496 -284037636 -948965377</internalNodes>
          <leafValues>
            -3.8853085041046143e-01 5.8669507503509521e-01</leafValues></_>
        <_>
          <internalNodes>
            0 -1 16 -792661374 541198215 1493239053 -1157163775
            -1272211029 -1260740333 -1127634035 -1147590520</internalNodes>
          <leafValues>
            -6.7384225130081177e-01 3.4088641405105591e-01</leafValues></_>
        <_>
          <internalNodes>
            0 -1 80 1096083864 -722402991 -2061385459 -1995997045
            1086523524 823689366 151462283 -472165597</internalNodes>
          <leafValues>
            -5.1242178678512573e-01 4.4167050719261169e-01</leafValues></_>
        <_>
          <internalNodes>
            0 -1 39 -732143216 -250555246 1998864412 -410148726
            1803619485 1351622688 142606684 -66330470</internalNodes>
          <leafValues>
            -5.0404143333435059e-01 4.7781395912170410e-01</leafValues></_>
        <_>
          <internalNodes>
            0 -1 65 -750334884 1934805008 -2058256039 -2063531984
            -1030848398 -1340669818 -1995875394 1329840655</internalNodes>
          <leafValues>
            -6.1770784854888916e-01 3.7428998947143555e-01</leafValues></_></weakClassifiers></_>
    <!-- stage 4 -->
    <_>
      <maxWeakCount>16</maxWeakCount>
      <stageThreshold>-5.0203496217727661e-01</stageThreshold>
      <weakClassifiers>
        <_>
          <internalNodes>
            0 -1 33 -148897825 -282656365 746882168 -5331300 -744914441
            -1188327288 1244386813 -79956801</internalNodes>
          <leafValues>
            -6.2343573570251465e-01 1.5099714696407318e-01</leafValues></_>
        <_>
          <internalNodes>
            0 -1 86 -25828864 -2145066334 1444807040 -1903482 -878855546
            -2104839706 277837751 -980432901</internalNodes>
          <leafValues>
            -4.8046681284904480e-01 3.4426921606063843e-01</leafValues></_>
        <_>
          <internalNodes>
            0 -1 21 1942745527 322703572 587465808 1597548528 1085330601
            -984652 1273293021 1599599614</internalNodes>
          <leafValues>
            -5.1572865247726440e-01 3.3957338333129883e-01</leafValues></_>
        <_>
          <internalNodes>
            0 -1 44 -892345601 -1976445966 -637054566 -1535062984
            -104544299 1253247140 164092316 -605075152</internalNodes>
          <leafValues>
            -6.4993333816528320e-01 2.6327714323997498e-01</leafValues></_>
        <_>
          <internalNodes>
            0 -1 71 -804944120 500564560 553817242 1897077247
            -1869176378 -266371062 -221589272 -603608186</internalNodes>
          <leafValues>
            -6.3305383920669556e-01 3.0975636839866638e-01</leafValues></_>
        <_>
          <internalNodes>
            0 -1 42 1590489566 885565842 -753512163 1472878986
            1237635939 253440408 1522616698 1734566955</internalNodes>
          <leafValues>
            -5.6836372613906860e-01 3.2670503854751587e-01</leafValues></_>
        <_>
          <internalNodes>
            0 -1 13 1477701683 -1760886249 16913751 -145656171
            -653674800 -102215675 1372862603 1299411827</internalNodes>
          <leafValues>
            -4.5501419901847839e-01 4.6288156509399414e-01</leafValues></_>
        <_>
          <internalNodes>
            0 -1 67 319854493 2044152856 152127951 486899925 -1157106771
            -1333026719 288254475 959780121</internalNodes>
          <leafValues>
            -6.1691153049468994e-01 3.4337875247001648e-01</leafValues></_>
        <_>
          <internalNodes>
            0 -1 20 1724823222 1636343938 1365975751 -530189870
            -254491875 -89582461 -623277389 -913850573</internalNodes>
          <leafValues>
            -4.9433466792106628e-01 4.1374987363815308e-01</leafValues></_>
        <_>
          <internalNodes>
            0 -1 61 -267202836 -581594811 -2123771809 -1120419643
            -2012985278 -374783566 1666326775 -452867577</internalNodes>
          <leafValues>
            -4.4796451926231384e-01 4.5095154643058777e-01</leafValues></_>
        <_>
          <internalNodes>
            0 -1 81 -1232026404 -1785421553 -1878834891 487301135
            -696131402 -1179432724 -650100342 935043875</internalNodes>
          <leafValues>
            -5.0376760959625244e-01 4.3095386028289795e-01</leafValues></_>
        <_>
          <internalNodes>
            0 -1 92 1900607412 -1253924353 88129 -1994280110 537924784
            -492171081 193081890 1676616567</internalNodes>
          <leafValues>
            -7.0624274015426636e-01 2.9712662100791931e-01</leafValues></_>
        <_>
          <internalNodes>
            0 -1 5 -1088918595 -1282702763 -750710497 -1244145654
            -207631923 -1146568559 1492447528 -1101262624</internalNodes>
          <leafValues>
            -6.1457556486129761e-01 3.1343540549278259e-01</leafValues></_>
        <_>
          <internalNodes>
            0 -1 74 1897788383 992029218 -4209418 1280304642 2008807420
            -1077945410 1341779003 2079319719</internalNodes>
          <leafValues>
            -4.4666466116905212e-01 5.0066781044006348e-01</leafValues></_>
        <_>
          <internalNodes>
            0 -1 85 -851457152 1642658476 -1393667237 -176620689
            -343934529 -2134378521 1962862038 -711470721</internalNodes>
          <leafValues>
            -4.0743824839591980e-01 5.3871798515319824e-01</leafValues></_>
        <_>
          <internalNodes>
            0 -1 12 -73164495 -1080833421 2143186896 -1107296421
            -8978561 -1116733451 1601306449 -195756161</internalNodes>
          <leafValues>
            -4.3428155779838562e-01 4.9572175741195679e-01</leafValues></_></weakClassifiers></_>
    <!-- stage 5 -->
    <_>
      <maxWeakCount>15</maxWeakCount>
      <stageThreshold>-2.1329252421855927e-01</stageThreshold>
      <weakClassifiers>
        <_>
          <internalNodes>
            0 -1 14 157819903 -1253862635 -251572913 -543702263
            -760846168 -1834385152 -2145386327 -652213796</internalNodes>
          <leafValues>
            -5.7295376062393188e-01 3.7195634841918945e-01</leafValues></_>
        <_>
          <internalNodes>
            0 -1 9 -1671189757 -2146196720 1418762645 1612444563
            -2008399175 -1365536621 -331249587 -1063404874</internalNodes>
          <leafValues>
            -4.7912761569023132e-01 4.1276165843009949e-01</leafValues></_>
        <_>
          <internalNodes>
            0 -1 99 507001853 300187327 -268570883 -541999876 -272719883
            -33685513 -1216413969 -1086303236</internalNodes>
          <leafValues>
            -4.0891858935356140e-01 5.1696151494979858e-01</leafValues></_>
        <_>
          <internalNodes>
            0 -1 93 1074190120 1879364748 1279529729 -1790336765
            1083213960 1074331795 1897556798 1466356642</internalNodes>
          <leafValues>
            -5.2070581912994385e-01 4.4779884815216064e-01</leafValues></_>
        <_>
          <internalNodes>
            0 -1 41 -170048619 990093589 -8962371 -1883259873 1040187300
            807402413 860222094 -252723766</internalNodes>
          <leafValues>
            -4.2490810155868530e-01 5.4420924186706543e-01</leafValues></_>
        <_>
          <internalNodes>
            0 -1 62 -773856440 -243990445 34196768 -253231025
            -2132705205 -2088042269 -1172272206 -644095295</internalNodes>
          <leafValues>
            -5.7647615671157837e-01 3.9478534460067749e-01</leafValues></_>
        <_>
          <internalNodes>
            0 -1 70 -989671228 -1317240768 -804780705 226066515 759860
            -1777827697 -1977531350 187405058</internalNodes>
          <leafValues>
            -5.5732780694961548e-01 4.1116154193878174e-01</leafValues></_>
        <_>
          <internalNodes>
            0 -1 50 -2129345090 -1727987244 151072176 419545248 12751392
            -1187354192 55155128 -891354976</internalNodes>
          <leafValues>
            -6.8130546808242798e-01 3.2656538486480713e-01</leafValues></_>
        <_>
          <internalNodes>
            0 -1 34 -720865291 1368433684 1157989907 822614307 419959799
            -1182138110 939746111 35651592</internalNodes>
          <leafValues>
            -6.0405665636062622e-01 3.8590016961097717e-01</leafValues></_>
        <_>
          <internalNodes>
            0 -1 48 1560467540 1343463952 3146259 -736452301 -1068397924
            1772724238 -779610088 -934610261</internalNodes>
          <leafValues>
            -5.3849059343338013e-01 4.7457441687583923e-01</leafValues></_>
        <_>
          <internalNodes>
            0 -1 38 -193467630 -754396735 -1023405554 -345325525
            33890593 709263617 27668627 -171216345</internalNodes>
          <leafValues>
            -4.7861099243164063e-01 5.1310741901397705e-01</leafValues></_>
        <_>
          <internalNodes>
            0 -1 94 -71706901 -2044006750 -537989196 -2070166482
            -1614872597 -542179345 1979054074 -857749537</internalNodes>
          <leafValues>
            -4.2516660690307617e-01 5.8870804309844971e-01</leafValues></_>
        <_>
          <internalNodes>
            0 -1 37 285217182 -1741684622 1158874411 -418250725
            -513768544 -82704074 544409642 599228484</internalNodes>
          <leafValues>
            -5.5741298198699951e-01 4.5932152867317200e-01</leafValues></_>
        <_>
          <internalNodes>
            0 -1 78 -1074420272 881831854 -940088846 -169378537
            -33627074 -1945178121 2077684113 -1990232577</internalNodes>
          <leafValues>
            -4.3082734942436218e-01 5.8631956577301025e-01</leafValues></_>
        <_>
          <internalNodes>
            0 -1 68 -2142646882 1342211075 -402447684 1493860877
            17027744 35684498 672090280 1502830769</internalNodes>
          <leafValues>
            -7.8518849611282349e-01 3.3328834176063538e-01</leafValues></_></weakClassifiers></_>
    <!-- stage 6 -->
    <_>
      <maxWeakCount>11</maxWeakCount>
      <stageThreshold>-4.7336632013320923e-01</stageThreshold>
      <weakClassifiers>
        <_>
          <internalNodes>
            0 -1 22 -1090486480 2114289407 -8388617 -1048577 -1507606781
            -568131777 739196463 -2008408056</internalNodes>
          <leafValues>
            -4.0636041760444641e-01 6.7091089487075806e-01</leafValues></_>
        <_>
          <internalNodes>
            0 -1 8 -1325846656 548978472 1777336209 1496968831
            1862235773 -1929576467 -722076263 -1938967509</internalNodes>
          <leafValues>
            -4.7475674748420715e-01 5.6298649311065674e-01</leafValues></_>
        <_>
          <internalNodes>
            0 -1 51 285217713 -1073692636 293675291 -514781047
            -997948239 -1951211502 19120547 231669792</internalNodes>
          <leafValues>
            -5.1334196329116821e-01 5.1718413829803467e-01</leafValues></_>
        <_>
          <internalNodes>
            0 -1 63 1493232100 656513169 1344274696 1483808927
            1082130445 -1868955622 1476493768 1404428456</internalNodes>
          <leafValues>
            -6.3995701074600220e-01 4.3156665563583374e-01</leafValues></_>
        <_>
          <internalNodes>
            0 -1 100 134234469 -2130493312 8421385 -1719189183
            -1874808693 -1065320303 713673101 759191016</internalNodes>
          <leafValues>
            -5.9430587291717529e-01 4.6535190939903259e-01</leafValues></_>
        <_>
          <internalNodes>
            0 -1 88 -357655629 -1880511508 2096577521 -1677755212
            -1091907458 -1645304892 14643670 -1075861521</internalNodes>
          <leafValues>
            -4.1743716597557068e-01 7.6342558860778809e-01</leafValues></_>
        <_>
          <internalNodes>
            0 -1 7 -1442201796 -1086455880 2130673653 -38404446
            1073741564 -268976129 542633021 -1992735716</internalNodes>
          <leafValues>
            -5.0174164772033691e-01 5.9015059471130371e-01</leafValues></_>
        <_>
          <internalNodes>
            0 -1 31 -1739475424 -216985461 469835779 -2088697718
            -1451128513 -872218624 678136406 142703114</internalNodes>
          <leafValues>
            -6.4890760183334351e-01 4.6631976962089539e-01</leafValues></_>
        <_>
          <internalNodes>
            0 -1 57 -871048607 274464787 17351819 -1853849517 -535776614
            -1855969866 -1677721596 312747682</internalNodes>
          <leafValues>
            -5.6945776939392090e-01 5.3337842226028442e-01</leafValues></_>
        <_>
          <internalNodes>
            0 -1 58 -2142666330 -2129506045 293883185 -2145374049
            -1589440503 -1056962356 680575715 -526726926</internalNodes>
          <leafValues>
            -5.6724405288696289e-01 5.6910783052444458e-01</leafValues></_>
        <_>
          <internalNodes>
            0 -1 69 -1069252404 286630436 -2147467256 18415667
            -1873608547 -1334181830 30427975 402666035</internalNodes>
          <leafValues>
            -6.3212251663208008e-01 4.8441720008850098e-01</leafValues></_></weakClassifiers></_>
    <!-- stage 7 -->
    <_>
      <maxWeakCount>9</maxWeakCount>
      <stageThreshold>4.4138434529304504e-01</stageThreshold>
      <weakClassifiers>
        <_>
          <internalNodes>
            0 -1 83 1650896392 -1817266198 -1360086038 1198178164
            2112842752 1969618933 -667058556 24429056</internalNodes>
          <leafValues>
            -6.0000002384185791e-01 7.1669793128967285e-01</leafValues></_>
        <_>
          <internalNodes>
            0 -1 3 -396227915 -106758336 -1342504963 -219087376
            -1447129602 -1644167185 134043103 -272120704</internalNodes>
          <leafValues>
            -3.1259575486183167e-01 7.4672079086303711e-01</leafValues></_>
        <_>
          <internalNodes>
            0 -1 76 -799010628 -2122317815 139532 489226293 -2139053912
            -1972994039 1075857544 721570178</internalNodes>
          <leafValues>
            -5.8777016401290894e-01 5.2289605140686035e-01</leafValues></_>
        <_>
          <internalNodes>
            0 -1 91 -25369961 -1150376404 2012115475 451263520
            -324124187 -1496520961 1457483905 -610091869</internalNodes>
          <leafValues>
            -3.8074940443038940e-01 7.9530012607574463e-01</leafValues></_>
        <_>
          <internalNodes>
            0 -1 23 -67444189 -588205341 -1368103824 1229472786
            -578846721 -8585354 2135177068 -839568257</internalNodes>
          <leafValues>
            -4.9118617177009583e-01 6.5691304206848145e-01</leafValues></_>
        <_>
          <internalNodes>
            0 -1 60 1644143301 -657199360 -125983380 427228916
            -1040337784 -1610619020 -1192372945 -1538822322</internalNodes>
          <leafValues>
            -3.9593449234962463e-01 8.0685406923294067e-01</leafValues></_>
        <_>
          <internalNodes>
            0 -1 56 -369203837 891145949 -9437572 -1770618948 83633727
            -34996826 -699509511 -16748514</internalNodes>
          <leafValues>
            -3.6450809240341187e-01 8.2517629861831665e-01</leafValues></_>
        <_>
          <internalNodes>
            0 -1 98 255749096 2112859184 -1073741839 -545784580 -84289
            -672169985 905420734 1508990325</internalNodes>
          <leafValues>
            -4.7963085770606995e-01 6.6430693864822388e-01</leafValues></_>
        <_>
          <internalNodes>
            0 -1 47 41965776 -1845473253 -1994325996 1896153159
            939622421 -1878687743 1619525675 403128649</internalNodes>
          <leafValues>
            -6.0893523693084717e-01 5.6707859039306641e-01</leafValues></_></weakClassifiers></_></stages>
  <features>
    <_>
      <rect>
        0 0 10 7</rect></_>
    <_>
      <rect>
        0 6 10 8</rect></_>
    <_>
      <rect>
        0 7 6 6</rect></_>
    <_>
      <rect>
        0 11 6 3</rect></_>
    <_>
      <rect>
        0 12 6 5</rect></_>
    <_>
      <rect>
        0 13 2 2</rect></_>
    <_>
      <rect>
        0 13 3 1</rect></_>
    <_>
      <rect>
        0 17 2 1</rect></_>
    <_>
      <rect>
        0 19 3 3</rect></_>
    <_>
      <rect>
        0 22 3 2</rect></_>
    <_>
      <rect>
        0 22 5 5</rect></_>
    <_>
      <rect>
        0 23 3 3</rect></_>
    <_>
      <rect>
        0 24 3 4</rect></_>
    <_>
      <rect>
        0 29 4 3</rect></_>
    <_>
      <rect>
        1 0 5 5</rect></_>
    <_>
      <rect>
        1 1 2 1</rect></_>
    <_>
      <rect>
        1 3 8 9</rect></_>
    <_>
      <rect>
        1 12 2 1</rect></_>
    <_>
      <rect>
        1 14 8 4</rect></_>
    <_>
      <rect>
        1 16 2 1</rect></_>
    <_>
      <rect>
        1 16 4 3</rect></_>
    <_>
      <rect>
        1 18 7 6</rect></_>
    <_>
      <rect>
        2 0 9 10</rect></_>
    <_>
      <rect>
        2 19 5 5</rect></_>
    <_>
      <rect>
        3 0 9 3</rect></_>
    <_>
      <rect>
        3 12 4 6</rect></_>
    <_>
      <rect>
        3 21 5 5</rect></_>
    <_>
      <rect>
        4 0 8 2</rect></_>
    <_>
      <rect>
        4 24 3 4</rect></_>
    <_>
      <rect>
        5 23 7 5</rect></_>
    <_>
      <rect>
        7 10 8 6</rect></_>
    <_>
      <rect>
        8 11 4 5</rect></_>
    <_>
      <rect>
        8 12 5 4</rect></_>
    <_>
      <rect>
        8 25 8 4</rect></_>
    <_>
      <rect>
        9 0 7 2</rect></_>
    <_>
      <rect>
        9 19 4 3</rect></_>
    <_>
      <rect>
        9 20 7 6</rect></_>
    <_>
      <rect>
        9 22 6 2</rect></_>
    <_>
      <rect>
        9 23 2 2</rect></_>
    <_>
      <rect>
        9 28 2 2</rect></_>
    <_>
      <rect>
        10 8 6 5</rect></_>
    <_>
      <rect>
        10 10 7 3</rect></_>
    <_>
      <rect>
        10 21 3 4</rect></_>
    <_>
      <rect>
        10 22 2 3</rect></_>
    <_>
      <rect>
        10 26 4 4</rect></_>
    <_>
      <rect>
        10 27 4 2</rect></_>
    <_>
      <rect>
        11 2 7 9</rect></_>
    <_>
      <rect>
        11 12 3 2</rect></_>
    <_>
      <rect>
        11 13 5 4</rect></_>
    <_>
      <rect>
        11 23 6 2</rect></_>
    <_>
      <rect>
        11 30 3 2</rect></_>
    <_>
      <rect>
        11 32 5 2</rect></_>
    <_>
      <rect>
        12 0 2 1</rect></_>
    <_>
      <rect>
        12 0 6 2</rect></_>
    <_>
      <rect>
        12 8 5 4</rect></_>
    <_>
      <rect>
        12 11 4 5</rect></_>
    <_>
      <rect>
        12 13 4 4</rect></_>
    <_>
      <rect>
        12 15 5 2</rect></_>
    <_>
      <rect>
        13 12 6 6</rect></_>
    <_>
      <rect>
        13 14 6 6</rect></_>
    <_>
      <rect>
        13 15 3 2</rect></_>
    <_>
      <rect>
        14 2 6 3</rect></_>
    <_>
      <rect>
        14 8 6 6</rect></_>
    <_>
      <rect>
        15 4 5 6</rect></_>
    <_>
      <rect>
        15 8 4 8</rect></_>
    <_>
      <rect>
        15 15 2 5</rect></_>
    <_>
      <rect>
        15 32 2 1</rect></_>
    <_>
      <rect>
        16 1 2 1</rect></_>
    <_>
      <rect>
        16 18 5 6</rect></_>
    <_>
      <rect>
        16 24 2 2</rect></_>
    <_>
      <rect>
        16 24 3 2</rect></_>
    <_>
      <rect>
        17 0 5 6</rect></_>
    <_>
      <rect>
        17 1 5 6</rect></_>
    <_>
      <rect>
        17 7 5 5</rect></_>
    <_>
      <rect>
        17 8 3 5</rect></_>
    <_>
      <rect>
        17 11 5 6</rect></_>
    <_>
      <rect>
        17 23 2 2</rect></_>
    <_>
      <rect>
        18 11 3 3</rect></_>
    <_>
      <rect>
        18 15 1 1</rect></_>
    <_>
      <rect>
        18 17 3 5</rect></_>
    <_>
      <rect>
        18 20 4 2</rect></_>
    <_>
      <rect>
        18 22 2 2</rect></_>
    <_>
      <rect>
        19 1 4 4</rect></_>
    <_>
      <rect>
        19 5 4 3</rect></_>
    <_>
      <rect>
        19 6 4 5</rect></_>
    <_>
      <rect>
        19 11 1 1</rect></_>
    <_>
      <rect>
        19 13 1 1</rect></_>
    <_>
      <rect>
        19 14 2 4</rect></_>
    <_>
      <rect>
        19 18 1 1</rect></_>
    <_>
      <rect>
        20 0 4 1</rect></_>
    <_>
      <rect>
        20 5 4 8</rect></_>
    <_>
      <rect>
        20 15 1 1</rect></_>
    <_>
      <rect>
        20 17 4 3</rect></_>
    <_>
      <rect>
        20 18 2 2</rect></_>
    <_>
      <rect>
        21 7 2 4</rect></_>
    <_>
      <rect>
        21 14 1 1</rect></_>
    <_>
      <rect>
        22 1 3 5</rect></_>
    <_>
      <rect>
        23 27 2 1</rect></_>
    <_>
      <rect>
        23 32 3 2</rect></_>
    <_>
      <rect>
        28 20 1 1</rect></_>
    <_>
      <rect>
        29 15 1 1</rect></_></features></cascade>
</opencv_storage>
